%YAML:1.0
my_svm: !!opencv-ml-svm
   svm_type: C_SVC
   kernel: { type:RBF, gamma:5.0625000000000009e-001 }
   C: 6.2500000000000000e+001
   term_criteria: { epsilon:1.1920928955078125e-007, iterations:1000 }
   var_all: 3
   var_count: 3
   class_count: 4
   class_labels: !!opencv-matrix
      rows: 1
      cols: 4
      dt: i
      data: [ 0, 1, 2, 3 ]
   sv_total: 213
   support_vectors:
      - [ 1.65808082e-001, 5.27346253e-001, 3.60482514e-001 ]
      - [ 2.97003806e-001, 6.75682127e-001, 4.66653377e-001 ]
      - [ 2.74673045e-001, 5.72758257e-001, 3.52905989e-001 ]
      - [ 2.27624759e-001, 4.41936165e-001, 3.51859242e-001 ]
      - [ 2.57017046e-001, 6.17433310e-001, 3.67460877e-001 ]
      - [ 4.30310786e-001, 6.45239472e-001, 5.32000780e-001 ]
      - [ 4.43201691e-001, 6.07760072e-001, 3.49117756e-001 ]
      - [ 1.33699179e-001, 5.16931891e-001, 4.13019657e-001 ]
      - [ 3.07863653e-001, 5.67296684e-001, 3.51410627e-001 ]
      - [ 1.52732730e-001, 6.87092304e-001, 4.02452409e-001 ]
      - [ 2.22783595e-001, 4.81269956e-001, 3.93978685e-001 ]
      - [ 4.64456975e-001, 5.84518254e-001, 3.82613897e-001 ]
      - [ 2.94677556e-001, 4.30334657e-001, 4.76722181e-001 ]
      - [ 2.24948183e-001, 5.46220183e-001, 3.47921461e-001 ]
      - [ 4.49836493e-001, 5.52762389e-001, 3.50413710e-001 ]
      - [ 1.19438216e-001, 7.48391211e-001, 2.71558195e-001 ]
      - [ 6.04693413e-001, 4.74685282e-001, 3.07446927e-001 ]
      - [ 2.57017046e-001, 6.17433310e-001, 3.67460877e-001 ]
      - [ 4.44554865e-001, 4.75535661e-001, 4.23287809e-001 ]
      - [ 1.33699179e-001, 5.16931891e-001, 4.13019657e-001 ]
      - [ 2.64912814e-001, 4.45681542e-001, 3.21603030e-001 ]
      - [ 1.37786925e-001, 5.22146642e-001, 3.90140563e-001 ]
      - [ 3.26566607e-001, 5.18621743e-001, 3.84308666e-001 ]
      - [ 2.71184146e-001, 5.26773930e-001, 3.90290111e-001 ]
      - [ 2.08253577e-001, 4.92098629e-001, 3.68358105e-001 ]
      - [ 5.38619757e-001, 5.15719712e-001, 3.78526568e-001 ]
      - [ 1.33699179e-001, 5.16931891e-001, 4.13019657e-001 ]
      - [ 2.94033706e-001, 6.03745282e-001, 4.66653377e-001 ]
      - [ 4.69781846e-001, 6.58562601e-001, 3.55198890e-001 ]
      - [ 2.43987665e-001, 5.90865254e-001, 4.14116234e-001 ]
      - [ 6.90722287e-001, 4.60599512e-001, 5.35838902e-001 ]
      - [ 3.01035225e-001, 4.05478656e-001, 3.04854959e-001 ]
      - [ 5.57100534e-001, 4.37660605e-001, 3.75585705e-001 ]
      - [ 4.70393181e-001, 6.15967393e-001, 4.65357393e-001 ]
      - [ 2.24948183e-001, 5.46220183e-001, 3.47921461e-001 ]
      - [ 2.67203838e-001, 7.12006211e-001, 7.92642772e-001 ]
      - [ 3.22217166e-001, 5.74140072e-001, 3.93928826e-001 ]
      - [ 3.22217166e-001, 5.74140072e-001, 3.93928826e-001 ]
      - [ 1.65808082e-001, 5.27346253e-001, 3.60482514e-001 ]
      - [ 5.80208719e-001, 6.12879872e-001, 4.99152631e-001 ]
      - [ 3.18668008e-001, 4.28868473e-001, 4.99950171e-001 ]
      - [ 2.22836211e-001, 5.93426347e-001, 3.55896741e-001 ]
      - [ 2.68378526e-001, 5.74603140e-001, 3.66414130e-001 ]
      - [ 4.69781846e-001, 6.58562601e-001, 3.55198890e-001 ]
      - [ 1.82105526e-001, 4.46679711e-001, 4.35151041e-001 ]
      - [ 3.50080281e-001, 5.54028690e-001, 4.62017745e-001 ]
      - [ 4.67144042e-001, 5.62405884e-001, 3.67211640e-001 ]
      - [ 4.20655906e-001, 4.58767027e-001, 5.95404267e-001 ]
      - [ 5.07684767e-001, 6.69716060e-001, 5.31751573e-001 ]
      - [ 3.56110692e-001, 6.42466843e-001, 5.91366768e-001 ]
      - [ 5.07684767e-001, 6.69716060e-001, 5.31751573e-001 ]
      - [ 3.70108366e-001, 5.51515937e-001, 5.23377538e-001 ]
      - [ 3.42471570e-001, 6.13277555e-001, 5.30106664e-001 ]
      - [ 1.62138730e-001, 7.95819819e-001, 6.09959126e-001 ]
      - [ 9.93243530e-002, 8.78077030e-001, 5.75117171e-001 ]
      - [ 1.19319536e-001, 9.42538798e-001, 4.76871699e-001 ]
      - [ 2.58602262e-001, 6.57227814e-001, 5.65197885e-001 ]
      - [ 3.25500309e-001, 4.60918635e-001, 5.45558751e-001 ]
      - [ 2.66346723e-001, 6.68418884e-001, 5.66095114e-001 ]
      - [ 4.18740094e-001, 4.63593930e-001, 6.04525983e-001 ]
      - [ 5.73981285e-001, 4.69569713e-001, 6.55517876e-001 ]
      - [ 1.78869784e-001, 5.09013176e-001, 5.19090831e-001 ]
      - [ 5.60297310e-001, 7.39513159e-001, 6.32539153e-001 ]
      - [ 3.70108366e-001, 5.51515937e-001, 5.23377538e-001 ]
      - [ 3.51610541e-001, 5.48910677e-001, 5.71478426e-001 ]
      - [ 6.08141899e-001, 4.86641645e-001, 6.17386103e-001 ]
      - [ 4.06574637e-001, 4.88415211e-001, 5.79902291e-001 ]
      - [ 1.60029739e-001, 5.28793275e-001, 5.49097776e-001 ]
      - [ 2.40238547e-001, 7.77631342e-001, 5.61758578e-001 ]
      - [ 1.78869784e-001, 5.09013176e-001, 5.19090831e-001 ]
      - [ 3.07278365e-001, 5.35687268e-001, 5.71428597e-001 ]
      - [ 1.91418692e-001, 4.70871478e-001, 5.80899239e-001 ]
      - [ 1.72811851e-001, 5.26663482e-001, 5.39278269e-001 ]
      - [ 2.58602262e-001, 6.57227814e-001, 5.65197885e-001 ]
      - [ 2.53996015e-001, 6.15911663e-001, 5.81447542e-001 ]
      - [ 1.81495994e-001, 7.34425366e-001, 5.44611692e-001 ]
      - [ 6.68603480e-001, 5.25583088e-001, 7.47482836e-001 ]
      - [ 1.60469621e-001, 6.05119944e-001, 5.72325826e-001 ]
      - [ 1.24721073e-001, 7.85926282e-001, 5.70381820e-001 ]
      - [ 2.18842819e-001, 6.19588375e-001, 5.88326216e-001 ]
      - [ 2.80402273e-001, 6.36548519e-001, 5.35689354e-001 ]
      - [ 5.16608238e-001, 5.81311047e-001, 6.41860247e-001 ]
      - [ 3.40941966e-001, 4.76571649e-001, 5.72375655e-001 ]
      - [ 3.72936726e-001, 4.41525191e-001, 6.06669307e-001 ]
      - [ 2.66346723e-001, 6.68418884e-001, 5.66095114e-001 ]
      - [ 2.61296719e-001, 5.55223465e-001, 5.54879904e-001 ]
      - [ 4.90021974e-001, 5.37254214e-001, 5.98594368e-001 ]
      - [ 3.36303473e-001, 5.92142344e-001, 5.66792965e-001 ]
      - [ 2.48565301e-001, 6.37144864e-001, 4.53344643e-001 ]
      - [ 3.14299196e-001, 5.73732138e-001, 3.75635535e-001 ]
      - [ 4.31878179e-001, 5.46521246e-001, 4.51649904e-001 ]
      - [ 4.69174862e-001, 6.55208886e-001, 5.52038670e-001 ]
      - [ 4.09799427e-001, 4.83307689e-001, 5.24872899e-001 ]
      - [ 2.18633875e-001, 6.57073200e-001, 4.77120936e-001 ]
      - [ 1.17490642e-001, 6.82945788e-001, 4.04147148e-001 ]
      - [ 1.24679863e-001, 6.08471870e-001, 5.16050279e-001 ]
      - [ 4.00304526e-001, 5.61249912e-001, 3.87498766e-001 ]
      - [ 2.11010113e-001, 5.94887316e-001, 4.88037109e-001 ]
      - [ 2.84648925e-001, 4.79242593e-001, 4.57232594e-001 ]
      - [ 3.48297358e-001, 5.57585597e-001, 5.40673912e-001 ]
      - [ 4.16494250e-001, 5.54388106e-001, 3.22649807e-001 ]
      - [ 5.38704813e-001, 5.40640831e-001, 4.24533963e-001 ]
      - [ 4.34545577e-001, 5.67697465e-001, 3.83411437e-001 ]
      - [ 6.12597823e-001, 4.38876152e-001, 6.11055732e-001 ]
      - [ 4.56667751e-001, 4.66488212e-001, 3.96171868e-001 ]
      - [ 4.80056822e-001, 5.46308517e-001, 5.71827352e-001 ]
      - [ 2.99582571e-001, 5.23836017e-001, 4.86142963e-001 ]
      - [ 9.40823495e-001, 4.87841904e-001, 4.76472944e-001 ]
      - [ 4.41215098e-001, 5.79178333e-001, 5.88027120e-001 ]
      - [ 4.46912318e-001, 4.83800679e-001, 5.48998117e-001 ]
      - [ 1.81647301e-001, 6.52236998e-001, 5.42019725e-001 ]
      - [ 7.97346830e-001, 4.17137891e-001, 6.08762860e-001 ]
      - [ 3.48297358e-001, 5.57585597e-001, 5.40673912e-001 ]
      - [ 6.58176513e-003, 4.23722416e-001, 4.66653377e-001 ]
      - [ 3.43115002e-001, 5.10580420e-001, 3.78377050e-001 ]
      - [ 3.18480641e-001, 4.78218228e-001, 4.74628657e-001 ]
      - [ 3.17902476e-001, 5.19694030e-001, 4.53394473e-001 ]
      - [ 2.41938546e-001, 5.25725365e-001, 5.35589695e-001 ]
      - [ 5.41135371e-001, 6.15150750e-001, 3.26786965e-001 ]
      - [ 2.51357734e-001, 5.85382998e-001, 5.44113278e-001 ]
      - [ 6.13309443e-001, 4.96838778e-001, 3.87149841e-001 ]
      - [ 3.05257678e-001, 5.78870118e-001, 5.62905014e-001 ]
      - [ 4.30903494e-001, 5.77517629e-001, 5.64749300e-001 ]
      - [ 2.73149699e-001, 5.98854125e-001, 4.64260787e-001 ]
      - [ 3.92781407e-001, 5.31667173e-001, 3.65815967e-001 ]
      - [ 2.74201930e-001, 3.83933961e-001, 4.33356613e-001 ]
      - [ 2.70972013e-001, 3.76619101e-001, 4.29219425e-001 ]
      - [ 4.17826474e-001, 4.96430933e-001, 4.12919968e-001 ]
      - [ 3.48816037e-001, 5.02017617e-001, 4.56435055e-001 ]
      - [ 2.05150068e-001, 5.91761708e-001, 4.13518101e-001 ]
      - [ 4.03074652e-001, 6.31259561e-001, 5.80649972e-001 ]
      - [ 2.75647432e-001, 4.74312335e-001, 4.23686594e-001 ]
      - [ 4.68703240e-001, 4.86405164e-001, 3.98464769e-001 ]
      - [ 1.40436545e-001, 6.02140546e-001, 4.05144066e-001 ]
      - [ 3.14120978e-001, 5.69053829e-001, 4.85694349e-001 ]
      - [ 3.98926616e-001, 5.02636433e-001, 4.41531271e-001 ]
      - [ 1.32981196e-001, 5.03954947e-001, 4.44920748e-001 ]
      - [ 3.98926616e-001, 5.02636433e-001, 4.41531271e-001 ]
      - [ 5.87608695e-001, 4.96333122e-001, 4.26477939e-001 ]
      - [ 6.35867894e-001, 5.55886090e-001, 4.46515799e-001 ]
      - [ 3.57353956e-001, 5.22561550e-001, 5.83092451e-001 ]
      - [ 1.81530744e-001, 5.79109490e-001, 3.90040874e-001 ]
      - [ 3.78855884e-001, 5.63285649e-001, 5.44212937e-001 ]
      - [ 3.23231667e-001, 5.42478085e-001, 4.78117853e-001 ]
      - [ 3.78855884e-001, 5.63285649e-001, 5.44212937e-001 ]
      - [ 4.66452777e-001, 5.93090177e-001, 4.52547103e-001 ]
      - [ 4.10372943e-001, 5.59817255e-001, 5.40324986e-001 ]
      - [ 3.84951055e-001, 5.02118230e-001, 4.17356193e-001 ]
      - [ 5.61566293e-001, 4.91216928e-001, 5.92214167e-001 ]
      - [ 1.59773290e-001, 6.80147111e-001, 4.42229092e-001 ]
      - [ 5.36762059e-001, 6.09344065e-001, 4.45070297e-001 ]
      - [ 1.18950404e-001, 8.88246179e-001, 5.75964510e-001 ]
      - [ 4.30903494e-001, 5.77517629e-001, 5.64749300e-001 ]
      - [ 5.12503266e-001, 6.19247913e-001, 5.78157723e-001 ]
      - [ 4.12878990e-001, 5.84524333e-001, 5.52935898e-001 ]
      - [ 2.17234612e-001, 7.26816952e-001, 4.78018165e-001 ]
      - [ 4.55055892e-001, 5.32351911e-001, 3.77629369e-001 ]
      - [ 3.01409483e-001, 5.55414140e-001, 4.30615097e-001 ]
      - [ 4.57272321e-001, 5.71596742e-001, 4.41431582e-001 ]
      - [ 3.05536300e-001, 6.44576490e-001, 5.09769738e-001 ]
      - [ 5.33374369e-001, 5.59032679e-001, 6.56165898e-001 ]
      - [ 1.40745863e-001, 7.65440345e-001, 4.67101991e-001 ]
      - [ 2.18633875e-001, 6.57073200e-001, 4.77120936e-001 ]
      - [ 5.12919605e-001, 5.89006424e-001, 6.48090899e-001 ]
      - [ 8.56108546e-001, 2.46166423e-001, 2.35270679e-001 ]
      - [ 5.45655310e-001, 5.49436688e-001, 4.95962530e-001 ]
      - [ 1.53019458e-001, 4.55706179e-001, 5.17894506e-001 ]
      - [ 2.30141684e-001, 5.55373073e-001, 3.52257997e-001 ]
      - [ 1.06140263e-001, 7.18693912e-001, 3.83261889e-001 ]
      - [ 1.46733075e-001, 6.25731349e-001, 4.42229092e-001 ]
      - [ 1.53792217e-001, 5.32566965e-001, 4.15163010e-001 ]
      - [ 3.58337641e-001, 2.42799014e-001, 6.39766753e-001 ]
      - [ 4.87837307e-002, 4.98074174e-001, 3.94427299e-001 ]
      - [ 2.08005279e-001, 3.77918333e-001, 4.35549796e-001 ]
      - [ 9.41770896e-002, 6.00043237e-001, 4.11474437e-001 ]
      - [ 3.28188807e-001, 5.83605289e-001, 0. ]
      - [ 5.12919605e-001, 5.89006424e-001, 6.48090899e-001 ]
      - [ 1.93625525e-001, 5.53332031e-001, 5.17545640e-001 ]
      - [ 9.67467949e-002, 4.23934221e-001, 3.94576818e-001 ]
      - [ 1.00696206e-001, 7.31275320e-001, 6.02831244e-001 ]
      - [ 3.13890308e-001, 6.71890974e-001, 5.95354438e-001 ]
      - [ 2.12375507e-001, 5.39414704e-001, 4.46765035e-001 ]
      - [ 3.67357850e-001, 2.40749761e-001, 6.65088236e-001 ]
      - [ 3.75745520e-002, 8.78184795e-001, 5.26916564e-001 ]
      - [ 3.47872674e-001, 6.07913971e-001, 4.34951663e-001 ]
      - [ 3.08009565e-001, 5.13260007e-001, 3.15023422e-001 ]
      - [ 4.40761864e-001, 4.02336657e-001, 5.38131773e-001 ]
      - [ 1.26052544e-001, 6.12639070e-001, 5.36187828e-001 ]
      - [ 1.26052544e-001, 6.12639070e-001, 5.36187828e-001 ]
      - [ 2.92288512e-001, 5.96424043e-001, 4.79712903e-001 ]
      - [ 5.10720685e-002, 1., 2.77041167e-001 ]
      - [ 2.72785395e-001, 2.96656489e-001, 2.55657464e-001 ]
      - [ 1.60793439e-001, 4.23932612e-001, 5.59415817e-001 ]
      - [ 1.53792217e-001, 5.32566965e-001, 4.15163010e-001 ]
      - [ 1.50221780e-001, 5.65898716e-001, 5.60263216e-001 ]
      - [ 1.30294874e-001, 5.59848845e-001, 5.50144553e-001 ]
      - [ 1.16442740e-001, 6.14835083e-001, 4.88136798e-001 ]
      - [ 7.69290745e-001, 2.40047038e-001, 5.96151948e-001 ]
      - [ 9.02222544e-002, 6.49395883e-001, 5.10666966e-001 ]
      - [ 3.43020946e-001, 5.31296670e-001, 4.60223317e-001 ]
      - [ 3.04216355e-001, 4.10202473e-001, 3.72096509e-001 ]
      - [ 2.09961012e-001, 4.84015346e-001, 4.21144456e-001 ]
      - [ 4.40761864e-001, 4.02336657e-001, 5.38131773e-001 ]
      - [ 2.24071801e-001, 5.23443103e-001, 4.45269674e-001 ]
      - [ 4.78207707e-001, 6.42855704e-001, 5.32549083e-001 ]
      - [ 1.32234827e-001, 6.40365481e-001, 4.09580320e-001 ]
      - [ 1., 4.17179614e-001, 4.33256924e-001 ]
      - [ 1.13295130e-001, 7.88492560e-001, 5.08922338e-001 ]
      - [ 2.53597081e-001, 5.69790661e-001, 4.13767338e-001 ]
      - [ 2.46697113e-001, 6.72026634e-001, 3.80021930e-001 ]
      - [ 5.39131880e-001, 6.20555043e-001, 1. ]
      - [ 1.50560334e-001, 6.48941636e-001, 5.94207942e-001 ]
      - [ 8.60334113e-002, 6.92317426e-001, 5.28262377e-001 ]
   decision_functions:
      -
         sv_count: 24
         rho: -2.2549987433454026e+000
         alpha: [ 6.2500000000000000e+001, 6.2500000000000000e+001,
             6.2500000000000000e+001, 6.2500000000000000e+001,
             6.2500000000000000e+001, 5.0128131576423037e+001,
             3.1378173402641970e+001, 6.2500000000000000e+001,
             6.2500000000000000e+001, 6.2500000000000000e+001,
             2.1879963080110706e+001, 6.2500000000000000e+001,
             -6.2500000000000000e+001, -6.2500000000000000e+001,
             -6.2500000000000000e+001, -6.2500000000000000e+001,
             -3.5865001104647206e+001, -6.2500000000000000e+001,
             -6.2500000000000000e+001, -6.2500000000000000e+001,
             -6.2500000000000000e+001, -5.0212669545284676e+000,
             -6.2500000000000000e+001, -6.2500000000000000e+001 ]
         index: [ 1, 5, 9, 12, 27, 30, 33, 35, 39, 40, 44, 45, 48, 50,
             51, 52, 55, 57, 61, 63, 65, 66, 69, 80 ]
      -
         sv_count: 82
         rho: -3.6909897584151969e+000
         alpha: [ 4.3147648667446425e+000, 6.2500000000000000e+001,
             6.2500000000000000e+001, 6.2500000000000000e+001,
             6.2500000000000000e+001, 6.2500000000000000e+001,
             6.2500000000000000e+001, 6.2500000000000000e+001,
             6.2500000000000000e+001, 6.2500000000000000e+001,
             6.2500000000000000e+001, 6.2500000000000000e+001,
             6.2500000000000000e+001, 6.2500000000000000e+001,
             6.2500000000000000e+001, 6.2500000000000000e+001,
             6.2500000000000000e+001, 6.2500000000000000e+001,
             6.2500000000000000e+001, 6.2500000000000000e+001,
             6.2500000000000000e+001, 6.2500000000000000e+001,
             6.2500000000000000e+001, 6.2500000000000000e+001,
             6.2500000000000000e+001, 6.2500000000000000e+001,
             6.2500000000000000e+001, 6.2500000000000000e+001,
             6.2500000000000000e+001, 6.2500000000000000e+001,
             6.2500000000000000e+001, 6.2500000000000000e+001,
             6.2500000000000000e+001, 2.3836747470133993e+001,
             6.2500000000000000e+001, 6.2500000000000000e+001,
             6.2500000000000000e+001, 6.2500000000000000e+001,
             6.2500000000000000e+001, 6.2500000000000000e+001,
             6.2500000000000000e+001, -6.2500000000000000e+001,
             -6.2500000000000000e+001, -5.1588819140331445e+001,
             -5.2239945709159457e+001, -6.2500000000000000e+001,
             -6.2500000000000000e+001, -4.7975409824364725e+001,
             -6.2500000000000000e+001, -6.2500000000000000e+001,
             -6.2500000000000000e+001, -6.2500000000000000e+001,
             -6.2500000000000000e+001, -6.2500000000000000e+001,
             -6.2500000000000000e+001, -6.2500000000000000e+001,
             -6.2500000000000000e+001, -6.2500000000000000e+001,
             -6.2500000000000000e+001, -6.2500000000000000e+001,
             -6.2500000000000000e+001, -6.2500000000000000e+001,
             -6.2500000000000000e+001, -6.2500000000000000e+001,
             -6.2500000000000000e+001, -6.2500000000000000e+001,
             -6.2500000000000000e+001, -6.2500000000000000e+001,
             -6.2500000000000000e+001, -6.2500000000000000e+001,
             -1.0158713672134787e+001, -6.2500000000000000e+001,
             -6.2500000000000000e+001, -6.2500000000000000e+001,
             -6.2500000000000000e+001, -6.2500000000000000e+001,
             -6.2500000000000000e+001, -6.2500000000000000e+001,
             -6.2500000000000000e+001, -6.2500000000000000e+001,
             -6.2500000000000000e+001, -5.3688623990888168e+001 ]
         index: [ 0, 1, 2, 3, 4, 5, 6, 7, 8, 9, 10, 11, 12, 14, 16, 17,
             18, 19, 21, 22, 23, 24, 25, 26, 27, 28, 29, 30, 32, 33, 35,
             36, 37, 38, 39, 40, 42, 43, 44, 45, 46, 88, 89, 90, 93, 94,
             96, 98, 100, 101, 102, 104, 113, 114, 116, 118, 120, 123,
             124, 125, 126, 127, 129, 131, 132, 133, 135, 136, 137, 138,
             139, 141, 145, 147, 149, 150, 155, 156, 157, 158, 161, 162 ]
      -
         sv_count: 65
         rho: 1.0757352542385892e+001
         alpha: [ 6.2500000000000000e+001, 6.2500000000000000e+001,
             6.2500000000000000e+001, 6.2500000000000000e+001,
             6.2500000000000000e+001, 6.2500000000000000e+001,
             6.2500000000000000e+001, 6.2500000000000000e+001,
             6.2500000000000000e+001, 6.2500000000000000e+001,
             6.2500000000000000e+001, 6.2500000000000000e+001,
             6.2500000000000000e+001, 6.2500000000000000e+001,
             1.1923345700740311e+001, 6.2500000000000000e+001,
             6.2500000000000000e+001, 6.2500000000000000e+001,
             6.2500000000000000e+001, 6.2500000000000000e+001,
             6.2500000000000000e+001, 5.4868505019728765e+001,
             6.6092635242021958e+000, 6.2500000000000000e+001,
             6.2500000000000000e+001, 6.2500000000000000e+001,
             6.2500000000000000e+001, 6.2500000000000000e+001,
             6.2500000000000000e+001, 6.2500000000000000e+001,
             6.2500000000000000e+001, 6.2500000000000000e+001,
             -2.9912923915192604e+001, -2.3883299886355367e+001,
             -6.2500000000000000e+001, -6.2500000000000000e+001,
             -6.2500000000000000e+001, -6.2500000000000000e+001,
             -6.2500000000000000e+001, -6.2500000000000000e+001,
             -6.2500000000000000e+001, -6.2500000000000000e+001,
             -6.2500000000000000e+001, -5.7236461217584996e+001,
             -6.2500000000000000e+001, -6.2500000000000000e+001,
             -6.2500000000000000e+001, -6.2500000000000000e+001,
             -6.2500000000000000e+001, -6.2500000000000000e+001,
             -6.2500000000000000e+001, -6.2500000000000000e+001,
             -1.6715765498595747e+001, -6.2500000000000000e+001,
             -6.2500000000000000e+001, -8.1526637269425297e+000,
             -6.2500000000000000e+001, -6.2500000000000000e+001,
             -6.2500000000000000e+001, -6.2500000000000000e+001,
             -6.2500000000000000e+001, -6.2500000000000000e+001,
             -6.2500000000000000e+001, -6.2500000000000000e+001,
             -6.2500000000000000e+001 ]
         index: [ 0, 1, 3, 5, 7, 9, 10, 12, 13, 15, 18, 19, 20, 21, 22,
             23, 24, 26, 27, 29, 30, 31, 32, 33, 34, 35, 38, 39, 40, 41,
             44, 45, 163, 164, 165, 167, 168, 169, 170, 172, 173, 174,
             175, 176, 177, 178, 180, 181, 184, 185, 186, 189, 190, 191,
             193, 196, 199, 200, 201, 202, 203, 204, 205, 208, 209 ]
      -
         sv_count: 63
         rho: 1.2231366409729005e+000
         alpha: [ 6.2500000000000000e+001, 6.2500000000000000e+001,
             6.2500000000000000e+001, 6.2500000000000000e+001,
             6.2500000000000000e+001, 6.2500000000000000e+001,
             6.2500000000000000e+001, 6.2500000000000000e+001,
             6.2500000000000000e+001, 6.2500000000000000e+001,
             6.2500000000000000e+001, 6.2500000000000000e+001,
             6.2500000000000000e+001, 6.2500000000000000e+001,
             6.2500000000000000e+001, 6.2500000000000000e+001,
             6.2500000000000000e+001, 6.2500000000000000e+001,
             5.9211073769666491e+000, 1.3305108448273756e+001,
             6.2500000000000000e+001, 6.2500000000000000e+001,
             6.2500000000000000e+001, 6.2500000000000000e+001,
             6.2500000000000000e+001, 6.2500000000000000e+001,
             1.0586980259825074e+001, 6.2500000000000000e+001,
             6.2500000000000000e+001, 6.2500000000000000e+001,
             6.2500000000000000e+001, 6.2500000000000000e+001,
             -6.2500000000000000e+001, -2.3087034901025344e+001,
             -6.7261611840400803e+000, -6.2500000000000000e+001,
             -6.2500000000000000e+001, -6.2500000000000000e+001,
             -6.2500000000000000e+001, -6.2500000000000000e+001,
             -6.2500000000000000e+001, -6.2500000000000000e+001,
             -6.2500000000000000e+001, -6.2500000000000000e+001,
             -6.2500000000000000e+001, -6.2500000000000000e+001,
             -6.2500000000000000e+001, -6.2500000000000000e+001,
             -6.2500000000000000e+001, -6.2500000000000000e+001,
             -6.2500000000000000e+001, -6.2500000000000000e+001,
             -6.2500000000000000e+001, -6.2500000000000000e+001,
             -6.2500000000000000e+001, -6.2500000000000000e+001,
             -6.2500000000000000e+001, -6.2500000000000000e+001,
             -6.2500000000000000e+001, -6.2500000000000000e+001,
             -6.2500000000000000e+001, -6.2500000000000000e+001,
             -6.2500000000000000e+001 ]
         index: [ 47, 48, 49, 50, 51, 52, 55, 56, 57, 58, 59, 60, 61, 62,
             63, 64, 65, 66, 67, 68, 69, 70, 72, 73, 75, 80, 81, 82, 84,
             85, 86, 87, 91, 92, 93, 95, 97, 99, 103, 105, 108, 109, 110,
             112, 113, 117, 119, 121, 122, 130, 140, 142, 144, 146, 148,
             151, 152, 153, 154, 155, 159, 160, 161 ]
      -
         sv_count: 55
         rho: 1.5077824987184433e+001
         alpha: [ 6.2500000000000000e+001, 6.2500000000000000e+001,
             6.2500000000000000e+001, 5.3772272411863895e+001,
             6.2500000000000000e+001, 6.2500000000000000e+001,
             6.2500000000000000e+001, 6.2500000000000000e+001,
             1.3020042589234588e+001, 6.2500000000000000e+001,
             6.2500000000000000e+001, 6.2500000000000000e+001,
             6.2500000000000000e+001, 6.2500000000000000e+001,
             6.2500000000000000e+001, 6.2500000000000000e+001,
             6.2500000000000000e+001, 6.2500000000000000e+001,
             2.6440056546435535e+001, 6.2500000000000000e+001,
             2.8144851125617432e+001, 6.2500000000000000e+001,
             6.2500000000000000e+001, 6.2500000000000000e+001,
             6.2500000000000000e+001, 6.2500000000000000e+001,
             6.2500000000000000e+001, 6.2500000000000000e+001,
             -6.2500000000000000e+001, -6.2500000000000000e+001,
             -6.2500000000000000e+001, -6.2500000000000000e+001,
             -6.2500000000000000e+001, -6.2500000000000000e+001,
             -6.2500000000000000e+001, -1.8751425757649820e+001,
             -6.2500000000000000e+001, -6.2500000000000000e+001,
             -6.2500000000000000e+001, -6.2500000000000000e+001,
             -6.2500000000000000e+001, -6.2500000000000000e+001,
             -6.2500000000000000e+001, -4.0125796915501589e+001,
             -6.2500000000000000e+001, -6.2500000000000000e+001,
             -6.2500000000000000e+001, -6.2500000000000000e+001,
             -6.2500000000000000e+001, -6.2500000000000000e+001,
             -6.2500000000000000e+001, -6.2500000000000000e+001,
             -6.2500000000000000e+001, -6.2500000000000000e+001,
             -6.2500000000000000e+001 ]
         index: [ 47, 51, 52, 53, 54, 55, 57, 59, 60, 61, 63, 65, 66, 67,
             69, 70, 71, 72, 74, 75, 76, 77, 78, 79, 80, 82, 83, 85, 163,
             165, 171, 176, 177, 179, 180, 181, 182, 183, 184, 186, 187,
             188, 189, 192, 194, 195, 198, 199, 202, 204, 207, 208, 210,
             211, 212 ]
      -
         sv_count: 76
         rho: 1.1368343548039052e+001
         alpha: [ 6.2500000000000000e+001, 3.6075677973591496e+001,
             6.2500000000000000e+001, 6.2500000000000000e+001,
             6.2500000000000000e+001, 6.2500000000000000e+001,
             6.2500000000000000e+001, 6.2500000000000000e+001,
             6.2500000000000000e+001, 6.2500000000000000e+001,
             6.2500000000000000e+001, 6.2500000000000000e+001,
             6.2500000000000000e+001, 6.2500000000000000e+001,
             6.2500000000000000e+001, 6.2500000000000000e+001,
             6.2500000000000000e+001, 6.2500000000000000e+001,
             6.2500000000000000e+001, 6.2500000000000000e+001,
             6.2500000000000000e+001, 6.2500000000000000e+001,
             6.2500000000000000e+001, 6.2500000000000000e+001,
             6.2500000000000000e+001, 6.2500000000000000e+001,
             6.2500000000000000e+001, 6.2500000000000000e+001,
             6.2500000000000000e+001, 6.2500000000000000e+001,
             6.2500000000000000e+001, 6.2500000000000000e+001,
             6.2500000000000000e+001, 6.2500000000000000e+001,
             6.2500000000000000e+001, 6.2500000000000000e+001,
             6.2500000000000000e+001, -6.2500000000000000e+001,
             -6.2500000000000000e+001, -3.3622012082217360e+001,
             -6.2500000000000000e+001, -6.2500000000000000e+001,
             -6.2500000000000000e+001, -6.2500000000000000e+001,
             -6.2500000000000000e+001, -6.2500000000000000e+001,
             -2.4829163781062029e+001, -6.2500000000000000e+001,
             -6.2500000000000000e+001, -5.1857120085849751e+001,
             -6.2500000000000000e+001, -6.2500000000000000e+001,
             -6.2500000000000000e+001, -6.2500000000000000e+001,
             -6.2500000000000000e+001, -6.2500000000000000e+001,
             -6.2500000000000000e+001, -6.2500000000000000e+001,
             -6.2500000000000000e+001, -6.2500000000000000e+001,
             -6.2500000000000000e+001, -6.2500000000000000e+001,
             -5.1265922197320258e+001, -6.2500000000000000e+001,
             -6.2500000000000000e+001, -6.2500000000000000e+001,
             -6.2500000000000000e+001, -6.2500000000000000e+001,
             -6.2500000000000000e+001, -6.2500000000000000e+001,
             -5.7286655614762040e+001, -6.2500000000000000e+001,
             -6.2500000000000000e+001, -6.2500000000000000e+001,
             -6.2500000000000000e+001, -4.7148042123800629e+000 ]
         index: [ 88, 89, 93, 94, 95, 97, 98, 103, 106, 107, 110, 111,
             113, 114, 115, 116, 117, 119, 121, 123, 125, 126, 128, 129,
             131, 133, 134, 136, 140, 141, 143, 149, 151, 155, 157, 161,
             162, 163, 165, 166, 167, 168, 169, 170, 173, 174, 175, 176,
             177, 179, 180, 181, 184, 185, 186, 187, 188, 189, 193, 194,
             195, 196, 197, 199, 200, 201, 202, 203, 204, 205, 206, 207,
             208, 209, 211, 212 ]
