%YAML:1.0
my_svm: !!opencv-ml-svm
   svm_type: C_SVC
   kernel: { type:RBF, gamma:5.0625000000000009e-01 }
   C: 3.1250000000000000e+02
   term_criteria: { epsilon:1.1920928955078125e-07, iterations:1000 }
   var_all: 10
   var_count: 10
   class_count: 4
   class_labels: !!opencv-matrix
      rows: 1
      cols: 4
      dt: i
      data: [ 0, 1, 2, 3 ]
   sv_total: 71
   support_vectors:
      - [ 7.46491492e-01, 1.88116387e-01, 7.91743577e-01, 2.58893043e-01,
          7.93433487e-01, 1.26061589e-01, 8.52313697e-01, 1.89366341e-01,
          3.21210086e-01, 1.07833475e-01 ]
      - [ 7.11581349e-01, 1.35089695e-01, 8.14811349e-01, 2.68913448e-01,
          8.15894067e-01, 1.47428378e-01, 8.30108523e-01, 1.36478454e-01,
          4.92759049e-01, 1.28366306e-01 ]
      - [ 6.67898536e-01, 1.10583015e-01, 7.86693454e-01, 3.15668553e-01,
          7.89668620e-01, 1.78161711e-01, 8.01652968e-01, 1.15707956e-01,
          3.55917394e-01, 1.60968468e-01 ]
      - [ 8.72680187e-01, 6.34482056e-02, 9.22553897e-01, 1.22205473e-01,
          9.22595382e-01, 6.09019846e-02, 9.28444624e-01, 6.36105537e-02,
          4.07770813e-01, 5.18640019e-02 ]
      - [ 5.04477978e-01, 1.15543224e-01, 6.66230261e-01, 4.79536742e-01,
          6.72920346e-01, 2.92000294e-01, 6.86116993e-01, 1.27485603e-01,
          3.43289912e-01, 2.73094386e-01 ]
      - [ 4.10621554e-01, 2.85383165e-01, 5.73479295e-01, 5.63075781e-01,
          5.78739583e-01, 3.48360568e-01, 6.11366868e-01, 2.89810181e-01,
          2.29254186e-01, 3.14855516e-01 ]
      - [ 5.04477978e-01, 1.15543224e-01, 6.66230261e-01, 4.79536742e-01,
          6.72920346e-01, 2.92000294e-01, 6.86116993e-01, 1.27485603e-01,
          3.43289912e-01, 2.73094386e-01 ]
      - [ 5.11673748e-01, 3.96273956e-02, 7.59228230e-01, 4.49383527e-01,
          7.60282516e-01, 2.97337055e-01, 6.91425264e-01, 4.99203578e-02,
          3.57018322e-01, 2.87205398e-01 ]
      - [ 8.72680187e-01, 6.34482056e-02, 9.22553897e-01, 1.22205473e-01,
          9.22595382e-01, 6.09019846e-02, 9.28444624e-01, 6.36105537e-02,
          4.07770813e-01, 5.18640019e-02 ]
      - [ 8.21747303e-01, 8.29065070e-02, 8.92195165e-01, 1.66161239e-01,
          8.92299652e-01, 8.68267491e-02, 8.98392260e-01, 8.33710134e-02,
          3.75545561e-01, 7.42411390e-02 ]
      - [ 8.41609180e-01, 3.92763950e-02, 9.19955611e-01, 1.49597883e-01,
          9.19958234e-01, 8.08355436e-02, 9.10222590e-01, 4.07337174e-02,
          3.86435419e-01, 7.31074810e-02 ]
      - [ 8.04647744e-01, 1.32373884e-01, 8.49778414e-01, 1.97212264e-01,
          8.51224124e-01, 9.52024758e-02, 8.88123155e-01, 1.33019716e-01,
          3.77567798e-01, 8.11421275e-02 ]
      - [ 8.27552676e-01, 8.65994468e-02, 8.97727132e-01, 1.59487322e-01,
          8.97499800e-01, 8.30851346e-02, 9.01858747e-01, 8.64445940e-02,
          3.74557942e-01, 7.02777877e-02 ]
      - [ 8.43796670e-01, 6.55069202e-02, 9.02293324e-01, 1.51699126e-01,
          9.03175473e-01, 7.71623701e-02, 9.11518753e-01, 6.68556616e-02,
          4.13355291e-01, 6.75173551e-02 ]
      - [ 3.90478939e-01, 4.91178125e-01, 5.29630899e-01, 5.85602462e-01,
          5.29196322e-01, 3.47424686e-01, 5.94143629e-01, 4.77463752e-01,
          5.11604011e-01, 2.98839450e-01 ]
      - [ 7.67559290e-01, 7.16416538e-02, 8.74898374e-01, 2.10667878e-01,
          8.75303209e-01, 1.18919574e-01, 8.65404546e-01, 7.30289072e-02,
          5.11841059e-01, 1.05413698e-01 ]
      - [ 6.17130637e-01, 7.65866488e-02, 7.98464298e-01, 3.44669878e-01,
          7.98616230e-01, 2.11443424e-01, 7.67314553e-01, 8.19205120e-02,
          5.69567382e-01, 1.92770988e-01 ]
      - [ 8.22488070e-01, 8.51593316e-02, 8.96863699e-01, 1.63125023e-01,
          8.96579325e-01, 8.60431492e-02, 8.98834348e-01, 8.48698765e-02,
          5.82701683e-01, 7.31278583e-02 ]
      - [ 7.44465828e-01, 6.59607500e-02, 8.24680567e-01, 2.57286429e-01,
          8.28521430e-01, 1.46105990e-01, 8.51014197e-01, 7.35720247e-02,
          5.80462813e-01, 1.44360110e-01 ]
      - [ 5.03298640e-01, 1.23621024e-01, 6.82442784e-01, 4.80572492e-01,
          6.86053813e-01, 3.00623745e-01, 6.85233951e-01, 1.32834613e-01,
          6.16889477e-01, 2.88507313e-01 ]
      - [ 8.42187047e-01, 6.28204346e-02, 9.09769058e-01, 1.46855205e-01,
          9.09989774e-01, 7.76833221e-02, 9.10563350e-01, 6.33113384e-02,
          5.60264826e-01, 6.75832778e-02 ]
      - [ 6.36671841e-01, 9.41891447e-02, 8.13889682e-01, 3.27813923e-01,
          8.13708425e-01, 2.01250866e-01, 7.80583560e-01, 9.61138085e-02,
          5.47388673e-01, 1.85424730e-01 ]
      - [ 5.02524078e-01, 1.11489572e-01, 7.02731490e-01, 4.76192564e-01,
          7.04642594e-01, 3.01341802e-01, 6.84620380e-01, 1.20317280e-01,
          6.04376376e-01, 2.89208204e-01 ]
      - [ 4.41768348e-01, 3.37886751e-01, 5.59312940e-01, 5.58291793e-01,
          5.63470662e-01, 3.29925776e-01, 6.36942804e-01, 3.42196703e-01,
          6.62963569e-01, 3.03446084e-01 ]
      - [ 4.73191798e-01, 9.84997675e-02, 7.24315345e-01, 4.90670025e-01,
          7.24363506e-01, 3.24656487e-01, 6.61754787e-01, 1.04118191e-01,
          7.02814043e-01, 3.13096046e-01 ]
      - [ 5.01268923e-01, 9.58514065e-02, 6.94107175e-01, 4.80005860e-01,
          6.97909057e-01, 3.04927260e-01, 6.83542430e-01, 1.07172288e-01,
          5.78389704e-01, 2.95520186e-01 ]
      - [ 6.96850657e-01, 1.08160466e-01, 8.08333576e-01, 2.87868798e-01,
          8.10303450e-01, 1.59736559e-01, 8.20625544e-01, 1.11719683e-01,
          5.79307735e-01, 1.42820060e-01 ]
      - [ 8.20410192e-01, 8.36777985e-02, 9.02480066e-01, 1.60084158e-01,
          9.01799142e-01, 8.69149417e-02, 8.97577167e-01, 8.32356736e-02,
          5.44891655e-01, 7.37430453e-02 ]
      - [ 7.00720549e-01, 1.09597825e-01, 8.23678613e-01, 2.68605500e-01,
          8.24457765e-01, 1.53660059e-01, 8.23090911e-01, 1.12070389e-01,
          4.15071726e-01, 1.33645296e-01 ]
      - [ 5.86984873e-01, 1.38038099e-01, 6.86844289e-01, 4.10346001e-01,
          6.94582582e-01, 2.31260851e-01, 7.46444464e-01, 1.49749398e-01,
          4.11218703e-01, 2.12143525e-01 ]
      - [ 1.65979922e-01, 3.87472332e-01, 3.55393767e-01, 8.24933052e-01,
          3.61836016e-01, 5.70139110e-01, 3.63901287e-01, 3.96149933e-01,
          5.67088664e-01, 5.13753295e-01 ]
      - [ 4.55511332e-01, 4.44963276e-02, 6.98564887e-01, 5.10762870e-01,
          7.02753663e-01, 3.43756825e-01, 6.47851050e-01, 5.78628145e-02,
          5.13704598e-01, 3.37214768e-01 ]
      - [ 7.91768551e-01, 4.31854315e-02, 8.98474157e-01, 1.97757542e-01,
          8.99689794e-01, 1.11860439e-01, 8.80282640e-01, 4.61470969e-02,
          4.86367375e-01, 1.04864441e-01 ]
      - [ 5.91243088e-01, 1.36148199e-01, 7.92914212e-01, 3.75092953e-01,
          7.93191373e-01, 2.30542794e-01, 7.49283969e-01, 1.39195055e-01,
          4.71129417e-01, 2.13975772e-01 ]
      - [ 6.84760392e-01, 1.19216003e-01, 8.08624685e-01, 2.91688114e-01,
          8.10017705e-01, 1.65829435e-01, 8.12726021e-01, 1.21811278e-01,
          5.48300564e-01, 1.47669807e-01 ]
      - [ 4.00594831e-01, 1.71955287e-01, 5.77547491e-01, 5.92648387e-01,
          5.83531857e-01, 3.67315352e-01, 6.03000760e-01, 1.86696008e-01,
          4.03704792e-01, 3.41931611e-01 ]
      - [ 8.83456886e-01, 3.57343070e-02, 9.41965163e-01, 1.08745679e-01,
          9.41893101e-01, 5.70866428e-02, 9.34690535e-01, 3.63161005e-02,
          4.29160386e-01, 4.99791354e-02 ]
      - [ 7.02104807e-01, 1.34738877e-01, 8.31154346e-01, 2.51773685e-01,
          8.30334067e-01, 1.48944005e-01, 8.23939443e-01, 1.34264246e-01,
          4.24602240e-01, 1.25847742e-01 ]
      - [ 5.28217912e-01, 1.26881763e-01, 7.58969188e-01, 4.02756602e-01,
          7.57422864e-01, 2.62235135e-01, 7.03674257e-01, 1.30155593e-01,
          3.92491043e-01, 2.32398093e-01 ]
      - [ 7.66981423e-01, 1.21866561e-01, 8.56533289e-01, 2.23054290e-01,
          8.57004523e-01, 1.16869010e-01, 8.65056038e-01, 1.22247227e-01,
          4.76503789e-01, 1.01560779e-01 ]
      - [ 4.14369553e-01, 2.05193564e-01, 6.34178758e-01, 5.45156658e-01,
          6.34931326e-01, 3.48125875e-01, 6.14338934e-01, 2.10988209e-01,
          4.49706793e-01, 3.16490173e-01 ]
      - [ 6.73651695e-01, 1.17764339e-01, 7.99805641e-01, 3.07887822e-01,
          8.01122487e-01, 1.72641337e-01, 8.05444598e-01, 1.21368714e-01,
          4.26018566e-01, 1.53608695e-01 ]
      - [ 5.67344308e-01, 1.46460861e-01, 7.14088619e-01, 4.18425858e-01,
          7.18530774e-01, 2.47498572e-01, 7.32399285e-01, 1.54013231e-01,
          5.58422208e-01, 2.30840370e-01 ]
      - [ 6.44493639e-01, 1.31212726e-01, 7.89135158e-01, 3.35927218e-01,
          7.89378524e-01, 1.92597553e-01, 7.85993159e-01, 1.34519622e-01,
          5.33179462e-01, 1.74514428e-01 ]
      - [ 5.46114624e-01, 1.78236291e-01, 6.71732128e-01, 4.49719340e-01,
          6.77145481e-01, 2.59598076e-01, 7.17124760e-01, 1.86341822e-01,
          3.56985688e-01, 2.40024492e-01 ]
      - [ 6.41940296e-01, 1.09679028e-01, 7.87524760e-01, 3.37995499e-01,
          7.89258540e-01, 1.96841314e-01, 7.84259379e-01, 1.13242902e-01,
          5.28042316e-01, 1.80556685e-01 ]
      - [ 7.72954822e-01, 1.14389777e-01, 8.27835143e-01, 2.36616731e-01,
          8.30019951e-01, 1.18110433e-01, 8.68776381e-01, 1.17988266e-01,
          5.04378080e-01, 1.06807336e-01 ]
      - [ 5.50950706e-01, 9.19234902e-02, 7.40877211e-01, 4.25021291e-01,
          7.43085384e-01, 2.61536837e-01, 7.20595717e-01, 1.00046761e-01,
          5.71424961e-01, 2.46101484e-01 ]
      - [ 4.64945823e-01, 1.30891055e-01, 6.15633011e-01, 5.21050811e-01,
          6.25759065e-01, 3.20596814e-01, 6.55559063e-01, 1.45267755e-01,
          6.47905469e-01, 3.00145537e-01 ]
      - [ 8.73137116e-01, 7.12356642e-02, 9.27945375e-01, 1.15198053e-01,
          9.27579582e-01, 5.94003312e-02, 9.28701878e-01, 7.00510144e-02,
          4.62394118e-01, 4.93903607e-02 ]
      - [ 6.60650551e-01, 1.52545556e-01, 7.64726102e-01, 3.35040569e-01,
          7.66924500e-01, 1.81745738e-01, 7.96859145e-01, 1.56675562e-01,
          3.87071550e-01, 1.63481206e-01 ]
      - [ 8.57523263e-01, 6.98459595e-02, 9.29925263e-01, 1.27138570e-01,
          9.29056287e-01, 6.78936467e-02, 9.19577479e-01, 6.88468367e-02,
          3.94807309e-01, 5.73301762e-02 ]
      - [ 7.83717275e-01, 9.31392536e-02, 8.95199120e-01, 1.97703212e-01,
          8.95039380e-01, 1.08487979e-01, 8.75346303e-01, 9.22097266e-02,
          4.62769210e-01, 9.44703296e-02 ]
      - [ 8.91385257e-01, 4.23089378e-02, 9.49760139e-01, 9.61228535e-02,
          9.49274480e-01, 5.97704425e-02, 9.39231575e-01, 4.19869460e-02,
          3.78741115e-01, 5.98628782e-02 ]
      - [ 7.97276795e-01, 1.32572010e-01, 8.56677890e-01, 1.96688339e-01,
          8.57408047e-01, 9.84804779e-02, 8.83638918e-01, 1.32067099e-01,
          4.48323429e-01, 8.35633576e-02 ]
      - [ 9.47867334e-01, 4.73593250e-02, 9.64741766e-01, 5.07727526e-02,
          9.64432180e-01, 2.25312207e-02, 9.71273839e-01, 4.60747294e-02,
          3.59658986e-01, 1.74364671e-02 ]
      - [ 4.45947707e-01, 3.85611951e-01, 4.92965013e-01, 5.80456138e-01,
          4.98961717e-01, 3.15752089e-01, 6.40529513e-01, 3.98331434e-01,
          2.25446269e-01, 2.78534979e-01 ]
      - [ 0., 1.17258653e-02, 4.64533925e-01, 1., 4.64674294e-01, 1., 0.,
          3.68359014e-02, 4.27594006e-01, 1. ]
      - [ 5.62441587e-01, 1.97975576e-01, 7.42993653e-01, 3.70578796e-01,
          7.41632640e-01, 2.31049761e-01, 7.28691161e-01, 1.97585747e-01,
          8.84229422e-01, 1.96578354e-01 ]
      - [ 6.81543112e-01, 2.03514621e-01, 8.08723092e-01, 2.81900883e-01,
          8.06865752e-01, 1.58971742e-01, 8.10526788e-01, 1.99701145e-01,
          3.32592398e-01, 1.33562937e-01 ]
      - [ 8.47780347e-01, 1.21579163e-01, 8.87881994e-01, 1.54841721e-01,
          8.86929393e-01, 7.93791935e-02, 9.13797081e-01, 1.21288344e-01,
          4.34828877e-01, 7.41109475e-02 ]
      - [ 8.57814252e-01, 7.58644864e-02, 9.12020028e-01, 1.41536132e-01,
          9.12308455e-01, 7.05499798e-02, 9.19770122e-01, 7.61741623e-02,
          4.72263664e-01, 6.25709072e-02 ]
      - [ 7.78068602e-01, 2.88834542e-01, 8.13076437e-01, 2.11422175e-01,
          8.10482323e-01, 9.72337574e-02, 8.71877611e-01, 2.79799998e-01,
          5.79863131e-01, 7.18531907e-02 ]
      - [ 6.38621628e-01, 1.19080000e-01, 7.98012495e-01, 3.32017332e-01,
          7.97940016e-01, 1.97147816e-01, 7.82007754e-01, 1.22323424e-01,
          4.31996167e-01, 1.79565489e-01 ]
      - [ 7.55306125e-01, 8.14075619e-02, 8.72352242e-01, 2.12451890e-01,
          8.72111976e-01, 1.22728169e-01, 8.57738912e-01, 8.27200413e-02,
          3.54750127e-01, 1.05925523e-01 ]
      - [ 9.08214331e-01, 5.62540479e-02, 9.50820386e-01, 8.57406259e-02,
          9.50448036e-01, 4.25132625e-02, 9.48892713e-01, 5.53041659e-02,
          4.03485924e-01, 3.53833325e-02 ]
      - [ 8.91945720e-01, 3.47355567e-02, 9.50858533e-01, 1.03891999e-01,
          9.50999916e-01, 5.36182821e-02, 9.39584553e-01, 3.52086499e-02,
          5.11288881e-01, 4.77600545e-02 ]
      - [ 9.18194950e-01, 3.80366184e-02, 9.57735896e-01, 7.75706470e-02,
          9.57428098e-01, 3.97111513e-02, 9.54576254e-01, 3.78267951e-02,
          5.26352823e-01, 3.50794829e-02 ]
      - [ 4.26220059e-01, 2.08551437e-01, 7.24608481e-01, 4.95389014e-01,
          7.22186565e-01, 3.35619628e-01, 6.23782873e-01, 2.08889514e-01,
          6.55935764e-01, 3.01249862e-01 ]
      - [ 9.55407470e-02, 4.41533893e-01, 3.59484017e-01, 8.87324929e-01,
          3.59166145e-01, 6.57549322e-01, 2.61890441e-01, 4.45739836e-01,
          7.67450809e-01, 5.89445293e-01 ]
      - [ 9.06304479e-01, 4.15944718e-02, 9.44238186e-01, 9.46816131e-02,
          9.44495320e-01, 4.79490049e-02, 9.47811425e-01, 4.22959030e-02,
          5.09833515e-01, 4.46535535e-02 ]
   decision_functions:
      -
         sv_count: 8
         rho: 4.3444903524672815e+00
         alpha: [ 2.5484397571192238e+02, 4.2698322752390084e+01,
             9.1146235567847196e+00, 5.9111258630403761e+01,
             -2.2719950955320410e+01, -3.1250000000000000e+02,
             -2.9372760668501066e+01, -1.1754690276796356e+00 ]
         index: [ 1, 3, 7, 10, 14, 15, 21, 26 ]
      -
         sv_count: 18
         rho: -1.9942422159595030e+00
         alpha: [ 3.1250000000000000e+02, 3.1250000000000000e+02,
             2.2394408413379458e+02, 3.1250000000000000e+02,
             7.3811365525204550e+01, 3.8579549251493752e+01,
             5.9895845297977914e+01, 1.4941762987040892e+02,
             3.1250000000000000e+02, -3.1250000000000000e+02,
             -7.5692900752335859e+01, -3.4051734615457534e+01,
             -3.1250000000000000e+02, -1.0461127643942920e+02,
             -1.8792562271657349e+01, -3.1250000000000000e+02,
             -3.1250000000000000e+02, -3.1250000000000000e+02 ]
         index: [ 1, 2, 3, 4, 5, 6, 8, 11, 13, 28, 29, 35, 36, 38, 41,
             44, 49, 50 ]
      -
         sv_count: 23
         rho: 8.6123853877816927e+00
         alpha: [ 1.2957769315102686e+02, 3.1250000000000000e+02,
             3.1250000000000000e+02, 2.3325234075076941e+02,
             3.1250000000000000e+02, 3.1250000000000000e+02,
             3.1250000000000000e+02, 3.1250000000000000e+02,
             3.1250000000000000e+02, 3.1250000000000000e+02,
             -3.1250000000000000e+02, -4.6582975034590454e+01,
             -3.1250000000000000e+02, -3.1250000000000000e+02,
             -3.1250000000000000e+02, -1.3729523847647903e+02,
             -2.7276186165805334e+00, -3.1250000000000000e+02,
             -1.6007991416212889e+02, -3.1250000000000000e+02,
             -3.1250000000000000e+02, -3.1250000000000000e+02,
             -1.6144287612017763e+01 ]
         index: [ 0, 1, 3, 5, 8, 9, 10, 11, 12, 13, 51, 52, 53, 54, 55,
             56, 57, 59, 60, 61, 63, 64, 65 ]
      -
         sv_count: 19
         rho: -3.9109120073745895e+00
         alpha: [ 1.0987605485403473e+02, 3.1250000000000000e+02,
             2.2727790860650887e+02, 4.1639144755662890e+01,
             3.1250000000000000e+02, 3.1250000000000000e+02,
             1.9862945970083291e+02, 3.1250000000000000e+02,
             3.1250000000000000e+02, 4.9117017171866856e+01,
             -3.9738145093807447e+01, -7.3615773594104780e+01,
             -3.1250000000000000e+02, -3.1250000000000000e+02,
             -3.1250000000000000e+02, -3.1250000000000000e+02,
             -2.0068566640099388e+02, -3.1250000000000000e+02,
             -3.1250000000000000e+02 ]
         index: [ 14, 15, 16, 18, 19, 21, 22, 25, 26, 27, 30, 31, 32, 34,
             42, 43, 45, 47, 48 ]
      -
         sv_count: 17
         rho: 1.4292498315397912e+01
         alpha: [ 1.3102553101448561e+02, 3.1250000000000000e+02,
             3.1250000000000000e+02, 3.1250000000000000e+02,
             9.0229698627199895e+01, 2.3371883735192961e+02,
             3.1250000000000000e+02, -1.4406666570825089e+02,
             -6.1304751963306842e+01, -3.1250000000000000e+02,
             -4.7046901358690057e+01, -3.1250000000000000e+02,
             -3.1250000000000000e+02, -1.0497225205824026e+02,
             -1.3030202749666267e+02, -1.8716640084674239e+01,
             -2.6106482832378964e+02 ]
         index: [ 14, 15, 17, 20, 23, 24, 27, 52, 56, 58, 62, 63, 66, 67,
             68, 69, 70 ]
      -
         sv_count: 24
         rho: 7.8570611450180605e+00
         alpha: [ 8.8920337800779038e+01, 7.2549323205004740e+01,
             3.1250000000000000e+02, 1.9659256089046937e+02,
             3.1250000000000000e+02, 3.1250000000000000e+02,
             3.1250000000000000e+02, 7.1366086310829189e+01,
             2.3103067808927611e+02, 3.1250000000000000e+02,
             -3.1250000000000000e+02, -3.1250000000000000e+02,
             -4.9730583792265861e+01, -2.0434328168423317e+00,
             -1.0340373835722184e+01, -7.9278027061054361e+00,
             -2.5538705060550782e+01, -3.1250000000000000e+02,
             -3.1250000000000000e+02, -3.1250000000000000e+02,
             -3.1250000000000000e+02, -1.6842734724999264e+02,
             -2.6142401046579550e+01, -5.7808339788299335e+01 ]
         index: [ 28, 30, 32, 33, 36, 37, 39, 40, 46, 49, 52, 54, 56, 57,
             58, 59, 60, 61, 63, 64, 66, 68, 69, 70 ]
