%YAML:1.0
my_svm: !!opencv-ml-svm
   svm_type: C_SVC
   kernel: { type:RBF, gamma:5.0625000000000009e-01 }
   C: 3.1250000000000000e+02
   term_criteria: { epsilon:1.1920928955078125e-07, iterations:1000 }
   var_all: 10
   var_count: 10
   class_count: 4
   class_labels: !!opencv-matrix
      rows: 1
      cols: 4
      dt: i
      data: [ 0, 1, 2, 3 ]
   sv_total: 68
   support_vectors:
      - [ 5.60625017e-01, 1.33066714e-01, 7.21271217e-01, 4.19720352e-01,
          7.25203276e-01, 2.48839274e-01, 7.27584302e-01, 1.40934333e-01,
          4.08623010e-01, 2.28721112e-01 ]
      - [ 7.11581349e-01, 1.35089695e-01, 8.14811349e-01, 2.68913448e-01,
          8.15894067e-01, 1.47428378e-01, 8.30108523e-01, 1.36478454e-01,
          4.92759049e-01, 1.28366306e-01 ]
      - [ 4.10621554e-01, 2.85383165e-01, 5.73479295e-01, 5.63075781e-01,
          5.78739583e-01, 3.48360568e-01, 6.11366868e-01, 2.89810181e-01,
          2.29254186e-01, 3.14855516e-01 ]
      - [ 6.67898536e-01, 1.10583015e-01, 7.86693454e-01, 3.15668553e-01,
          7.89668620e-01, 1.78161711e-01, 8.01652968e-01, 1.15707956e-01,
          3.55917394e-01, 1.60968468e-01 ]
      - [ 8.74906600e-01, 6.97079375e-02, 9.21949506e-01, 1.20318338e-01,
          9.21912611e-01, 5.92253953e-02, 9.29737449e-01, 6.95252940e-02,
          4.12854105e-01, 4.99015599e-02 ]
      - [ 5.13397098e-01, 8.63116831e-02, 6.97265744e-01, 4.68031883e-01,
          7.03536689e-01, 2.93900013e-01, 6.92762613e-01, 9.85172763e-02,
          4.95447755e-01, 2.82702774e-01 ]
      - [ 7.46491492e-01, 1.88116387e-01, 7.91743577e-01, 2.58893043e-01,
          7.93433487e-01, 1.26061589e-01, 8.52313697e-01, 1.89366341e-01,
          3.21210086e-01, 1.07833475e-01 ]
      - [ 3.51283908e-01, 2.24285096e-01, 5.71613908e-01, 6.03725970e-01,
          5.74769676e-01, 3.96399558e-01, 5.59738398e-01, 2.31444180e-01,
          2.58460730e-01, 3.58579904e-01 ]
      - [ 7.57742643e-01, 6.91580698e-02, 8.59603524e-01, 2.27470443e-01,
          8.61347437e-01, 1.25797018e-01, 8.59324634e-01, 7.21813664e-02,
          3.69057745e-01, 1.12909071e-01 ]
      - [ 3.51283908e-01, 2.24285096e-01, 5.71613908e-01, 6.03725970e-01,
          5.74769676e-01, 3.96399558e-01, 5.59738398e-01, 2.31444180e-01,
          2.58460730e-01, 3.58579904e-01 ]
      - [ 8.21747303e-01, 8.29065070e-02, 8.92195165e-01, 1.66161239e-01,
          8.92299652e-01, 8.68267491e-02, 8.98392260e-01, 8.33710134e-02,
          3.75545561e-01, 7.42411390e-02 ]
      - [ 8.41609180e-01, 3.92763950e-02, 9.19955611e-01, 1.49597883e-01,
          9.19958234e-01, 8.08355436e-02, 9.10222590e-01, 4.07337174e-02,
          3.86435419e-01, 7.31074810e-02 ]
      - [ 5.04477978e-01, 1.15543224e-01, 6.66230261e-01, 4.79536742e-01,
          6.72920346e-01, 2.92000294e-01, 6.86116993e-01, 1.27485603e-01,
          3.43289912e-01, 2.73094386e-01 ]
      - [ 6.20302796e-01, 3.47014628e-02, 8.46210241e-01, 3.41982007e-01,
          8.46276999e-01, 2.19582528e-01, 7.69469261e-01, 4.07403260e-02,
          3.48790109e-01, 2.09695682e-01 ]
      - [ 8.04647744e-01, 1.32373884e-01, 8.49778414e-01, 1.97212264e-01,
          8.51224124e-01, 9.52024758e-02, 8.88123155e-01, 1.33019716e-01,
          3.77567798e-01, 8.11421275e-02 ]
      - [ 5.04477978e-01, 1.15543224e-01, 6.66230261e-01, 4.79536742e-01,
          6.72920346e-01, 2.92000294e-01, 6.86116993e-01, 1.27485603e-01,
          3.43289912e-01, 2.73094386e-01 ]
      - [ 8.43796670e-01, 6.55069202e-02, 9.02293324e-01, 1.51699126e-01,
          9.03175473e-01, 7.71623701e-02, 9.11518753e-01, 6.68556616e-02,
          4.13355291e-01, 6.75173551e-02 ]
      - [ 7.93055475e-01, 8.35740566e-02, 8.77157331e-01, 1.95477948e-01,
          8.78110468e-01, 1.04124703e-01, 8.81073296e-01, 8.49290267e-02,
          3.59710366e-01, 9.14185271e-02 ]
      - [ 8.72680187e-01, 6.34482056e-02, 9.22553897e-01, 1.22205473e-01,
          9.22595382e-01, 6.09019846e-02, 9.28444624e-01, 6.36105537e-02,
          4.07770813e-01, 5.18640019e-02 ]
      - [ 5.20509899e-01, 9.00911316e-02, 7.26734936e-01, 4.56632942e-01,
          7.28695512e-01, 2.89307833e-01, 6.98089838e-01, 9.95721892e-02,
          5.85729241e-01, 2.78755426e-01 ]
      - [ 6.96850657e-01, 1.08160466e-01, 8.08333576e-01, 2.87868798e-01,
          8.10303450e-01, 1.59736559e-01, 8.20625544e-01, 1.11719683e-01,
          5.79307735e-01, 1.42820060e-01 ]
      - [ 8.42187047e-01, 6.28204346e-02, 9.09769058e-01, 1.46855205e-01,
          9.09989774e-01, 7.76833221e-02, 9.10563350e-01, 6.33113384e-02,
          5.60264826e-01, 6.75832778e-02 ]
      - [ 6.17130637e-01, 7.65866488e-02, 7.98464298e-01, 3.44669878e-01,
          7.98616230e-01, 2.11443424e-01, 7.67314553e-01, 8.19205120e-02,
          5.69567382e-01, 1.92770988e-01 ]
      - [ 4.41768348e-01, 3.37886751e-01, 5.59312940e-01, 5.58291793e-01,
          5.63470662e-01, 3.29925776e-01, 6.36942804e-01, 3.42196703e-01,
          6.62963569e-01, 3.03446084e-01 ]
      - [ 5.02524078e-01, 1.11489572e-01, 7.02731490e-01, 4.76192564e-01,
          7.04642594e-01, 3.01341802e-01, 6.84620380e-01, 1.20317280e-01,
          6.04376376e-01, 2.89208204e-01 ]
      - [ 8.36661398e-01, 8.03972632e-02, 9.11744893e-01, 1.44010350e-01,
          9.10997510e-01, 7.81907812e-02, 9.07262743e-01, 7.94853717e-02,
          5.54983497e-01, 6.59683645e-02 ]
      - [ 7.67559290e-01, 7.16416538e-02, 8.74898374e-01, 2.10667878e-01,
          8.75303209e-01, 1.18919574e-01, 8.65404546e-01, 7.30289072e-02,
          5.11841059e-01, 1.05413698e-01 ]
      - [ 8.20410192e-01, 8.36777985e-02, 9.02480066e-01, 1.60084158e-01,
          9.01799142e-01, 8.69149417e-02, 8.97577167e-01, 8.32356736e-02,
          5.44891655e-01, 7.37430453e-02 ]
      - [ 5.91243088e-01, 1.36148199e-01, 7.92914212e-01, 3.75092953e-01,
          7.93191373e-01, 2.30542794e-01, 7.49283969e-01, 1.39195055e-01,
          4.71129417e-01, 2.13975772e-01 ]
      - [ 5.28217912e-01, 1.26881763e-01, 7.58969188e-01, 4.02756602e-01,
          7.57422864e-01, 2.62235135e-01, 7.03674257e-01, 1.30155593e-01,
          3.92491043e-01, 2.32398093e-01 ]
      - [ 3.63492012e-01, 1.47880986e-01, 5.69435239e-01, 6.21877313e-01,
          5.75903893e-01, 3.99639517e-01, 5.70849359e-01, 1.63007468e-01,
          4.04388994e-01, 3.73903424e-01 ]
      - [ 7.66981423e-01, 1.21866561e-01, 8.56533289e-01, 2.23054290e-01,
          8.57004523e-01, 1.16869010e-01, 8.65056038e-01, 1.22247227e-01,
          4.76503789e-01, 1.01560779e-01 ]
      - [ 6.94007397e-01, 1.16091080e-01, 8.15301239e-01, 2.87062496e-01,
          8.17045748e-01, 1.59874380e-01, 8.18770349e-01, 1.18995860e-01,
          3.93805325e-01, 1.41464904e-01 ]
      - [ 8.83456886e-01, 3.57343070e-02, 9.41965163e-01, 1.08745679e-01,
          9.41893101e-01, 5.70866428e-02, 9.34690535e-01, 3.63161005e-02,
          4.29160386e-01, 4.99791354e-02 ]
      - [ 8.73137116e-01, 7.12356642e-02, 9.27945375e-01, 1.15198053e-01,
          9.27579582e-01, 5.94003312e-02, 9.28701878e-01, 7.00510144e-02,
          4.62394118e-01, 4.93903607e-02 ]
      - [ 6.73651695e-01, 1.17764339e-01, 7.99805641e-01, 3.07887822e-01,
          8.01122487e-01, 1.72641337e-01, 8.05444598e-01, 1.21368714e-01,
          4.26018566e-01, 1.53608695e-01 ]
      - [ 7.72954822e-01, 1.14389777e-01, 8.27835143e-01, 2.36616731e-01,
          8.30019951e-01, 1.18110433e-01, 8.68776381e-01, 1.17988266e-01,
          5.04378080e-01, 1.06807336e-01 ]
      - [ 7.91768551e-01, 4.31854315e-02, 8.98474157e-01, 1.97757542e-01,
          8.99689794e-01, 1.11860439e-01, 8.80282640e-01, 4.61470969e-02,
          4.86367375e-01, 1.04864441e-01 ]
      - [ 2.88084537e-01, 2.59616196e-01, 5.43732941e-01, 6.57952487e-01,
          5.43145597e-01, 4.50415790e-01, 4.99897540e-01, 2.65318602e-01,
          4.38057750e-01, 4.07634676e-01 ]
      - [ 1.65979922e-01, 3.87472332e-01, 3.55393767e-01, 8.24933052e-01,
          3.61836016e-01, 5.70139110e-01, 3.63901287e-01, 3.96149933e-01,
          5.67088664e-01, 5.13753295e-01 ]
      - [ 5.50950706e-01, 9.19234902e-02, 7.40877211e-01, 4.25021291e-01,
          7.43085384e-01, 2.61536837e-01, 7.20595717e-01, 1.00046761e-01,
          5.71424961e-01, 2.46101484e-01 ]
      - [ 5.46114624e-01, 1.78236291e-01, 6.71732128e-01, 4.49719340e-01,
          6.77145481e-01, 2.59598076e-01, 7.17124760e-01, 1.86341822e-01,
          3.56985688e-01, 2.40024492e-01 ]
      - [ 7.02104807e-01, 1.34738877e-01, 8.31154346e-01, 2.51773685e-01,
          8.30334067e-01, 1.48944005e-01, 8.23939443e-01, 1.34264246e-01,
          4.24602240e-01, 1.25847742e-01 ]
      - [ 5.24606228e-01, 1.13467276e-01, 7.24586427e-01, 4.27784413e-01,
          7.26071417e-01, 2.67835021e-01, 7.01087475e-01, 1.20821774e-01,
          3.94363523e-01, 2.40444601e-01 ]
      - [ 6.44493639e-01, 1.31212726e-01, 7.89135158e-01, 3.35927218e-01,
          7.89378524e-01, 1.92597553e-01, 7.85993159e-01, 1.34519622e-01,
          5.33179462e-01, 1.74514428e-01 ]
      - [ 7.00720549e-01, 1.09597825e-01, 8.23678613e-01, 2.68605500e-01,
          8.24457765e-01, 1.53660059e-01, 8.23090911e-01, 1.12070389e-01,
          4.15071726e-01, 1.33645296e-01 ]
      - [ 6.84760392e-01, 1.19216003e-01, 8.08624685e-01, 2.91688114e-01,
          8.10017705e-01, 1.65829435e-01, 8.12726021e-01, 1.21811278e-01,
          5.48300564e-01, 1.47669807e-01 ]
      - [ 6.60650551e-01, 1.52545556e-01, 7.64726102e-01, 3.35040569e-01,
          7.66924500e-01, 1.81745738e-01, 7.96859145e-01, 1.56675562e-01,
          3.87071550e-01, 1.63481206e-01 ]
      - [ 4.72392619e-01, 9.65600014e-02, 6.20598733e-01, 5.29643476e-01,
          6.28452957e-01, 3.32913667e-01, 6.61441922e-01, 1.16371453e-01,
          5.87668002e-01, 3.28444511e-01 ]
      - [ 7.55306125e-01, 8.14075619e-02, 8.72352242e-01, 2.12451890e-01,
          8.72111976e-01, 1.22728169e-01, 8.57738912e-01, 8.27200413e-02,
          3.54750127e-01, 1.05925523e-01 ]
      - [ 4.45947707e-01, 3.85611951e-01, 4.92965013e-01, 5.80456138e-01,
          4.98961717e-01, 3.15752089e-01, 6.40529513e-01, 3.98331434e-01,
          2.25446269e-01, 2.78534979e-01 ]
      - [ 6.96299434e-01, 1.25325441e-01, 7.91179299e-01, 2.94087112e-01,
          7.93963552e-01, 1.61233872e-01, 8.20288122e-01, 1.28967077e-01,
          3.25546354e-01, 1.45249411e-01 ]
      - [ 6.38621628e-01, 1.19080000e-01, 7.98012495e-01, 3.32017332e-01,
          7.97940016e-01, 1.97147816e-01, 7.82007754e-01, 1.22323424e-01,
          4.31996167e-01, 1.79565489e-01 ]
      - [ 7.78068602e-01, 2.88834542e-01, 8.13076437e-01, 2.11422175e-01,
          8.10482323e-01, 9.72337574e-02, 8.71877611e-01, 2.79799998e-01,
          5.79863131e-01, 7.18531907e-02 ]
      - [ 7.97276795e-01, 1.32572010e-01, 8.56677890e-01, 1.96688339e-01,
          8.57408047e-01, 9.84804779e-02, 8.83638918e-01, 1.32067099e-01,
          4.48323429e-01, 8.35633576e-02 ]
      - [ 0., 1.17258653e-02, 4.64533925e-01, 1., 4.64674294e-01, 1., 0.,
          3.68359014e-02, 4.27594006e-01, 1. ]
      - [ 8.57523263e-01, 6.98459595e-02, 9.29925263e-01, 1.27138570e-01,
          9.29056287e-01, 6.78936467e-02, 9.19577479e-01, 6.88468367e-02,
          3.94807309e-01, 5.73301762e-02 ]
      - [ 4.26220059e-01, 2.08551437e-01, 7.24608481e-01, 4.95389014e-01,
          7.22186565e-01, 3.35619628e-01, 6.23782873e-01, 2.08889514e-01,
          6.55935764e-01, 3.01249862e-01 ]
      - [ 9.38403130e-01, 4.45034765e-02, 9.62227762e-01, 6.57676086e-02,
          9.62104738e-01, 3.10588498e-02, 9.65976715e-01, 4.32683565e-02,
          3.57954532e-01, 2.87510492e-02 ]
      - [ 9.55407470e-02, 4.41533893e-01, 3.59484017e-01, 8.87324929e-01,
          3.59166145e-01, 6.57549322e-01, 2.61890441e-01, 4.45739836e-01,
          7.67450809e-01, 5.89445293e-01 ]
      - [ 9.06304479e-01, 4.15944718e-02, 9.44238186e-01, 9.46816131e-02,
          9.44495320e-01, 4.79490049e-02, 9.47811425e-01, 4.22959030e-02,
          5.09833515e-01, 4.46535535e-02 ]
      - [ 6.21935010e-01, 3.98411125e-01, 7.14841664e-01, 3.48075360e-01,
          7.10691273e-01, 1.81710064e-01, 7.70602822e-01, 3.83850753e-01,
          6.71068549e-01, 1.41593233e-01 ]
      - [ 8.04277897e-01, 7.64951929e-02, 9.00536358e-01, 1.79843515e-01,
          8.99240494e-01, 9.82110873e-02, 8.87872577e-01, 7.62980208e-02,
          4.58499074e-01, 8.61919373e-02 ]
      - [ 8.57814252e-01, 7.58644864e-02, 9.12020028e-01, 1.41536132e-01,
          9.12308455e-01, 7.05499798e-02, 9.19770122e-01, 7.61741623e-02,
          4.72263664e-01, 6.25709072e-02 ]
      - [ 9.01782870e-01, 3.31004187e-02, 9.46276307e-01, 9.68706459e-02,
          9.46630836e-01, 4.86863367e-02, 9.45233583e-01, 3.38148586e-02,
          3.89979154e-01, 4.34585363e-02 ]
      - [ 7.83717275e-01, 9.31392536e-02, 8.95199120e-01, 1.97703212e-01,
          8.95039380e-01, 1.08487979e-01, 8.75346303e-01, 9.22097266e-02,
          4.62769210e-01, 9.44703296e-02 ]
      - [ 8.47780347e-01, 1.21579163e-01, 8.87881994e-01, 1.54841721e-01,
          8.86929393e-01, 7.93791935e-02, 9.13797081e-01, 1.21288344e-01,
          4.34828877e-01, 7.41109475e-02 ]
      - [ 8.70453715e-01, 3.52881774e-02, 9.25017715e-01, 1.29935130e-01,
          9.26139951e-01, 6.68715015e-02, 9.27159607e-01, 3.71194594e-02,
          5.54479420e-01, 6.17810190e-02 ]
   decision_functions:
      -
         sv_count: 6
         rho: 1.7961372776231397e+00
         alpha: [ 2.0311457837716100e+02, 1.1103193144827807e+02,
             6.2566784948296736e+01, -2.8295923051766369e+01,
             -3.5917371721969602e+01, -3.1250000000000000e+02 ]
         index: [ 1, 4, 5, 19, 23, 26 ]
      -
         sv_count: 25
         rho: -3.7818126366330254e+00
         alpha: [ 3.1250000000000000e+02, 3.1250000000000000e+02,
             4.7887757609548004e+01, 3.1250000000000000e+02,
             3.1250000000000000e+02, 3.1250000000000000e+02,
             1.4126568179440764e+02, 1.8837975470443840e+01,
             3.1250000000000000e+02, 5.4147103415550475e+01,
             2.3249157123977093e+02, 1.3397405512998475e+01,
             3.1250000000000000e+02, 1.3716748782664618e+02,
             -1.5707600017323538e+01, -3.1250000000000000e+02,
             -3.1250000000000000e+02, -3.1250000000000000e+02,
             -3.1250000000000000e+02, -2.1224660030178532e+02,
             -1.0474078255025718e+02, -3.1250000000000000e+02,
             -3.1250000000000000e+02, -3.1250000000000000e+02,
             -3.1250000000000000e+02 ]
         index: [ 0, 1, 2, 3, 4, 5, 7, 9, 12, 13, 14, 15, 16, 18, 29, 30,
             32, 33, 34, 35, 37, 41, 43, 45, 47 ]
      -
         sv_count: 24
         rho: 7.1962806492383340e+00
         alpha: [ 3.1250000000000000e+02, 2.1110956042195554e+02,
             3.1250000000000000e+02, 4.7770127206243799e+01,
             8.9465815616730865e+01, 9.8213054541473355e+01,
             3.1250000000000000e+02, 3.1250000000000000e+02,
             3.1250000000000000e+02, 3.1250000000000000e+02,
             3.1250000000000000e+02, 3.1250000000000000e+02,
             -3.1250000000000000e+02, -1.4388480289503505e+02,
             -3.1250000000000000e+02, -3.1250000000000000e+02,
             -3.1250000000000000e+02, -4.4691477346329576e+00,
             -3.1250000000000000e+02, -2.7248153232141408e+02,
             -3.1250000000000000e+02, -3.1250000000000000e+02,
             -2.5723074835321306e+01, -3.1250000000000000e+02 ]
         index: [ 1, 2, 4, 5, 6, 8, 10, 11, 14, 16, 17, 18, 49, 50, 51,
             52, 54, 55, 56, 58, 62, 64, 65, 66 ]
      -
         sv_count: 12
         rho: -1.5258677701748613e+00
         alpha: [ 3.1250000000000000e+02, 2.8400971009144109e+02,
             2.7382163661821062e+02, 5.0859728179226565e+01,
             1.7178390869262336e+02, 3.1250000000000000e+02,
             7.0399074759199095e+01, -3.1250000000000000e+02,
             -3.1250000000000000e+02, -3.1250000000000000e+02,
             -3.1250000000000000e+02, -2.2587405834070108e+02 ]
         index: [ 19, 20, 22, 23, 24, 26, 27, 37, 40, 44, 46, 48 ]
      -
         sv_count: 12
         rho: 1.0313376629541814e+01
         alpha: [ 1.7284097025000676e+02, 1.7821314449428544e+02,
             3.1250000000000000e+02, 3.1250000000000000e+02,
             3.1250000000000000e+02, -9.9818270947405352e+01,
             -6.0411306477667964e+01, -1.6194727415807534e+02,
             -3.0835093900401461e+02, -1.1067670099379617e+02,
             -2.3484962316333210e+02, -3.1250000000000000e+02 ]
         index: [ 21, 23, 25, 26, 27, 52, 53, 57, 60, 61, 62, 67 ]
      -
         sv_count: 25
         rho: 9.1049671246410036e+00
         alpha: [ 1.8671526703590445e+02, 3.1250000000000000e+02,
             3.1250000000000000e+02, 3.1250000000000000e+02,
             3.1250000000000000e+02, 3.1250000000000000e+02,
             3.1250000000000000e+02, 9.1560647512599573e+01,
             3.0523783795325667e+01, 3.1250000000000000e+02,
             3.0038243703317454e+02, 1.3686444911454538e+01,
             -3.1250000000000000e+02, -5.3837443173330840e+01,
             -3.1250000000000000e+02, -3.1250000000000000e+02,
             -3.1250000000000000e+02, -3.9107842473958745e+00,
             -2.1609908502962961e+02, -6.5744433222496665e+00,
             -3.1250000000000000e+02, -3.1250000000000000e+02,
             -3.1250000000000000e+02, -2.9946824515852207e+01,
             -3.1250000000000000e+02 ]
         index: [ 28, 31, 32, 33, 34, 36, 37, 38, 39, 42, 45, 47, 49, 50,
             51, 52, 54, 55, 57, 59, 62, 63, 65, 66, 67 ]
