%YAML:1.0
my_svm: !!opencv-ml-svm
   svm_type: C_SVC
   kernel: { type:RBF, gamma:5.0625000000000009e-01 }
   C: 3.1250000000000000e+02
   term_criteria: { epsilon:1.1920928955078125e-07, iterations:1000 }
   var_all: 10
   var_count: 10
   class_count: 4
   class_labels: !!opencv-matrix
      rows: 1
      cols: 4
      dt: i
      data: [ 0, 1, 2, 3 ]
   sv_total: 71
   support_vectors:
      - [ 8.72680187e-01, 6.34482056e-02, 9.22553897e-01, 1.22205473e-01,
          9.22595382e-01, 6.09019846e-02, 9.28444624e-01, 6.36105537e-02,
          4.07770813e-01, 5.18640019e-02 ]
      - [ 8.43223929e-01, 5.77355847e-02, 9.02986050e-01, 1.54382825e-01,
          9.04106915e-01, 7.88828135e-02, 9.11183536e-01, 5.94187379e-02,
          3.85159850e-01, 7.04314783e-02 ]
      - [ 5.04477978e-01, 1.15543224e-01, 6.66230261e-01, 4.79536742e-01,
          6.72920346e-01, 2.92000294e-01, 6.86116993e-01, 1.27485603e-01,
          3.43289912e-01, 2.73094386e-01 ]
      - [ 8.21747303e-01, 8.29065070e-02, 8.92195165e-01, 1.66161239e-01,
          8.92299652e-01, 8.68267491e-02, 8.98392260e-01, 8.33710134e-02,
          3.75545561e-01, 7.42411390e-02 ]
      - [ 6.67898536e-01, 1.10583015e-01, 7.86693454e-01, 3.15668553e-01,
          7.89668620e-01, 1.78161711e-01, 8.01652968e-01, 1.15707956e-01,
          3.55917394e-01, 1.60968468e-01 ]
      - [ 8.04647744e-01, 1.32373884e-01, 8.49778414e-01, 1.97212264e-01,
          8.51224124e-01, 9.52024758e-02, 8.88123155e-01, 1.33019716e-01,
          3.77567798e-01, 8.11421275e-02 ]
      - [ 7.11581349e-01, 1.35089695e-01, 8.14811349e-01, 2.68913448e-01,
          8.15894067e-01, 1.47428378e-01, 8.30108523e-01, 1.36478454e-01,
          4.92759049e-01, 1.28366306e-01 ]
      - [ 4.10621554e-01, 2.85383165e-01, 5.73479295e-01, 5.63075781e-01,
          5.78739583e-01, 3.48360568e-01, 6.11366868e-01, 2.89810181e-01,
          2.29254186e-01, 3.14855516e-01 ]
      - [ 6.20302796e-01, 3.47014628e-02, 8.46210241e-01, 3.41982007e-01,
          8.46276999e-01, 2.19582528e-01, 7.69469261e-01, 4.07403260e-02,
          3.48790109e-01, 2.09695682e-01 ]
      - [ 7.46491492e-01, 1.88116387e-01, 7.91743577e-01, 2.58893043e-01,
          7.93433487e-01, 1.26061589e-01, 8.52313697e-01, 1.89366341e-01,
          3.21210086e-01, 1.07833475e-01 ]
      - [ 8.27552676e-01, 8.65994468e-02, 8.97727132e-01, 1.59487322e-01,
          8.97499800e-01, 8.30851346e-02, 9.01858747e-01, 8.64445940e-02,
          3.74557942e-01, 7.02777877e-02 ]
      - [ 8.74906600e-01, 6.97079375e-02, 9.21949506e-01, 1.20318338e-01,
          9.21912611e-01, 5.92253953e-02, 9.29737449e-01, 6.95252940e-02,
          4.12854105e-01, 4.99015599e-02 ]
      - [ 8.43796670e-01, 6.55069202e-02, 9.02293324e-01, 1.51699126e-01,
          9.03175473e-01, 7.71623701e-02, 9.11518753e-01, 6.68556616e-02,
          4.13355291e-01, 6.75173551e-02 ]
      - [ 5.04477978e-01, 1.15543224e-01, 6.66230261e-01, 4.79536742e-01,
          6.72920346e-01, 2.92000294e-01, 6.86116993e-01, 1.27485603e-01,
          3.43289912e-01, 2.73094386e-01 ]
      - [ 8.92245948e-01, 4.00902070e-02, 9.41941023e-01, 1.08066164e-01,
          9.41788375e-01, 5.83579428e-02, 9.39761639e-01, 4.03882265e-02,
          2.48921052e-01, 5.70238307e-02 ]
      - [ 5.13397098e-01, 8.63116831e-02, 6.97265744e-01, 4.68031883e-01,
          7.03536689e-01, 2.93900013e-01, 6.92762613e-01, 9.85172763e-02,
          4.95447755e-01, 2.82702774e-01 ]
      - [ 3.51283908e-01, 2.24285096e-01, 5.71613908e-01, 6.03725970e-01,
          5.74769676e-01, 3.96399558e-01, 5.59738398e-01, 2.31444180e-01,
          2.58460730e-01, 3.58579904e-01 ]
      - [ 5.03298640e-01, 1.23621024e-01, 6.82442784e-01, 4.80572492e-01,
          6.86053813e-01, 3.00623745e-01, 6.85233951e-01, 1.32834613e-01,
          6.16889477e-01, 2.88507313e-01 ]
      - [ 8.22488070e-01, 8.51593316e-02, 8.96863699e-01, 1.63125023e-01,
          8.96579325e-01, 8.60431492e-02, 8.98834348e-01, 8.48698765e-02,
          5.82701683e-01, 7.31278583e-02 ]
      - [ 6.36671841e-01, 9.41891447e-02, 8.13889682e-01, 3.27813923e-01,
          8.13708425e-01, 2.01250866e-01, 7.80583560e-01, 9.61138085e-02,
          5.47388673e-01, 1.85424730e-01 ]
      - [ 6.76594317e-01, 1.60392225e-01, 8.19712818e-01, 2.81584114e-01,
          8.17353308e-01, 1.64135501e-01, 8.07312012e-01, 1.57404810e-01,
          6.77319229e-01, 1.39637649e-01 ]
      - [ 6.47922933e-01, 6.82155862e-02, 8.08018267e-01, 3.27233791e-01,
          8.09537828e-01, 1.94697276e-01, 7.88316011e-01, 7.37237185e-02,
          5.76679170e-01, 1.79852903e-01 ]
      - [ 5.20509899e-01, 9.00911316e-02, 7.26734936e-01, 4.56632942e-01,
          7.28695512e-01, 2.89307833e-01, 6.98089838e-01, 9.95721892e-02,
          5.85729241e-01, 2.78755426e-01 ]
      - [ 4.73191798e-01, 9.84997675e-02, 7.24315345e-01, 4.90670025e-01,
          7.24363506e-01, 3.24656487e-01, 6.61754787e-01, 1.04118191e-01,
          7.02814043e-01, 3.13096046e-01 ]
      - [ 8.36661398e-01, 8.03972632e-02, 9.11744893e-01, 1.44010350e-01,
          9.10997510e-01, 7.81907812e-02, 9.07262743e-01, 7.94853717e-02,
          5.54983497e-01, 6.59683645e-02 ]
      - [ 5.13013899e-01, 6.42334223e-02, 7.61772335e-01, 4.37159210e-01,
          7.63600230e-01, 2.94828683e-01, 6.91900730e-01, 7.22850412e-02,
          7.82067895e-01, 2.83796728e-01 ]
      - [ 7.44465828e-01, 6.59607500e-02, 8.24680567e-01, 2.57286429e-01,
          8.28521430e-01, 1.46105990e-01, 8.51014197e-01, 7.35720247e-02,
          5.80462813e-01, 1.44360110e-01 ]
      - [ 5.01268923e-01, 9.58514065e-02, 6.94107175e-01, 4.80005860e-01,
          6.97909057e-01, 3.04927260e-01, 6.83542430e-01, 1.07172288e-01,
          5.78389704e-01, 2.95520186e-01 ]
      - [ 3.90478939e-01, 4.91178125e-01, 5.29630899e-01, 5.85602462e-01,
          5.29196322e-01, 3.47424686e-01, 5.94143629e-01, 4.77463752e-01,
          5.11604011e-01, 2.98839450e-01 ]
      - [ 8.42187047e-01, 6.28204346e-02, 9.09769058e-01, 1.46855205e-01,
          9.09989774e-01, 7.76833221e-02, 9.10563350e-01, 6.33113384e-02,
          5.60264826e-01, 6.75832778e-02 ]
      - [ 4.58850473e-01, 8.57704207e-02, 7.06522524e-01, 4.84534413e-01,
          7.10582197e-01, 3.37115020e-01, 6.49290919e-01, 9.58987847e-02,
          5.31180978e-01, 3.26614350e-01 ]
      - [ 7.02104807e-01, 1.34738877e-01, 8.31154346e-01, 2.51773685e-01,
          8.30334067e-01, 1.48944005e-01, 8.23939443e-01, 1.34264246e-01,
          4.24602240e-01, 1.25847742e-01 ]
      - [ 4.64945823e-01, 1.30891055e-01, 6.15633011e-01, 5.21050811e-01,
          6.25759065e-01, 3.20596814e-01, 6.55559063e-01, 1.45267755e-01,
          6.47905469e-01, 3.00145537e-01 ]
      - [ 7.72954822e-01, 1.14389777e-01, 8.27835143e-01, 2.36616731e-01,
          8.30019951e-01, 1.18110433e-01, 8.68776381e-01, 1.17988266e-01,
          5.04378080e-01, 1.06807336e-01 ]
      - [ 5.50950706e-01, 9.19234902e-02, 7.40877211e-01, 4.25021291e-01,
          7.43085384e-01, 2.61536837e-01, 7.20595717e-01, 1.00046761e-01,
          5.71424961e-01, 2.46101484e-01 ]
      - [ 6.84760392e-01, 1.19216003e-01, 8.08624685e-01, 2.91688114e-01,
          8.10017705e-01, 1.65829435e-01, 8.12726021e-01, 1.21811278e-01,
          5.48300564e-01, 1.47669807e-01 ]
      - [ 7.91768551e-01, 4.31854315e-02, 8.98474157e-01, 1.97757542e-01,
          8.99689794e-01, 1.11860439e-01, 8.80282640e-01, 4.61470969e-02,
          4.86367375e-01, 1.04864441e-01 ]
      - [ 3.63492012e-01, 1.47880986e-01, 5.69435239e-01, 6.21877313e-01,
          5.75903893e-01, 3.99639517e-01, 5.70849359e-01, 1.63007468e-01,
          4.04388994e-01, 3.73903424e-01 ]
      - [ 5.91243088e-01, 1.36148199e-01, 7.92914212e-01, 3.75092953e-01,
          7.93191373e-01, 2.30542794e-01, 7.49283969e-01, 1.39195055e-01,
          4.71129417e-01, 2.13975772e-01 ]
      - [ 4.72392619e-01, 9.65600014e-02, 6.20598733e-01, 5.29643476e-01,
          6.28452957e-01, 3.32913667e-01, 6.61441922e-01, 1.16371453e-01,
          5.87668002e-01, 3.28444511e-01 ]
      - [ 5.67344308e-01, 1.46460861e-01, 7.14088619e-01, 4.18425858e-01,
          7.18530774e-01, 2.47498572e-01, 7.32399285e-01, 1.54013231e-01,
          5.58422208e-01, 2.30840370e-01 ]
      - [ 5.86984873e-01, 1.38038099e-01, 6.86844289e-01, 4.10346001e-01,
          6.94582582e-01, 2.31260851e-01, 7.46444464e-01, 1.49749398e-01,
          4.11218703e-01, 2.12143525e-01 ]
      - [ 1.65979922e-01, 3.87472332e-01, 3.55393767e-01, 8.24933052e-01,
          3.61836016e-01, 5.70139110e-01, 3.63901287e-01, 3.96149933e-01,
          5.67088664e-01, 5.13753295e-01 ]
      - [ 7.41261959e-01, 1.23998962e-01, 8.34158301e-01, 2.42816433e-01,
          8.35281193e-01, 1.31450877e-01, 8.48994255e-01, 1.24995500e-01,
          5.41089833e-01, 1.15102157e-01 ]
      - [ 4.55511332e-01, 4.44963276e-02, 6.98564887e-01, 5.10762870e-01,
          7.02753663e-01, 3.43756825e-01, 6.47851050e-01, 5.78628145e-02,
          5.13704598e-01, 3.37214768e-01 ]
      - [ 5.24606228e-01, 1.13467276e-01, 7.24586427e-01, 4.27784413e-01,
          7.26071417e-01, 2.67835021e-01, 7.01087475e-01, 1.20821774e-01,
          3.94363523e-01, 2.40444601e-01 ]
      - [ 6.73651695e-01, 1.17764339e-01, 7.99805641e-01, 3.07887822e-01,
          8.01122487e-01, 1.72641337e-01, 8.05444598e-01, 1.21368714e-01,
          4.26018566e-01, 1.53608695e-01 ]
      - [ 5.46114624e-01, 1.78236291e-01, 6.71732128e-01, 4.49719340e-01,
          6.77145481e-01, 2.59598076e-01, 7.17124760e-01, 1.86341822e-01,
          3.56985688e-01, 2.40024492e-01 ]
      - [ 7.00720549e-01, 1.09597825e-01, 8.23678613e-01, 2.68605500e-01,
          8.24457765e-01, 1.53660059e-01, 8.23090911e-01, 1.12070389e-01,
          4.15071726e-01, 1.33645296e-01 ]
      - [ 5.71157873e-01, 1.04807347e-01, 8.02411973e-01, 3.87334436e-01,
          8.03484797e-01, 2.43179634e-01, 7.35051751e-01, 1.08693771e-01,
          5.02454579e-01, 2.24515885e-01 ]
      - [ 7.68532693e-01, 4.81483899e-02, 8.56940925e-01, 2.25342244e-01,
          8.59619856e-01, 1.23881876e-01, 8.66032600e-01, 5.34041412e-02,
          4.86190379e-01, 1.14887945e-01 ]
      - [ 8.73137116e-01, 7.12356642e-02, 9.27945375e-01, 1.15198053e-01,
          9.27579582e-01, 5.94003312e-02, 9.28701878e-01, 7.00510144e-02,
          4.62394118e-01, 4.93903607e-02 ]
      - [ 4.45947707e-01, 3.85611951e-01, 4.92965013e-01, 5.80456138e-01,
          4.98961717e-01, 3.15752089e-01, 6.40529513e-01, 3.98331434e-01,
          2.25446269e-01, 2.78534979e-01 ]
      - [ 8.57523263e-01, 6.98459595e-02, 9.29925263e-01, 1.27138570e-01,
          9.29056287e-01, 6.78936467e-02, 9.19577479e-01, 6.88468367e-02,
          3.94807309e-01, 5.73301762e-02 ]
      - [ 8.70453715e-01, 3.52881774e-02, 9.25017715e-01, 1.29935130e-01,
          9.26139951e-01, 6.68715015e-02, 9.27159607e-01, 3.71194594e-02,
          5.54479420e-01, 6.17810190e-02 ]
      - [ 9.18194950e-01, 3.80366184e-02, 9.57735896e-01, 7.75706470e-02,
          9.57428098e-01, 3.97111513e-02, 9.54576254e-01, 3.78267951e-02,
          5.26352823e-01, 3.50794829e-02 ]
      - [ 9.01782870e-01, 3.31004187e-02, 9.46276307e-01, 9.68706459e-02,
          9.46630836e-01, 4.86863367e-02, 9.45233583e-01, 3.38148586e-02,
          3.89979154e-01, 4.34585363e-02 ]
      - [ 5.62441587e-01, 1.97975576e-01, 7.42993653e-01, 3.70578796e-01,
          7.41632640e-01, 2.31049761e-01, 7.28691161e-01, 1.97585747e-01,
          8.84229422e-01, 1.96578354e-01 ]
      - [ 9.55407470e-02, 4.41533893e-01, 3.59484017e-01, 8.87324929e-01,
          3.59166145e-01, 6.57549322e-01, 2.61890441e-01, 4.45739836e-01,
          7.67450809e-01, 5.89445293e-01 ]
      - [ 9.47867334e-01, 4.73593250e-02, 9.64741766e-01, 5.07727526e-02,
          9.64432180e-01, 2.25312207e-02, 9.71273839e-01, 4.60747294e-02,
          3.59658986e-01, 1.74364671e-02 ]
      - [ 5.13328433e-01, 4.38406944e-01, 6.52654231e-01, 4.28553104e-01,
          6.48101866e-01, 2.49537572e-01, 6.92461967e-01, 4.27463293e-01,
          5.39397538e-01, 2.01816171e-01 ]
      - [ 6.81543112e-01, 2.03514621e-01, 8.08723092e-01, 2.81900883e-01,
          8.06865752e-01, 1.58971742e-01, 8.10526788e-01, 1.99701145e-01,
          3.32592398e-01, 1.33562937e-01 ]
      - [ 7.55306125e-01, 8.14075619e-02, 8.72352242e-01, 2.12451890e-01,
          8.72111976e-01, 1.22728169e-01, 8.57738912e-01, 8.27200413e-02,
          3.54750127e-01, 1.05925523e-01 ]
      - [ 6.96299434e-01, 1.25325441e-01, 7.91179299e-01, 2.94087112e-01,
          7.93963552e-01, 1.61233872e-01, 8.20288122e-01, 1.28967077e-01,
          3.25546354e-01, 1.45249411e-01 ]
      - [ 8.47780347e-01, 1.21579163e-01, 8.87881994e-01, 1.54841721e-01,
          8.86929393e-01, 7.93791935e-02, 9.13797081e-01, 1.21288344e-01,
          4.34828877e-01, 7.41109475e-02 ]
      - [ 8.91385257e-01, 4.23089378e-02, 9.49760139e-01, 9.61228535e-02,
          9.49274480e-01, 5.97704425e-02, 9.39231575e-01, 4.19869460e-02,
          3.78741115e-01, 5.98628782e-02 ]
      - [ 7.83717275e-01, 9.31392536e-02, 8.95199120e-01, 1.97703212e-01,
          8.95039380e-01, 1.08487979e-01, 8.75346303e-01, 9.22097266e-02,
          4.62769210e-01, 9.44703296e-02 ]
      - [ 7.97276795e-01, 1.32572010e-01, 8.56677890e-01, 1.96688339e-01,
          8.57408047e-01, 9.84804779e-02, 8.83638918e-01, 1.32067099e-01,
          4.48323429e-01, 8.35633576e-02 ]
      - [ 6.38621628e-01, 1.19080000e-01, 7.98012495e-01, 3.32017332e-01,
          7.97940016e-01, 1.97147816e-01, 7.82007754e-01, 1.22323424e-01,
          4.31996167e-01, 1.79565489e-01 ]
      - [ 8.04277897e-01, 7.64951929e-02, 9.00536358e-01, 1.79843515e-01,
          8.99240494e-01, 9.82110873e-02, 8.87872577e-01, 7.62980208e-02,
          4.58499074e-01, 8.61919373e-02 ]
      - [ 8.95594299e-01, 3.39496061e-02, 9.57679629e-01, 9.64818895e-02,
          9.56998408e-01, 5.14525436e-02, 9.41679120e-01, 3.37584950e-02,
          5.08996308e-01, 4.55503352e-02 ]
   decision_functions:
      -
         sv_count: 7
         rho: 4.1709741128908648e+00
         alpha: [ 1.3492794926575078e+02, 3.1250000000000000e+02,
             -2.0662413878114415e+02, -2.6126192920668689e+01,
             -1.8246594698563936e+01, -1.9939120205537971e+01,
             -1.7649190265983597e+02 ]
         index: [ 6, 15, 19, 26, 27, 28, 30 ]
      -
         sv_count: 20
         rho: -3.1101885034320089e+00
         alpha: [ 3.1250000000000000e+02, 1.8447236317899436e+02,
             2.7563103630943658e+01, 3.1250000000000000e+02,
             6.3442017636521257e+01, 2.1509559933695033e+02,
             3.0398143853756483e+02, 1.7091553726449331e+02,
             3.1250000000000000e+02, 9.7577880465236987e+01,
             -4.2134101584359243e+01, -2.4447973524839676e+02,
             -2.4265276496028710e+02, -2.1427920234648366e+02,
             -3.1250000000000000e+02, -7.2446971744092281e-01,
             -3.1250000000000000e+02, -3.1250000000000000e+02,
             -6.2776661937375575e+00, -3.1250000000000000e+02 ]
         index: [ 2, 4, 5, 6, 7, 11, 12, 13, 15, 16, 31, 36, 37, 41, 45,
             46, 47, 48, 50, 51 ]
      -
         sv_count: 26
         rho: 4.2866632915340119e+00
         alpha: [ 3.1250000000000000e+02, 3.1250000000000000e+02,
             3.1250000000000000e+02, 3.1250000000000000e+02,
             3.1250000000000000e+02, 2.6238679168537396e+02,
             9.0193823897152356e+01, 2.9544789984971339e+02,
             3.1250000000000000e+02, 3.1250000000000000e+02,
             3.1250000000000000e+02, 1.6975170450687747e+02,
             8.5668180595564518e+00, -1.6043172976410483e+02,
             -3.1250000000000000e+02, -3.1250000000000000e+02,
             -1.5991906402642894e-01, -2.9573898020546119e+02,
             -3.1250000000000000e+02, -3.1250000000000000e+02,
             -3.1250000000000000e+02, -3.1250000000000000e+02,
             -3.1250000000000000e+02, -3.1250000000000000e+02,
             -3.1250000000000000e+02, -5.7516408965081432e+01 ]
         index: [ 0, 1, 3, 5, 6, 7, 8, 9, 10, 11, 12, 14, 15, 52, 53, 56,
             58, 59, 61, 62, 63, 64, 65, 67, 68, 69 ]
      -
         sv_count: 19
         rho: -2.2495330876618960e+00
         alpha: [ 1.9484998618877350e+02, 3.1250000000000000e+02,
             2.2415835999581486e+02, 3.1250000000000000e+02,
             2.4208257715613556e+02, 1.8082003887761726e+02,
             3.1250000000000000e+02, 8.9146475359971177e+01,
             3.1250000000000000e+02, -3.1250000000000000e+02,
             -3.1250000000000000e+02, -3.1250000000000000e+02,
             -1.9226308503084445e+02, -1.2055671416748552e+02,
             -6.8214307852250826e+01, -2.7488463709990697e+01,
             -2.5536850410785055e+02, -2.6716636270989051e+02,
             -3.1250000000000000e+02 ]
         index: [ 17, 19, 21, 22, 24, 26, 27, 28, 30, 32, 34, 35, 36, 39,
             40, 42, 43, 44, 49 ]
      -
         sv_count: 19
         rho: 1.3133754503292144e+01
         alpha: [ 5.7026045441986483e+01, 3.1250000000000000e+02,
             2.5364427671144591e+02, 2.9188480586072060e+01,
             1.7674772369590517e+01, 3.1250000000000000e+02,
             1.2246979239583180e+01, 2.0759057663915246e+02,
             3.1250000000000000e+02, 2.0419220803743201e+01,
             -6.1871599132806715e+01, -3.1250000000000000e+02,
             -2.7031375047511892e+02, -2.5809689758131657e+02,
             -2.1668721006696504e+01, -1.0995512039633134e+02,
             -1.5381758476942557e+02, -3.1250000000000000e+02,
             -3.4566678429878138e+01 ]
         index: [ 17, 18, 19, 20, 23, 24, 25, 28, 29, 30, 52, 54, 55, 57,
             58, 60, 66, 68, 70 ]
      -
         sv_count: 20
         rho: 1.2656799256672537e+01
         alpha: [ 3.1250000000000000e+02, 3.1250000000000000e+02,
             3.1250000000000000e+02, 3.0639839932263403e+01,
             4.9628158235783737e+01, 2.7325038059238022e+02,
             1.6914231953771184e+02, 3.1250000000000000e+02,
             1.2353390345795501e+02, 3.1250000000000000e+02,
             -1.3827045320383963e+01, -3.1250000000000000e+02,
             -1.4741002593191766e+02, -1.3174851702601075e+01,
             -1.5928267880119159e+02, -3.1250000000000000e+02,
             -3.1250000000000000e+02, -3.1250000000000000e+02,
             -3.1250000000000000e+02, -3.1250000000000000e+02 ]
         index: [ 31, 33, 36, 38, 42, 43, 46, 48, 50, 51, 52, 54, 57, 58,
             62, 63, 66, 67, 68, 69 ]
