%YAML:1.0
my_svm: !!opencv-ml-svm
   svm_type: C_SVC
   kernel: { type:RBF, gamma:5.0625000000000009e-01 }
   C: 1.2500000000000000e+01
   term_criteria: { epsilon:1.1920928955078125e-07, iterations:1000 }
   var_all: 10
   var_count: 10
   class_count: 4
   class_labels: !!opencv-matrix
      rows: 1
      cols: 4
      dt: i
      data: [ 0, 1, 2, 3 ]
   sv_total: 107
   support_vectors:
      - [ 8.72680187e-01, 6.34482056e-02, 9.22553897e-01, 1.22205473e-01,
          9.22595382e-01, 6.09019846e-02, 9.28444624e-01, 6.36105537e-02,
          4.07770813e-01, 5.18640019e-02 ]
      - [ 3.51283908e-01, 2.24285096e-01, 5.71613908e-01, 6.03725970e-01,
          5.74769676e-01, 3.96399558e-01, 5.59738398e-01, 2.31444180e-01,
          2.58460730e-01, 3.58579904e-01 ]
      - [ 6.80421174e-01, 6.95127398e-02, 7.60300457e-01, 3.26062411e-01,
          7.67642140e-01, 1.81091771e-01, 8.09952199e-01, 8.19824412e-02,
          3.18779439e-01, 1.73095211e-01 ]
      - [ 8.27552676e-01, 8.65994468e-02, 8.97727132e-01, 1.59487322e-01,
          8.97499800e-01, 8.30851346e-02, 9.01858747e-01, 8.64445940e-02,
          3.74557942e-01, 7.02777877e-02 ]
      - [ 7.98778832e-01, 1.01061806e-01, 8.50210130e-01, 2.05670670e-01,
          8.52620125e-01, 1.02132931e-01, 8.84573162e-01, 1.04141153e-01,
          3.57759446e-01, 9.08796638e-02 ]
      - [ 7.57742643e-01, 6.91580698e-02, 8.59603524e-01, 2.27470443e-01,
          8.61347437e-01, 1.25797018e-01, 8.59324634e-01, 7.21813664e-02,
          3.69057745e-01, 1.12909071e-01 ]
      - [ 7.11581349e-01, 1.35089695e-01, 8.14811349e-01, 2.68913448e-01,
          8.15894067e-01, 1.47428378e-01, 8.30108523e-01, 1.36478454e-01,
          4.92759049e-01, 1.28366306e-01 ]
      - [ 5.51182270e-01, 3.12682465e-02, 8.00691128e-01, 3.87808651e-01,
          8.00465941e-01, 2.84709364e-01, 7.20305085e-01, 3.93138304e-02,
          2.98370898e-01, 2.89981842e-01 ]
      - [ 6.67898536e-01, 1.10583015e-01, 7.86693454e-01, 3.15668553e-01,
          7.89668620e-01, 1.78161711e-01, 8.01652968e-01, 1.15707956e-01,
          3.55917394e-01, 1.60968468e-01 ]
      - [ 4.10621554e-01, 2.85383165e-01, 5.73479295e-01, 5.63075781e-01,
          5.78739583e-01, 3.48360568e-01, 6.11366868e-01, 2.89810181e-01,
          2.29254186e-01, 3.14855516e-01 ]
      - [ 5.60625017e-01, 1.33066714e-01, 7.21271217e-01, 4.19720352e-01,
          7.25203276e-01, 2.48839274e-01, 7.27584302e-01, 1.40934333e-01,
          4.08623010e-01, 2.28721112e-01 ]
      - [ 8.74906600e-01, 6.97079375e-02, 9.21949506e-01, 1.20318338e-01,
          9.21912611e-01, 5.92253953e-02, 9.29737449e-01, 6.95252940e-02,
          4.12854105e-01, 4.99015599e-02 ]
      - [ 3.51283908e-01, 2.24285096e-01, 5.71613908e-01, 6.03725970e-01,
          5.74769676e-01, 3.96399558e-01, 5.59738398e-01, 2.31444180e-01,
          2.58460730e-01, 3.58579904e-01 ]
      - [ 5.04477978e-01, 1.15543224e-01, 6.66230261e-01, 4.79536742e-01,
          6.72920346e-01, 2.92000294e-01, 6.86116993e-01, 1.27485603e-01,
          3.43289912e-01, 2.73094386e-01 ]
      - [ 7.39250660e-01, 1.12881295e-01, 8.02428067e-01, 2.69374669e-01,
          8.05020392e-01, 1.46169603e-01, 8.47755969e-01, 1.20201074e-01,
          3.36274296e-01, 1.41762301e-01 ]
      - [ 7.46491492e-01, 1.88116387e-01, 7.91743577e-01, 2.58893043e-01,
          7.93433487e-01, 1.26061589e-01, 8.52313697e-01, 1.89366341e-01,
          3.21210086e-01, 1.07833475e-01 ]
      - [ 8.04647744e-01, 1.32373884e-01, 8.49778414e-01, 1.97212264e-01,
          8.51224124e-01, 9.52024758e-02, 8.88123155e-01, 1.33019716e-01,
          3.77567798e-01, 8.11421275e-02 ]
      - [ 8.43223929e-01, 5.77355847e-02, 9.02986050e-01, 1.54382825e-01,
          9.04106915e-01, 7.88828135e-02, 9.11183536e-01, 5.94187379e-02,
          3.85159850e-01, 7.04314783e-02 ]
      - [ 8.72680187e-01, 6.34482056e-02, 9.22553897e-01, 1.22205473e-01,
          9.22595382e-01, 6.09019846e-02, 9.28444624e-01, 6.36105537e-02,
          4.07770813e-01, 5.18640019e-02 ]
      - [ 8.92245948e-01, 4.00902070e-02, 9.41941023e-01, 1.08066164e-01,
          9.41788375e-01, 5.83579428e-02, 9.39761639e-01, 4.03882265e-02,
          2.48921052e-01, 5.70238307e-02 ]
      - [ 8.21747303e-01, 8.29065070e-02, 8.92195165e-01, 1.66161239e-01,
          8.92299652e-01, 8.68267491e-02, 8.98392260e-01, 8.33710134e-02,
          3.75545561e-01, 7.42411390e-02 ]
      - [ 8.41609180e-01, 3.92763950e-02, 9.19955611e-01, 1.49597883e-01,
          9.19958234e-01, 8.08355436e-02, 9.10222590e-01, 4.07337174e-02,
          3.86435419e-01, 7.31074810e-02 ]
      - [ 6.20302796e-01, 3.47014628e-02, 8.46210241e-01, 3.41982007e-01,
          8.46276999e-01, 2.19582528e-01, 7.69469261e-01, 4.07403260e-02,
          3.48790109e-01, 2.09695682e-01 ]
      - [ 3.90478939e-01, 4.91178125e-01, 5.29630899e-01, 5.85602462e-01,
          5.29196322e-01, 3.47424686e-01, 5.94143629e-01, 4.77463752e-01,
          5.11604011e-01, 2.98839450e-01 ]
      - [ 6.47922933e-01, 6.82155862e-02, 8.08018267e-01, 3.27233791e-01,
          8.09537828e-01, 1.94697276e-01, 7.88316011e-01, 7.37237185e-02,
          5.76679170e-01, 1.79852903e-01 ]
      - [ 7.29955494e-01, 3.38383466e-02, 8.94395888e-01, 2.46053770e-01,
          8.95713389e-01, 1.52670190e-01, 8.41802955e-01, 3.77213731e-02,
          5.85075378e-01, 1.47754237e-01 ]
      - [ 6.17130637e-01, 7.65866488e-02, 7.98464298e-01, 3.44669878e-01,
          7.98616230e-01, 2.11443424e-01, 7.67314553e-01, 8.19205120e-02,
          5.69567382e-01, 1.92770988e-01 ]
      - [ 6.76594317e-01, 1.60392225e-01, 8.19712818e-01, 2.81584114e-01,
          8.17353308e-01, 1.64135501e-01, 8.07312012e-01, 1.57404810e-01,
          6.77319229e-01, 1.39637649e-01 ]
      - [ 8.36661398e-01, 8.03972632e-02, 9.11744893e-01, 1.44010350e-01,
          9.10997510e-01, 7.81907812e-02, 9.07262743e-01, 7.94853717e-02,
          5.54983497e-01, 6.59683645e-02 ]
      - [ 6.36671841e-01, 9.41891447e-02, 8.13889682e-01, 3.27813923e-01,
          8.13708425e-01, 2.01250866e-01, 7.80583560e-01, 9.61138085e-02,
          5.47388673e-01, 1.85424730e-01 ]
      - [ 8.20410192e-01, 8.36777985e-02, 9.02480066e-01, 1.60084158e-01,
          9.01799142e-01, 8.69149417e-02, 8.97577167e-01, 8.32356736e-02,
          5.44891655e-01, 7.37430453e-02 ]
      - [ 5.20509899e-01, 9.00911316e-02, 7.26734936e-01, 4.56632942e-01,
          7.28695512e-01, 2.89307833e-01, 6.98089838e-01, 9.95721892e-02,
          5.85729241e-01, 2.78755426e-01 ]
      - [ 9.62549865e-01, 2.98367497e-02, 9.75534678e-01, 3.88250798e-02,
          9.75353777e-01, 1.66072473e-02, 9.79441702e-01, 2.91598160e-02,
          4.86322403e-01, 1.33150108e-02 ]
      - [ 7.82194674e-01, 5.79692796e-02, 8.68763924e-01, 2.06297711e-01,
          8.71104240e-01, 1.26603752e-01, 8.74175966e-01, 6.36968389e-02,
          6.28751457e-01, 1.28439724e-01 ]
      - [ 4.58850473e-01, 8.57704207e-02, 7.06522524e-01, 4.84534413e-01,
          7.10582197e-01, 3.37115020e-01, 6.49290919e-01, 9.58987847e-02,
          5.31180978e-01, 3.26614350e-01 ]
      - [ 5.02524078e-01, 1.11489572e-01, 7.02731490e-01, 4.76192564e-01,
          7.04642594e-01, 3.01341802e-01, 6.84620380e-01, 1.20317280e-01,
          6.04376376e-01, 2.89208204e-01 ]
      - [ 5.50450742e-01, 7.44271204e-02, 7.63234138e-01, 4.15490896e-01,
          7.63576269e-01, 2.66785890e-01, 7.20191479e-01, 8.07441697e-02,
          6.32490873e-01, 2.55019397e-01 ]
      - [ 6.96850657e-01, 1.08160466e-01, 8.08333576e-01, 2.87868798e-01,
          8.10303450e-01, 1.59736559e-01, 8.20625544e-01, 1.11719683e-01,
          5.79307735e-01, 1.42820060e-01 ]
      - [ 4.41768348e-01, 3.37886751e-01, 5.59312940e-01, 5.58291793e-01,
          5.63470662e-01, 3.29925776e-01, 6.36942804e-01, 3.42196703e-01,
          6.62963569e-01, 3.03446084e-01 ]
      - [ 8.42187047e-01, 6.28204346e-02, 9.09769058e-01, 1.46855205e-01,
          9.09989774e-01, 7.76833221e-02, 9.10563350e-01, 6.33113384e-02,
          5.60264826e-01, 6.75832778e-02 ]
      - [ 6.33169711e-01, 4.01162319e-02, 7.76749909e-01, 3.50012183e-01,
          7.81654596e-01, 2.25153983e-01, 7.78256238e-01, 5.23909815e-02,
          6.09321713e-01, 2.29382470e-01 ]
      - [ 7.68603384e-01, 4.52588163e-02, 8.80546808e-01, 2.10593566e-01,
          8.82523179e-01, 1.34868160e-01, 8.65784287e-01, 4.92965244e-02,
          6.02380693e-01, 1.36680052e-01 ]
      - [ 6.90065742e-01, 1.26777276e-01, 8.36776674e-01, 2.70113170e-01,
          8.35058749e-01, 1.58399224e-01, 8.16130161e-01, 1.25856966e-01,
          6.20187283e-01, 1.36360392e-01 ]
      - [ 6.11118317e-01, 7.53159001e-02, 7.96486437e-01, 3.52800399e-01,
          7.96467662e-01, 2.17262104e-01, 7.63188839e-01, 8.04623514e-02,
          6.23662472e-01, 1.99674875e-01 ]
      - [ 5.03298640e-01, 1.23621024e-01, 6.82442784e-01, 4.80572492e-01,
          6.86053813e-01, 3.00623745e-01, 6.85233951e-01, 1.32834613e-01,
          6.16889477e-01, 2.88507313e-01 ]
      - [ 5.01268923e-01, 9.58514065e-02, 6.94107175e-01, 4.80005860e-01,
          6.97909057e-01, 3.04927260e-01, 6.83542430e-01, 1.07172288e-01,
          5.78389704e-01, 2.95520186e-01 ]
      - [ 5.49136162e-01, 1.23277716e-01, 7.40973592e-01, 4.27213579e-01,
          7.42810547e-01, 2.72198796e-01, 7.19256103e-01, 1.28677592e-01,
          6.36842072e-01, 2.65971303e-01 ]
      - [ 5.10505676e-01, 8.77134874e-02, 7.41228580e-01, 4.46611136e-01,
          7.42544413e-01, 2.94940948e-01, 6.90460920e-01, 9.48243886e-02,
          6.60899341e-01, 2.83033460e-01 ]
      - [ 6.34747624e-01, 8.76751766e-02, 8.08799386e-01, 3.31638336e-01,
          8.08979452e-01, 2.03456119e-01, 7.79310763e-01, 9.14571658e-02,
          6.25912964e-01, 1.88523129e-01 ]
      - [ 5.00138760e-01, 1.10041387e-01, 6.34176731e-01, 5.04590094e-01,
          6.41361713e-01, 3.10496777e-01, 6.82865441e-01, 1.28336638e-01,
          5.74830532e-01, 3.05174351e-01 ]
      - [ 5.86984873e-01, 1.38038099e-01, 6.86844289e-01, 4.10346001e-01,
          6.94582582e-01, 2.31260851e-01, 7.46444464e-01, 1.49749398e-01,
          4.11218703e-01, 2.12143525e-01 ]
      - [ 6.94007397e-01, 1.16091080e-01, 8.15301239e-01, 2.87062496e-01,
          8.17045748e-01, 1.59874380e-01, 8.18770349e-01, 1.18995860e-01,
          3.93805325e-01, 1.41464904e-01 ]
      - [ 7.00720549e-01, 1.09597825e-01, 8.23678613e-01, 2.68605500e-01,
          8.24457765e-01, 1.53660059e-01, 8.23090911e-01, 1.12070389e-01,
          4.15071726e-01, 1.33645296e-01 ]
      - [ 7.41261959e-01, 1.23998962e-01, 8.34158301e-01, 2.42816433e-01,
          8.35281193e-01, 1.31450877e-01, 8.48994255e-01, 1.24995500e-01,
          5.41089833e-01, 1.15102157e-01 ]
      - [ 5.06623447e-01, 1.38136894e-01, 6.81175709e-01, 4.61751819e-01,
          6.85362339e-01, 2.82397121e-01, 6.87702656e-01, 1.46406516e-01,
          4.27179903e-01, 2.56236047e-01 ]
      - [ 5.50950706e-01, 9.19234902e-02, 7.40877211e-01, 4.25021291e-01,
          7.43085384e-01, 2.61536837e-01, 7.20595717e-01, 1.00046761e-01,
          5.71424961e-01, 2.46101484e-01 ]
      - [ 3.63492012e-01, 1.47880986e-01, 5.69435239e-01, 6.21877313e-01,
          5.75903893e-01, 3.99639517e-01, 5.70849359e-01, 1.63007468e-01,
          4.04388994e-01, 3.73903424e-01 ]
      - [ 5.69277763e-01, 1.34877995e-01, 7.43756652e-01, 3.92511845e-01,
          7.45120466e-01, 2.36041948e-01, 7.33731091e-01, 1.40229091e-01,
          5.12708247e-01, 2.09716469e-01 ]
      - [ 4.00594831e-01, 1.71955287e-01, 5.77547491e-01, 5.92648387e-01,
          5.83531857e-01, 3.67315352e-01, 6.03000760e-01, 1.86696008e-01,
          4.03704792e-01, 3.41931611e-01 ]
      - [ 4.72392619e-01, 9.65600014e-02, 6.20598733e-01, 5.29643476e-01,
          6.28452957e-01, 3.32913667e-01, 6.61441922e-01, 1.16371453e-01,
          5.87668002e-01, 3.28444511e-01 ]
      - [ 5.46114624e-01, 1.78236291e-01, 6.71732128e-01, 4.49719340e-01,
          6.77145481e-01, 2.59598076e-01, 7.17124760e-01, 1.86341822e-01,
          3.56985688e-01, 2.40024492e-01 ]
      - [ 7.68532693e-01, 4.81483899e-02, 8.56940925e-01, 2.25342244e-01,
          8.59619856e-01, 1.23881876e-01, 8.66032600e-01, 5.34041412e-02,
          4.86190379e-01, 1.14887945e-01 ]
      - [ 7.72954822e-01, 1.14389777e-01, 8.27835143e-01, 2.36616731e-01,
          8.30019951e-01, 1.18110433e-01, 8.68776381e-01, 1.17988266e-01,
          5.04378080e-01, 1.06807336e-01 ]
      - [ 6.91187680e-01, 1.44507706e-01, 7.92596936e-01, 2.97159076e-01,
          7.94393241e-01, 1.60684973e-01, 8.16953063e-01, 1.46975026e-01,
          4.79717642e-01, 1.41606957e-01 ]
      - [ 4.64945823e-01, 1.30891055e-01, 6.15633011e-01, 5.21050811e-01,
          6.25759065e-01, 3.20596814e-01, 6.55559063e-01, 1.45267755e-01,
          6.47905469e-01, 3.00145537e-01 ]
      - [ 7.02976763e-01, 9.79055390e-02, 8.17969859e-01, 2.77996093e-01,
          8.19907606e-01, 1.55758321e-01, 8.24580848e-01, 1.02005236e-01,
          4.80818927e-01, 1.38853997e-01 ]
      - [ 6.60650551e-01, 1.52545556e-01, 7.64726102e-01, 3.35040569e-01,
          7.66924500e-01, 1.81745738e-01, 7.96859145e-01, 1.56675562e-01,
          3.87071550e-01, 1.63481206e-01 ]
      - [ 6.35417700e-01, 1.61577016e-01, 7.51567721e-01, 3.55386525e-01,
          7.54798770e-01, 1.99602231e-01, 7.79896498e-01, 1.65797487e-01,
          5.18145740e-01, 1.82642043e-01 ]
      - [ 8.73137116e-01, 7.12356642e-02, 9.27945375e-01, 1.15198053e-01,
          9.27579582e-01, 5.94003312e-02, 9.28701878e-01, 7.00510144e-02,
          4.62394118e-01, 4.93903607e-02 ]
      - [ 6.84760392e-01, 1.19216003e-01, 8.08624685e-01, 2.91688114e-01,
          8.10017705e-01, 1.65829435e-01, 8.12726021e-01, 1.21811278e-01,
          5.48300564e-01, 1.47669807e-01 ]
      - [ 4.55511332e-01, 4.44963276e-02, 6.98564887e-01, 5.10762870e-01,
          7.02753663e-01, 3.43756825e-01, 6.47851050e-01, 5.78628145e-02,
          5.13704598e-01, 3.37214768e-01 ]
      - [ 2.88084537e-01, 2.59616196e-01, 5.43732941e-01, 6.57952487e-01,
          5.43145597e-01, 4.50415790e-01, 4.99897540e-01, 2.65318602e-01,
          4.38057750e-01, 4.07634676e-01 ]
      - [ 5.28217912e-01, 1.26881763e-01, 7.58969188e-01, 4.02756602e-01,
          7.57422864e-01, 2.62235135e-01, 7.03674257e-01, 1.30155593e-01,
          3.92491043e-01, 2.32398093e-01 ]
      - [ 6.44493639e-01, 1.31212726e-01, 7.89135158e-01, 3.35927218e-01,
          7.89378524e-01, 1.92597553e-01, 7.85993159e-01, 1.34519622e-01,
          5.33179462e-01, 1.74514428e-01 ]
      - [ 1.65979922e-01, 3.87472332e-01, 3.55393767e-01, 8.24933052e-01,
          3.61836016e-01, 5.70139110e-01, 3.63901287e-01, 3.96149933e-01,
          5.67088664e-01, 5.13753295e-01 ]
      - [ 5.67344308e-01, 1.46460861e-01, 7.14088619e-01, 4.18425858e-01,
          7.18530774e-01, 2.47498572e-01, 7.32399285e-01, 1.54013231e-01,
          5.58422208e-01, 2.30840370e-01 ]
      - [ 3.96118343e-01, 2.03162700e-01, 5.53080142e-01, 6.01807714e-01,
          5.60222745e-01, 3.69804472e-01, 5.99247038e-01, 2.16938794e-01,
          6.00664079e-01, 3.43154490e-01 ]
      - [ 6.07030153e-01, 1.20560437e-01, 7.35790968e-01, 3.84157479e-01,
          7.40225732e-01, 2.21561283e-01, 7.60447264e-01, 1.28188416e-01,
          5.22715688e-01, 2.06271395e-01 ]
      - [ 5.71157873e-01, 1.04807347e-01, 8.02411973e-01, 3.87334436e-01,
          8.03484797e-01, 2.43179634e-01, 7.35051751e-01, 1.08693771e-01,
          5.02454579e-01, 2.24515885e-01 ]
      - [ 5.91243088e-01, 1.36148199e-01, 7.92914212e-01, 3.75092953e-01,
          7.93191373e-01, 2.30542794e-01, 7.49283969e-01, 1.39195055e-01,
          4.71129417e-01, 2.13975772e-01 ]
      - [ 8.82320642e-01, 2.18835875e-01, 8.90791595e-01, 1.22294188e-01,
          8.87304544e-01, 4.72708493e-02, 9.34036851e-01, 2.07942471e-01,
          4.62043017e-01, 3.16922143e-02 ]
      - [ 9.14898813e-01, 5.17942235e-02, 9.52802241e-01, 8.22678059e-02,
          9.52040374e-01, 3.97538953e-02, 9.52706575e-01, 5.06924056e-02,
          4.12623107e-01, 3.34398188e-02 ]
      - [ 8.95594299e-01, 3.39496061e-02, 9.57679629e-01, 9.64818895e-02,
          9.56998408e-01, 5.14525436e-02, 9.41679120e-01, 3.37584950e-02,
          5.08996308e-01, 4.55503352e-02 ]
      - [ 7.97276795e-01, 1.32572010e-01, 8.56677890e-01, 1.96688339e-01,
          8.57408047e-01, 9.84804779e-02, 8.83638918e-01, 1.32067099e-01,
          4.48323429e-01, 8.35633576e-02 ]
      - [ 6.21935010e-01, 3.98411125e-01, 7.14841664e-01, 3.48075360e-01,
          7.10691273e-01, 1.81710064e-01, 7.70602822e-01, 3.83850753e-01,
          6.71068549e-01, 1.41593233e-01 ]
      - [ 9.28731918e-01, 8.23808312e-02, 9.51727986e-01, 6.58196285e-02,
          9.50565815e-01, 2.96459142e-02, 9.60533679e-01, 7.88003057e-02,
          5.36174357e-01, 2.15965454e-02 ]
      - [ 4.45947707e-01, 3.85611951e-01, 4.92965013e-01, 5.80456138e-01,
          4.98961717e-01, 3.15752089e-01, 6.40529513e-01, 3.98331434e-01,
          2.25446269e-01, 2.78534979e-01 ]
      - [ 6.38621628e-01, 1.19080000e-01, 7.98012495e-01, 3.32017332e-01,
          7.97940016e-01, 1.97147816e-01, 7.82007754e-01, 1.22323424e-01,
          4.31996167e-01, 1.79565489e-01 ]
      - [ 9.55407470e-02, 4.41533893e-01, 3.59484017e-01, 8.87324929e-01,
          3.59166145e-01, 6.57549322e-01, 2.61890441e-01, 4.45739836e-01,
          7.67450809e-01, 5.89445293e-01 ]
      - [ 9.38403130e-01, 4.45034765e-02, 9.62227762e-01, 6.57676086e-02,
          9.62104738e-01, 3.10588498e-02, 9.65976715e-01, 4.32683565e-02,
          3.57954532e-01, 2.87510492e-02 ]
      - [ 9.01782870e-01, 3.31004187e-02, 9.46276307e-01, 9.68706459e-02,
          9.46630836e-01, 4.86863367e-02, 9.45233583e-01, 3.38148586e-02,
          3.89979154e-01, 4.34585363e-02 ]
      - [ 7.98665106e-01, 1.44605398e-01, 8.58521223e-01, 1.99394792e-01,
          8.58138740e-01, 9.79831442e-02, 8.84495199e-01, 1.42312825e-01,
          4.27305907e-01, 8.31045657e-02 ]
      - [ 0., 1.17258653e-02, 4.64533925e-01, 1., 4.64674294e-01, 1., 0.,
          3.68359014e-02, 4.27594006e-01, 1. ]
      - [ 5.13328433e-01, 4.38406944e-01, 6.52654231e-01, 4.28553104e-01,
          6.48101866e-01, 2.49537572e-01, 6.92461967e-01, 4.27463293e-01,
          5.39397538e-01, 2.01816171e-01 ]
      - [ 7.78068602e-01, 2.88834542e-01, 8.13076437e-01, 2.11422175e-01,
          8.10482323e-01, 9.72337574e-02, 8.71877611e-01, 2.79799998e-01,
          5.79863131e-01, 7.18531907e-02 ]
      - [ 5.62441587e-01, 1.97975576e-01, 7.42993653e-01, 3.70578796e-01,
          7.41632640e-01, 2.31049761e-01, 7.28691161e-01, 1.97585747e-01,
          8.84229422e-01, 1.96578354e-01 ]
      - [ 8.04277897e-01, 7.64951929e-02, 9.00536358e-01, 1.79843515e-01,
          8.99240494e-01, 9.82110873e-02, 8.87872577e-01, 7.62980208e-02,
          4.58499074e-01, 8.61919373e-02 ]
      - [ 9.08214331e-01, 5.62540479e-02, 9.50820386e-01, 8.57406259e-02,
          9.50448036e-01, 4.25132625e-02, 9.48892713e-01, 5.53041659e-02,
          4.03485924e-01, 3.53833325e-02 ]
      - [ 9.47867334e-01, 4.73593250e-02, 9.64741766e-01, 5.07727526e-02,
          9.64432180e-01, 2.25312207e-02, 9.71273839e-01, 4.60747294e-02,
          3.59658986e-01, 1.74364671e-02 ]
      - [ 6.96299434e-01, 1.25325441e-01, 7.91179299e-01, 2.94087112e-01,
          7.93963552e-01, 1.61233872e-01, 8.20288122e-01, 1.28967077e-01,
          3.25546354e-01, 1.45249411e-01 ]
      - [ 7.55306125e-01, 8.14075619e-02, 8.72352242e-01, 2.12451890e-01,
          8.72111976e-01, 1.22728169e-01, 8.57738912e-01, 8.27200413e-02,
          3.54750127e-01, 1.05925523e-01 ]
      - [ 8.70453715e-01, 3.52881774e-02, 9.25017715e-01, 1.29935130e-01,
          9.26139951e-01, 6.68715015e-02, 9.27159607e-01, 3.71194594e-02,
          5.54479420e-01, 6.17810190e-02 ]
      - [ 4.26220059e-01, 2.08551437e-01, 7.24608481e-01, 4.95389014e-01,
          7.22186565e-01, 3.35619628e-01, 6.23782873e-01, 2.08889514e-01,
          6.55935764e-01, 3.01249862e-01 ]
      - [ 9.62042689e-01, 1.48065398e-02, 9.80924129e-01, 3.97445373e-02,
          9.80909526e-01, 1.90939419e-02, 9.79161084e-01, 1.47590516e-02,
          5.41317523e-01, 1.76875535e-02 ]
      - [ 8.91945720e-01, 3.47355567e-02, 9.50858533e-01, 1.03891999e-01,
          9.50999916e-01, 5.36182821e-02, 9.39584553e-01, 3.52086499e-02,
          5.11288881e-01, 4.77600545e-02 ]
      - [ 5.78188717e-01, 5.42660773e-01, 6.32052302e-01, 3.68690282e-01,
          6.28817201e-01, 1.96242303e-01, 7.39890099e-01, 5.27631223e-01,
          3.63290042e-01, 1.44134253e-01 ]
      - [ 8.91385257e-01, 4.23089378e-02, 9.49760139e-01, 9.61228535e-02,
          9.49274480e-01, 5.97704425e-02, 9.39231575e-01, 4.19869460e-02,
          3.78741115e-01, 5.98628782e-02 ]
   decision_functions:
      -
         sv_count: 16
         rho: 9.5831843701377151e-01
         alpha: [ 1.2500000000000000e+01, 1.2500000000000000e+01,
             1.2500000000000000e+01, 1.2500000000000000e+01,
             2.5965511260106018e+00, 8.0314355829662567e+00,
             1.2500000000000000e+01, 1.1849843903266773e+01,
             -4.0218625626743991e+00, -1.2500000000000000e+01,
             -1.2500000000000000e+01, -1.2500000000000000e+01,
             -1.2500000000000000e+01, -1.2500000000000000e+01,
             -5.9559680495692282e+00, -1.2500000000000000e+01 ]
         index: [ 0, 6, 10, 11, 12, 13, 18, 21, 23, 28, 29, 30, 32, 34,
             37, 39 ]
      -
         sv_count: 31
         rho: -1.3745058813295588e+00
         alpha: [ 1.2500000000000000e+01, 1.2500000000000000e+01,
             1.2500000000000000e+01, 1.2500000000000000e+01,
             2.6234907811409167e+00, 1.2500000000000000e+01,
             2.0361701734395758e+00, 1.2500000000000000e+01,
             1.2500000000000000e+01, 1.2500000000000000e+01,
             1.2500000000000000e+01, 1.2500000000000000e+01,
             9.9418978575827968e+00, 1.2500000000000000e+01,
             1.3104976743383607e+00, 1.2500000000000000e+01,
             -1.2500000000000000e+01, -1.2500000000000000e+01,
             -1.2500000000000000e+01, -3.3743753065840814e+00,
             -1.2500000000000000e+01, -1.2500000000000000e+01,
             -1.2500000000000000e+01, -1.2500000000000000e+01,
             -1.2500000000000000e+01, -1.2500000000000000e+01,
             -1.2500000000000000e+01, -1.2500000000000000e+01,
             -1.2500000000000000e+01, -3.7681179917576420e-02,
             -1.2500000000000000e+01 ]
         index: [ 1, 2, 5, 6, 7, 8, 9, 10, 11, 12, 13, 14, 15, 16, 18,
             22, 50, 51, 52, 54, 56, 58, 60, 61, 62, 63, 65, 66, 68, 71,
             72 ]
      -
         sv_count: 31
         rho: 2.5095197927275819e+00
         alpha: [ 1.2500000000000000e+01, 7.2448884584479041e+00,
             1.2500000000000000e+01, 1.2500000000000000e+01,
             1.2500000000000000e+01, 1.2500000000000000e+01,
             1.2404005119250044e+01, 1.2500000000000000e+01,
             1.2500000000000000e+01, 1.2500000000000000e+01,
             1.2500000000000000e+01, 1.2500000000000000e+01,
             1.2500000000000000e+01, 1.2500000000000000e+01,
             1.2500000000000000e+01, -7.6454786677221991e+00,
             -1.2500000000000000e+01, -1.2500000000000000e+01,
             -1.2500000000000000e+01, -1.2500000000000000e+01,
             -1.2500000000000000e+01, -1.2500000000000000e+01,
             -1.2500000000000000e+01, -1.2500000000000000e+01,
             -1.2500000000000000e+01, -1.2500000000000000e+01,
             -1.2500000000000000e+01, -1.2500000000000000e+01,
             -9.7997312734937196e+00, -2.2036836364820318e+00,
             -1.2500000000000000e+01 ]
         index: [ 0, 1, 3, 4, 5, 6, 9, 11, 15, 16, 17, 18, 19, 20, 21,
             80, 81, 83, 86, 87, 89, 90, 91, 96, 97, 98, 99, 100, 102,
             105, 106 ]
      -
         sv_count: 41
         rho: -1.2965972180232321e+00
         alpha: [ 1.2500000000000000e+01, 1.2500000000000000e+01,
             1.2500000000000000e+01, 1.2500000000000000e+01,
             1.2500000000000000e+01, 1.2500000000000000e+01,
             1.2500000000000000e+01, 1.1604144507630895e+01,
             1.2500000000000000e+01, 1.2500000000000000e+01,
             1.2500000000000000e+01, 1.2500000000000000e+01,
             1.2500000000000000e+01, 1.2500000000000000e+01,
             5.9900359251073410e-01, 1.2500000000000000e+01,
             1.2500000000000000e+01, 1.2500000000000000e+01,
             1.2500000000000000e+01, 3.9252283615307060e+00,
             9.6062297305622284e+00, -1.2500000000000000e+01,
             -1.2500000000000000e+01, -1.2500000000000000e+01,
             -1.2500000000000000e+01, -1.2500000000000000e+01,
             -1.2500000000000000e+01, -1.2500000000000000e+01,
             -1.2500000000000000e+01, -1.2500000000000000e+01,
             -1.2500000000000000e+01, -1.2500000000000000e+01,
             -1.2500000000000000e+01, -1.2500000000000000e+01,
             -1.2500000000000000e+01, -4.8738252093718240e+00,
             -1.2500000000000000e+01, -1.2500000000000000e+01,
             -1.2500000000000000e+01, -1.2500000000000000e+01,
             -8.3607809828627495e+00 ]
         index: [ 23, 24, 26, 28, 29, 30, 31, 32, 34, 35, 36, 37, 38, 40,
             42, 43, 44, 45, 46, 47, 48, 49, 53, 55, 57, 59, 61, 62, 64,
             65, 67, 68, 69, 70, 73, 74, 75, 76, 77, 78, 79 ]
      -
         sv_count: 29
         rho: 2.4575500628949078e+00
         alpha: [ 1.2500000000000000e+01, 8.2448349287698299e+00,
             1.2500000000000000e+01, 1.2500000000000000e+01,
             1.2500000000000000e+01, 1.2500000000000000e+01,
             1.2500000000000000e+01, 1.2500000000000000e+01,
             1.2500000000000000e+01, 1.2500000000000000e+01,
             1.2500000000000000e+01, 1.2500000000000000e+01,
             1.2500000000000000e+01, -1.2500000000000000e+01,
             -1.2500000000000000e+01, -1.2500000000000000e+01,
             -4.9524159138860391e+00, -1.2500000000000000e+01,
             -2.7946571319763187e+00, -1.0698635771173866e+01,
             -2.1086229572771948e+00, -1.2500000000000000e+01,
             -1.2500000000000000e+01, -1.2500000000000000e+01,
             -1.9050315445640723e-01, -1.2500000000000000e+01,
             -1.2500000000000000e+01, -1.2500000000000000e+01,
             -1.2500000000000000e+01 ]
         index: [ 23, 25, 27, 28, 29, 30, 32, 33, 37, 38, 39, 41, 42, 82,
             83, 84, 85, 87, 88, 93, 94, 95, 96, 99, 100, 101, 102, 103,
             104 ]
      -
         sv_count: 29
         rho: 3.6515637014305304e+00
         alpha: [ 1.2500000000000000e+01, 1.2500000000000000e+01,
             1.2500000000000000e+01, 1.2500000000000000e+01,
             1.2500000000000000e+01, 1.2500000000000000e+01,
             1.2500000000000000e+01, 1.2500000000000000e+01,
             1.2500000000000000e+01, 1.2500000000000000e+01,
             1.2500000000000000e+01, 8.0639163027336522e+00,
             3.9431621570693992e-01, 1.2500000000000000e+01,
             -1.2500000000000000e+01, -1.2500000000000000e+01,
             -1.2500000000000000e+01, -4.1366394060440062e+00,
             -1.2500000000000000e+01, -1.5971310832613121e+00,
             -1.0778107985451820e+01, -1.2500000000000000e+01,
             -1.2500000000000000e+01, -1.2500000000000000e+01,
             -1.2500000000000000e+01, -1.2500000000000000e+01,
             -1.2500000000000000e+01, -9.8822515256715260e+00,
             -7.0641025180119188e+00 ]
         index: [ 51, 52, 53, 61, 62, 63, 65, 66, 67, 68, 69, 71, 73, 74,
             83, 86, 87, 88, 91, 92, 93, 95, 96, 99, 100, 101, 102, 104,
             106 ]
