%YAML:1.0
my_svm: !!opencv-ml-svm
   svm_type: C_SVC
   kernel: { type:RBF, gamma:5.0625000000000009e-01 }
   C: 3.1250000000000000e+02
   term_criteria: { epsilon:1.1920928955078125e-07, iterations:1000 }
   var_all: 10
   var_count: 10
   class_count: 4
   class_labels: !!opencv-matrix
      rows: 1
      cols: 4
      dt: i
      data: [ 0, 1, 2, 3 ]
   sv_total: 63
   support_vectors:
      - [ 6.20302796e-01, 3.47014628e-02, 8.46210241e-01, 3.41982007e-01,
          8.46276999e-01, 2.19582528e-01, 7.69469261e-01, 4.07403260e-02,
          3.48790109e-01, 2.09695682e-01 ]
      - [ 5.04477978e-01, 1.15543224e-01, 6.66230261e-01, 4.79536742e-01,
          6.72920346e-01, 2.92000294e-01, 6.86116993e-01, 1.27485603e-01,
          3.43289912e-01, 2.73094386e-01 ]
      - [ 4.34525460e-01, 2.37986073e-01, 6.47198558e-01, 5.20080090e-01,
          6.46511734e-01, 3.32344532e-01, 6.31030977e-01, 2.40142331e-01,
          2.08077416e-01, 3.01647097e-01 ]
      - [ 3.51283908e-01, 2.24285096e-01, 5.71613908e-01, 6.03725970e-01,
          5.74769676e-01, 3.96399558e-01, 5.59738398e-01, 2.31444180e-01,
          2.58460730e-01, 3.58579904e-01 ]
      - [ 5.13397098e-01, 8.63116831e-02, 6.97265744e-01, 4.68031883e-01,
          7.03536689e-01, 2.93900013e-01, 6.92762613e-01, 9.85172763e-02,
          4.95447755e-01, 2.82702774e-01 ]
      - [ 8.04647744e-01, 1.32373884e-01, 8.49778414e-01, 1.97212264e-01,
          8.51224124e-01, 9.52024758e-02, 8.88123155e-01, 1.33019716e-01,
          3.77567798e-01, 8.11421275e-02 ]
      - [ 7.93055475e-01, 8.35740566e-02, 8.77157331e-01, 1.95477948e-01,
          8.78110468e-01, 1.04124703e-01, 8.81073296e-01, 8.49290267e-02,
          3.59710366e-01, 9.14185271e-02 ]
      - [ 8.21747303e-01, 8.29065070e-02, 8.92195165e-01, 1.66161239e-01,
          8.92299652e-01, 8.68267491e-02, 8.98392260e-01, 8.33710134e-02,
          3.75545561e-01, 7.42411390e-02 ]
      - [ 5.60625017e-01, 1.33066714e-01, 7.21271217e-01, 4.19720352e-01,
          7.25203276e-01, 2.48839274e-01, 7.27584302e-01, 1.40934333e-01,
          4.08623010e-01, 2.28721112e-01 ]
      - [ 6.67898536e-01, 1.10583015e-01, 7.86693454e-01, 3.15668553e-01,
          7.89668620e-01, 1.78161711e-01, 8.01652968e-01, 1.15707956e-01,
          3.55917394e-01, 1.60968468e-01 ]
      - [ 7.11581349e-01, 1.35089695e-01, 8.14811349e-01, 2.68913448e-01,
          8.15894067e-01, 1.47428378e-01, 8.30108523e-01, 1.36478454e-01,
          4.92759049e-01, 1.28366306e-01 ]
      - [ 8.43223929e-01, 5.77355847e-02, 9.02986050e-01, 1.54382825e-01,
          9.04106915e-01, 7.88828135e-02, 9.11183536e-01, 5.94187379e-02,
          3.85159850e-01, 7.04314783e-02 ]
      - [ 8.43796670e-01, 6.55069202e-02, 9.02293324e-01, 1.51699126e-01,
          9.03175473e-01, 7.71623701e-02, 9.11518753e-01, 6.68556616e-02,
          4.13355291e-01, 6.75173551e-02 ]
      - [ 4.10621554e-01, 2.85383165e-01, 5.73479295e-01, 5.63075781e-01,
          5.78739583e-01, 3.48360568e-01, 6.11366868e-01, 2.89810181e-01,
          2.29254186e-01, 3.14855516e-01 ]
      - [ 8.72680187e-01, 6.34482056e-02, 9.22553897e-01, 1.22205473e-01,
          9.22595382e-01, 6.09019846e-02, 9.28444624e-01, 6.36105537e-02,
          4.07770813e-01, 5.18640019e-02 ]
      - [ 5.03298640e-01, 1.23621024e-01, 6.82442784e-01, 4.80572492e-01,
          6.86053813e-01, 3.00623745e-01, 6.85233951e-01, 1.32834613e-01,
          6.16889477e-01, 2.88507313e-01 ]
      - [ 4.73191798e-01, 9.84997675e-02, 7.24315345e-01, 4.90670025e-01,
          7.24363506e-01, 3.24656487e-01, 6.61754787e-01, 1.04118191e-01,
          7.02814043e-01, 3.13096046e-01 ]
      - [ 6.96850657e-01, 1.08160466e-01, 8.08333576e-01, 2.87868798e-01,
          8.10303450e-01, 1.59736559e-01, 8.20625544e-01, 1.11719683e-01,
          5.79307735e-01, 1.42820060e-01 ]
      - [ 8.42187047e-01, 6.28204346e-02, 9.09769058e-01, 1.46855205e-01,
          9.09989774e-01, 7.76833221e-02, 9.10563350e-01, 6.33113384e-02,
          5.60264826e-01, 6.75832778e-02 ]
      - [ 5.13013899e-01, 6.42334223e-02, 7.61772335e-01, 4.37159210e-01,
          7.63600230e-01, 2.94828683e-01, 6.91900730e-01, 7.22850412e-02,
          7.82067895e-01, 2.83796728e-01 ]
      - [ 4.41768348e-01, 3.37886751e-01, 5.59312940e-01, 5.58291793e-01,
          5.63470662e-01, 3.29925776e-01, 6.36942804e-01, 3.42196703e-01,
          6.62963569e-01, 3.03446084e-01 ]
      - [ 8.36661398e-01, 8.03972632e-02, 9.11744893e-01, 1.44010350e-01,
          9.10997510e-01, 7.81907812e-02, 9.07262743e-01, 7.94853717e-02,
          5.54983497e-01, 6.59683645e-02 ]
      - [ 5.20509899e-01, 9.00911316e-02, 7.26734936e-01, 4.56632942e-01,
          7.28695512e-01, 2.89307833e-01, 6.98089838e-01, 9.95721892e-02,
          5.85729241e-01, 2.78755426e-01 ]
      - [ 8.22488070e-01, 8.51593316e-02, 8.96863699e-01, 1.63125023e-01,
          8.96579325e-01, 8.60431492e-02, 8.98834348e-01, 8.48698765e-02,
          5.82701683e-01, 7.31278583e-02 ]
      - [ 6.36671841e-01, 9.41891447e-02, 8.13889682e-01, 3.27813923e-01,
          8.13708425e-01, 2.01250866e-01, 7.80583560e-01, 9.61138085e-02,
          5.47388673e-01, 1.85424730e-01 ]
      - [ 5.01268923e-01, 9.58514065e-02, 6.94107175e-01, 4.80005860e-01,
          6.97909057e-01, 3.04927260e-01, 6.83542430e-01, 1.07172288e-01,
          5.78389704e-01, 2.95520186e-01 ]
      - [ 7.41261959e-01, 1.23998962e-01, 8.34158301e-01, 2.42816433e-01,
          8.35281193e-01, 1.31450877e-01, 8.48994255e-01, 1.24995500e-01,
          5.41089833e-01, 1.15102157e-01 ]
      - [ 7.02104807e-01, 1.34738877e-01, 8.31154346e-01, 2.51773685e-01,
          8.30334067e-01, 1.48944005e-01, 8.23939443e-01, 1.34264246e-01,
          4.24602240e-01, 1.25847742e-01 ]
      - [ 4.64945823e-01, 1.30891055e-01, 6.15633011e-01, 5.21050811e-01,
          6.25759065e-01, 3.20596814e-01, 6.55559063e-01, 1.45267755e-01,
          6.47905469e-01, 3.00145537e-01 ]
      - [ 6.73651695e-01, 1.17764339e-01, 7.99805641e-01, 3.07887822e-01,
          8.01122487e-01, 1.72641337e-01, 8.05444598e-01, 1.21368714e-01,
          4.26018566e-01, 1.53608695e-01 ]
      - [ 5.67344308e-01, 1.46460861e-01, 7.14088619e-01, 4.18425858e-01,
          7.18530774e-01, 2.47498572e-01, 7.32399285e-01, 1.54013231e-01,
          5.58422208e-01, 2.30840370e-01 ]
      - [ 6.94007397e-01, 1.16091080e-01, 8.15301239e-01, 2.87062496e-01,
          8.17045748e-01, 1.59874380e-01, 8.18770349e-01, 1.18995860e-01,
          3.93805325e-01, 1.41464904e-01 ]
      - [ 5.71157873e-01, 1.04807347e-01, 8.02411973e-01, 3.87334436e-01,
          8.03484797e-01, 2.43179634e-01, 7.35051751e-01, 1.08693771e-01,
          5.02454579e-01, 2.24515885e-01 ]
      - [ 5.50950706e-01, 9.19234902e-02, 7.40877211e-01, 4.25021291e-01,
          7.43085384e-01, 2.61536837e-01, 7.20595717e-01, 1.00046761e-01,
          5.71424961e-01, 2.46101484e-01 ]
      - [ 3.63492012e-01, 1.47880986e-01, 5.69435239e-01, 6.21877313e-01,
          5.75903893e-01, 3.99639517e-01, 5.70849359e-01, 1.63007468e-01,
          4.04388994e-01, 3.73903424e-01 ]
      - [ 7.68532693e-01, 4.81483899e-02, 8.56940925e-01, 2.25342244e-01,
          8.59619856e-01, 1.23881876e-01, 8.66032600e-01, 5.34041412e-02,
          4.86190379e-01, 1.14887945e-01 ]
      - [ 8.73137116e-01, 7.12356642e-02, 9.27945375e-01, 1.15198053e-01,
          9.27579582e-01, 5.94003312e-02, 9.28701878e-01, 7.00510144e-02,
          4.62394118e-01, 4.93903607e-02 ]
      - [ 7.72954822e-01, 1.14389777e-01, 8.27835143e-01, 2.36616731e-01,
          8.30019951e-01, 1.18110433e-01, 8.68776381e-01, 1.17988266e-01,
          5.04378080e-01, 1.06807336e-01 ]
      - [ 6.60650551e-01, 1.52545556e-01, 7.64726102e-01, 3.35040569e-01,
          7.66924500e-01, 1.81745738e-01, 7.96859145e-01, 1.56675562e-01,
          3.87071550e-01, 1.63481206e-01 ]
      - [ 5.91243088e-01, 1.36148199e-01, 7.92914212e-01, 3.75092953e-01,
          7.93191373e-01, 2.30542794e-01, 7.49283969e-01, 1.39195055e-01,
          4.71129417e-01, 2.13975772e-01 ]
      - [ 4.00594831e-01, 1.71955287e-01, 5.77547491e-01, 5.92648387e-01,
          5.83531857e-01, 3.67315352e-01, 6.03000760e-01, 1.86696008e-01,
          4.03704792e-01, 3.41931611e-01 ]
      - [ 7.00720549e-01, 1.09597825e-01, 8.23678613e-01, 2.68605500e-01,
          8.24457765e-01, 1.53660059e-01, 8.23090911e-01, 1.12070389e-01,
          4.15071726e-01, 1.33645296e-01 ]
      - [ 5.28217912e-01, 1.26881763e-01, 7.58969188e-01, 4.02756602e-01,
          7.57422864e-01, 2.62235135e-01, 7.03674257e-01, 1.30155593e-01,
          3.92491043e-01, 2.32398093e-01 ]
      - [ 5.00138760e-01, 1.10041387e-01, 6.34176731e-01, 5.04590094e-01,
          6.41361713e-01, 3.10496777e-01, 6.82865441e-01, 1.28336638e-01,
          5.74830532e-01, 3.05174351e-01 ]
      - [ 1.65979922e-01, 3.87472332e-01, 3.55393767e-01, 8.24933052e-01,
          3.61836016e-01, 5.70139110e-01, 3.63901287e-01, 3.96149933e-01,
          5.67088664e-01, 5.13753295e-01 ]
      - [ 7.83717275e-01, 9.31392536e-02, 8.95199120e-01, 1.97703212e-01,
          8.95039380e-01, 1.08487979e-01, 8.75346303e-01, 9.22097266e-02,
          4.62769210e-01, 9.44703296e-02 ]
      - [ 9.28731918e-01, 8.23808312e-02, 9.51727986e-01, 6.58196285e-02,
          9.50565815e-01, 2.96459142e-02, 9.60533679e-01, 7.88003057e-02,
          5.36174357e-01, 2.15965454e-02 ]
      - [ 8.89852464e-01, 5.53101003e-02, 9.30788696e-01, 1.12796299e-01,
          9.31043446e-01, 5.43127246e-02, 9.38387513e-01, 5.57362884e-02,
          4.93893355e-01, 4.81520854e-02 ]
      - [ 4.26220059e-01, 2.08551437e-01, 7.24608481e-01, 4.95389014e-01,
          7.22186565e-01, 3.35619628e-01, 6.23782873e-01, 2.08889514e-01,
          6.55935764e-01, 3.01249862e-01 ]
      - [ 9.01782870e-01, 3.31004187e-02, 9.46276307e-01, 9.68706459e-02,
          9.46630836e-01, 4.86863367e-02, 9.45233583e-01, 3.38148586e-02,
          3.89979154e-01, 4.34585363e-02 ]
      - [ 8.57523263e-01, 6.98459595e-02, 9.29925263e-01, 1.27138570e-01,
          9.29056287e-01, 6.78936467e-02, 9.19577479e-01, 6.88468367e-02,
          3.94807309e-01, 5.73301762e-02 ]
      - [ 8.04277897e-01, 7.64951929e-02, 9.00536358e-01, 1.79843515e-01,
          8.99240494e-01, 9.82110873e-02, 8.87872577e-01, 7.62980208e-02,
          4.58499074e-01, 8.61919373e-02 ]
      - [ 7.97276795e-01, 1.32572010e-01, 8.56677890e-01, 1.96688339e-01,
          8.57408047e-01, 9.84804779e-02, 8.83638918e-01, 1.32067099e-01,
          4.48323429e-01, 8.35633576e-02 ]
      - [ 8.91385257e-01, 4.23089378e-02, 9.49760139e-01, 9.61228535e-02,
          9.49274480e-01, 5.97704425e-02, 9.39231575e-01, 4.19869460e-02,
          3.78741115e-01, 5.98628782e-02 ]
      - [ 6.81543112e-01, 2.03514621e-01, 8.08723092e-01, 2.81900883e-01,
          8.06865752e-01, 1.58971742e-01, 8.10526788e-01, 1.99701145e-01,
          3.32592398e-01, 1.33562937e-01 ]
      - [ 9.38403130e-01, 4.45034765e-02, 9.62227762e-01, 6.57676086e-02,
          9.62104738e-01, 3.10588498e-02, 9.65976715e-01, 4.32683565e-02,
          3.57954532e-01, 2.87510492e-02 ]
      - [ 9.06304479e-01, 4.15944718e-02, 9.44238186e-01, 9.46816131e-02,
          9.44495320e-01, 4.79490049e-02, 9.47811425e-01, 4.22959030e-02,
          5.09833515e-01, 4.46535535e-02 ]
      - [ 6.38621628e-01, 1.19080000e-01, 7.98012495e-01, 3.32017332e-01,
          7.97940016e-01, 1.97147816e-01, 7.82007754e-01, 1.22323424e-01,
          4.31996167e-01, 1.79565489e-01 ]
      - [ 9.55407470e-02, 4.41533893e-01, 3.59484017e-01, 8.87324929e-01,
          3.59166145e-01, 6.57549322e-01, 2.61890441e-01, 4.45739836e-01,
          7.67450809e-01, 5.89445293e-01 ]
      - [ 8.57814252e-01, 7.58644864e-02, 9.12020028e-01, 1.41536132e-01,
          9.12308455e-01, 7.05499798e-02, 9.19770122e-01, 7.61741623e-02,
          4.72263664e-01, 6.25709072e-02 ]
      - [ 8.95594299e-01, 3.39496061e-02, 9.57679629e-01, 9.64818895e-02,
          9.56998408e-01, 5.14525436e-02, 9.41679120e-01, 3.37584950e-02,
          5.08996308e-01, 4.55503352e-02 ]
      - [ 5.62441587e-01, 1.97975576e-01, 7.42993653e-01, 3.70578796e-01,
          7.41632640e-01, 2.31049761e-01, 7.28691161e-01, 1.97585747e-01,
          8.84229422e-01, 1.96578354e-01 ]
      - [ 7.98665106e-01, 1.44605398e-01, 8.58521223e-01, 1.99394792e-01,
          8.58138740e-01, 9.79831442e-02, 8.84495199e-01, 1.42312825e-01,
          4.27305907e-01, 8.31045657e-02 ]
   decision_functions:
      -
         sv_count: 6
         rho: -4.8315163397838451e-01
         alpha: [ 2.2212835837170530e+02, 1.3677592658036582e+02,
             -9.5777403604041602e+00, -1.0234272877199128e+01,
             -1.9086468095152145e+02, -1.4822759076294636e+02 ]
         index: [ 4, 10, 20, 21, 24, 25 ]
      -
         sv_count: 19
         rho: -3.4757893837660658e+00
         alpha: [ 6.9117536565817119e+01, 7.7210280695817687e+01,
             1.8413877020553684e+02, 3.1250000000000000e+02,
             2.9109815396987284e+02, 3.1250000000000000e+02,
             3.1250000000000000e+02, 3.1250000000000000e+02,
             3.1250000000000000e+02, 1.1729589423867893e+02,
             -3.1250000000000000e+02, -3.1250000000000000e+02,
             -2.2769409627402405e+02, -1.6089476201014043e+02,
             -3.1250000000000000e+02, -3.1250000000000000e+02,
             -1.3643881262980338e+02, -3.1250000000000000e+02,
             -2.1383296476175551e+02 ]
         index: [ 0, 1, 3, 4, 5, 8, 9, 10, 12, 14, 29, 31, 34, 35, 36,
             38, 40, 41, 42 ]
      -
         sv_count: 19
         rho: 5.2520558514610620e+00
         alpha: [ 3.5474826877707940e+01, 9.5696744392166053e+00,
             3.1250000000000000e+02, 2.9202127384359943e+02,
             3.1250000000000000e+02, 3.1250000000000000e+02,
             3.1250000000000000e+02, 3.1250000000000000e+02,
             3.9156958165391828e+01, 3.1250000000000000e+02,
             -3.1250000000000000e+02, -3.1250000000000000e+02,
             -1.3618794045554770e+02, -3.1250000000000000e+02,
             -3.1250000000000000e+02, -2.7546364580709883e+02,
             -3.1117703875675208e+01, -3.1250000000000000e+02,
             -2.4595344318759390e+02 ]
         index: [ 2, 4, 5, 6, 7, 10, 11, 12, 13, 14, 49, 50, 51, 52, 53,
             54, 55, 57, 62 ]
      -
         sv_count: 14
         rho: -1.7416830787704267e+00
         alpha: [ 2.2067877983848760e+02, 3.1250000000000000e+02,
             1.3775008476057309e+02, 3.5240319947635626e+01,
             3.1250000000000000e+02, 3.1250000000000000e+02,
             3.1250000000000000e+02, -3.1250000000000000e+02,
             -3.1250000000000000e+02, -2.6742777121707655e+02,
             -2.9159329765039166e+02, -3.1250000000000000e+02,
             -1.3300631398426540e+02, -1.4141801694963293e+01 ]
         index: [ 15, 17, 20, 21, 22, 24, 25, 26, 28, 30, 32, 33, 43, 44 ]
      -
         sv_count: 16
         rho: 1.1920837857072959e+01
         alpha: [ 1.5210770072714232e+02, 3.1250000000000000e+02,
             3.9663806291609895e+00, 1.6378706645836095e+02,
             3.1250000000000000e+02, 3.1250000000000000e+02,
             1.6372645217596300e+02, -4.4508307806388324e+01,
             -5.0945623262721980e+01, -1.9725316957650347e+02,
             -9.9906581788273428e+01, -3.1250000000000000e+02,
             -3.1250000000000000e+02, -9.9639574204077341e+00,
             -8.1009960136332666e+01, -3.1250000000000000e+02 ]
         index: [ 16, 18, 19, 20, 21, 23, 24, 45, 46, 47, 48, 56, 57, 58,
             60, 61 ]
      -
         sv_count: 17
         rho: 5.1879365011916416e+00
         alpha: [ 3.1250000000000000e+02, 3.1250000000000000e+02,
             2.0164663118129747e+02, 3.1250000000000000e+02,
             2.7366804312506525e+02, 9.0577139655081893e+01,
             2.0342308835164155e+02, 2.0101849658927748e+01,
             -3.1250000000000000e+02, -6.3176983513245780e+01,
             -3.1250000000000000e+02, -3.1250000000000000e+02,
             -9.7949238705290895e+01, -3.1250000000000000e+02,
             -1.9762288019732196e+01, -6.6307819672678988e+01,
             -2.2972042206106556e+02 ]
         index: [ 26, 27, 31, 36, 37, 39, 41, 44, 45, 48, 51, 52, 54, 57,
             59, 61, 62 ]
