%YAML:1.0
my_svm: !!opencv-ml-svm
   svm_type: C_SVC
   kernel: { type:RBF, gamma:5.0625000000000009e-01 }
   C: 3.1250000000000000e+02
   term_criteria: { epsilon:1.1920928955078125e-07, iterations:1000 }
   var_all: 10
   var_count: 10
   class_count: 4
   class_labels: !!opencv-matrix
      rows: 1
      cols: 4
      dt: i
      data: [ 0, 1, 2, 3 ]
   sv_total: 66
   support_vectors:
      - [ 4.10621554e-01, 2.85383165e-01, 5.73479295e-01, 5.63075781e-01,
          5.78739583e-01, 3.48360568e-01, 6.11366868e-01, 2.89810181e-01,
          2.29254186e-01, 3.14855516e-01 ]
      - [ 6.20302796e-01, 3.47014628e-02, 8.46210241e-01, 3.41982007e-01,
          8.46276999e-01, 2.19582528e-01, 7.69469261e-01, 4.07403260e-02,
          3.48790109e-01, 2.09695682e-01 ]
      - [ 5.13397098e-01, 8.63116831e-02, 6.97265744e-01, 4.68031883e-01,
          7.03536689e-01, 2.93900013e-01, 6.92762613e-01, 9.85172763e-02,
          4.95447755e-01, 2.82702774e-01 ]
      - [ 8.04647744e-01, 1.32373884e-01, 8.49778414e-01, 1.97212264e-01,
          8.51224124e-01, 9.52024758e-02, 8.88123155e-01, 1.33019716e-01,
          3.77567798e-01, 8.11421275e-02 ]
      - [ 7.93055475e-01, 8.35740566e-02, 8.77157331e-01, 1.95477948e-01,
          8.78110468e-01, 1.04124703e-01, 8.81073296e-01, 8.49290267e-02,
          3.59710366e-01, 9.14185271e-02 ]
      - [ 8.72680187e-01, 6.34482056e-02, 9.22553897e-01, 1.22205473e-01,
          9.22595382e-01, 6.09019846e-02, 9.28444624e-01, 6.36105537e-02,
          4.07770813e-01, 5.18640019e-02 ]
      - [ 8.74906600e-01, 6.97079375e-02, 9.21949506e-01, 1.20318338e-01,
          9.21912611e-01, 5.92253953e-02, 9.29737449e-01, 6.95252940e-02,
          4.12854105e-01, 4.99015599e-02 ]
      - [ 6.15448236e-01, 1.07279569e-01, 7.41142273e-01, 3.75202566e-01,
          7.46501267e-01, 2.16970533e-01, 7.66244411e-01, 1.15761884e-01,
          3.49657804e-01, 2.02735007e-01 ]
      - [ 8.43796670e-01, 6.55069202e-02, 9.02293324e-01, 1.51699126e-01,
          9.03175473e-01, 7.71623701e-02, 9.11518753e-01, 6.68556616e-02,
          4.13355291e-01, 6.75173551e-02 ]
      - [ 5.04477978e-01, 1.15543224e-01, 6.66230261e-01, 4.79536742e-01,
          6.72920346e-01, 2.92000294e-01, 6.86116993e-01, 1.27485603e-01,
          3.43289912e-01, 2.73094386e-01 ]
      - [ 7.46491492e-01, 1.88116387e-01, 7.91743577e-01, 2.58893043e-01,
          7.93433487e-01, 1.26061589e-01, 8.52313697e-01, 1.89366341e-01,
          3.21210086e-01, 1.07833475e-01 ]
      - [ 7.57742643e-01, 6.91580698e-02, 8.59603524e-01, 2.27470443e-01,
          8.61347437e-01, 1.25797018e-01, 8.59324634e-01, 7.21813664e-02,
          3.69057745e-01, 1.12909071e-01 ]
      - [ 4.34525460e-01, 2.37986073e-01, 6.47198558e-01, 5.20080090e-01,
          6.46511734e-01, 3.32344532e-01, 6.31030977e-01, 2.40142331e-01,
          2.08077416e-01, 3.01647097e-01 ]
      - [ 6.67898536e-01, 1.10583015e-01, 7.86693454e-01, 3.15668553e-01,
          7.89668620e-01, 1.78161711e-01, 8.01652968e-01, 1.15707956e-01,
          3.55917394e-01, 1.60968468e-01 ]
      - [ 8.72680187e-01, 6.34482056e-02, 9.22553897e-01, 1.22205473e-01,
          9.22595382e-01, 6.09019846e-02, 9.28444624e-01, 6.36105537e-02,
          4.07770813e-01, 5.18640019e-02 ]
      - [ 8.27552676e-01, 8.65994468e-02, 8.97727132e-01, 1.59487322e-01,
          8.97499800e-01, 8.30851346e-02, 9.01858747e-01, 8.64445940e-02,
          3.74557942e-01, 7.02777877e-02 ]
      - [ 6.17130637e-01, 7.65866488e-02, 7.98464298e-01, 3.44669878e-01,
          7.98616230e-01, 2.11443424e-01, 7.67314553e-01, 8.19205120e-02,
          5.69567382e-01, 1.92770988e-01 ]
      - [ 9.62549865e-01, 2.98367497e-02, 9.75534678e-01, 3.88250798e-02,
          9.75353777e-01, 1.66072473e-02, 9.79441702e-01, 2.91598160e-02,
          4.86322403e-01, 1.33150108e-02 ]
      - [ 6.96850657e-01, 1.08160466e-01, 8.08333576e-01, 2.87868798e-01,
          8.10303450e-01, 1.59736559e-01, 8.20625544e-01, 1.11719683e-01,
          5.79307735e-01, 1.42820060e-01 ]
      - [ 6.76594317e-01, 1.60392225e-01, 8.19712818e-01, 2.81584114e-01,
          8.17353308e-01, 1.64135501e-01, 8.07312012e-01, 1.57404810e-01,
          6.77319229e-01, 1.39637649e-01 ]
      - [ 8.22488070e-01, 8.51593316e-02, 8.96863699e-01, 1.63125023e-01,
          8.96579325e-01, 8.60431492e-02, 8.98834348e-01, 8.48698765e-02,
          5.82701683e-01, 7.31278583e-02 ]
      - [ 5.01268923e-01, 9.58514065e-02, 6.94107175e-01, 4.80005860e-01,
          6.97909057e-01, 3.04927260e-01, 6.83542430e-01, 1.07172288e-01,
          5.78389704e-01, 2.95520186e-01 ]
      - [ 8.42187047e-01, 6.28204346e-02, 9.09769058e-01, 1.46855205e-01,
          9.09989774e-01, 7.76833221e-02, 9.10563350e-01, 6.33113384e-02,
          5.60264826e-01, 6.75832778e-02 ]
      - [ 5.03298640e-01, 1.23621024e-01, 6.82442784e-01, 4.80572492e-01,
          6.86053813e-01, 3.00623745e-01, 6.85233951e-01, 1.32834613e-01,
          6.16889477e-01, 2.88507313e-01 ]
      - [ 5.02524078e-01, 1.11489572e-01, 7.02731490e-01, 4.76192564e-01,
          7.04642594e-01, 3.01341802e-01, 6.84620380e-01, 1.20317280e-01,
          6.04376376e-01, 2.89208204e-01 ]
      - [ 8.36661398e-01, 8.03972632e-02, 9.11744893e-01, 1.44010350e-01,
          9.10997510e-01, 7.81907812e-02, 9.07262743e-01, 7.94853717e-02,
          5.54983497e-01, 6.59683645e-02 ]
      - [ 7.67559290e-01, 7.16416538e-02, 8.74898374e-01, 2.10667878e-01,
          8.75303209e-01, 1.18919574e-01, 8.65404546e-01, 7.30289072e-02,
          5.11841059e-01, 1.05413698e-01 ]
      - [ 8.20410192e-01, 8.36777985e-02, 9.02480066e-01, 1.60084158e-01,
          9.01799142e-01, 8.69149417e-02, 8.97577167e-01, 8.32356736e-02,
          5.44891655e-01, 7.37430453e-02 ]
      - [ 6.60650551e-01, 1.52545556e-01, 7.64726102e-01, 3.35040569e-01,
          7.66924500e-01, 1.81745738e-01, 7.96859145e-01, 1.56675562e-01,
          3.87071550e-01, 1.63481206e-01 ]
      - [ 5.46114624e-01, 1.78236291e-01, 6.71732128e-01, 4.49719340e-01,
          6.77145481e-01, 2.59598076e-01, 7.17124760e-01, 1.86341822e-01,
          3.56985688e-01, 2.40024492e-01 ]
      - [ 7.72954822e-01, 1.14389777e-01, 8.27835143e-01, 2.36616731e-01,
          8.30019951e-01, 1.18110433e-01, 8.68776381e-01, 1.17988266e-01,
          5.04378080e-01, 1.06807336e-01 ]
      - [ 7.00720549e-01, 1.09597825e-01, 8.23678613e-01, 2.68605500e-01,
          8.24457765e-01, 1.53660059e-01, 8.23090911e-01, 1.12070389e-01,
          4.15071726e-01, 1.33645296e-01 ]
      - [ 6.94007397e-01, 1.16091080e-01, 8.15301239e-01, 2.87062496e-01,
          8.17045748e-01, 1.59874380e-01, 8.18770349e-01, 1.18995860e-01,
          3.93805325e-01, 1.41464904e-01 ]
      - [ 8.73137116e-01, 7.12356642e-02, 9.27945375e-01, 1.15198053e-01,
          9.27579582e-01, 5.94003312e-02, 9.28701878e-01, 7.00510144e-02,
          4.62394118e-01, 4.93903607e-02 ]
      - [ 5.71157873e-01, 1.04807347e-01, 8.02411973e-01, 3.87334436e-01,
          8.03484797e-01, 2.43179634e-01, 7.35051751e-01, 1.08693771e-01,
          5.02454579e-01, 2.24515885e-01 ]
      - [ 4.72392619e-01, 9.65600014e-02, 6.20598733e-01, 5.29643476e-01,
          6.28452957e-01, 3.32913667e-01, 6.61441922e-01, 1.16371453e-01,
          5.87668002e-01, 3.28444511e-01 ]
      - [ 5.50950706e-01, 9.19234902e-02, 7.40877211e-01, 4.25021291e-01,
          7.43085384e-01, 2.61536837e-01, 7.20595717e-01, 1.00046761e-01,
          5.71424961e-01, 2.46101484e-01 ]
      - [ 7.02104807e-01, 1.34738877e-01, 8.31154346e-01, 2.51773685e-01,
          8.30334067e-01, 1.48944005e-01, 8.23939443e-01, 1.34264246e-01,
          4.24602240e-01, 1.25847742e-01 ]
      - [ 7.91768551e-01, 4.31854315e-02, 8.98474157e-01, 1.97757542e-01,
          8.99689794e-01, 1.11860439e-01, 8.80282640e-01, 4.61470969e-02,
          4.86367375e-01, 1.04864441e-01 ]
      - [ 4.00594831e-01, 1.71955287e-01, 5.77547491e-01, 5.92648387e-01,
          5.83531857e-01, 3.67315352e-01, 6.03000760e-01, 1.86696008e-01,
          4.03704792e-01, 3.41931611e-01 ]
      - [ 5.91243088e-01, 1.36148199e-01, 7.92914212e-01, 3.75092953e-01,
          7.93191373e-01, 2.30542794e-01, 7.49283969e-01, 1.39195055e-01,
          4.71129417e-01, 2.13975772e-01 ]
      - [ 5.24606228e-01, 1.13467276e-01, 7.24586427e-01, 4.27784413e-01,
          7.26071417e-01, 2.67835021e-01, 7.01087475e-01, 1.20821774e-01,
          3.94363523e-01, 2.40444601e-01 ]
      - [ 4.64945823e-01, 1.30891055e-01, 6.15633011e-01, 5.21050811e-01,
          6.25759065e-01, 3.20596814e-01, 6.55559063e-01, 1.45267755e-01,
          6.47905469e-01, 3.00145537e-01 ]
      - [ 4.55511332e-01, 4.44963276e-02, 6.98564887e-01, 5.10762870e-01,
          7.02753663e-01, 3.43756825e-01, 6.47851050e-01, 5.78628145e-02,
          5.13704598e-01, 3.37214768e-01 ]
      - [ 2.88084537e-01, 2.59616196e-01, 5.43732941e-01, 6.57952487e-01,
          5.43145597e-01, 4.50415790e-01, 4.99897540e-01, 2.65318602e-01,
          4.38057750e-01, 4.07634676e-01 ]
      - [ 5.67344308e-01, 1.46460861e-01, 7.14088619e-01, 4.18425858e-01,
          7.18530774e-01, 2.47498572e-01, 7.32399285e-01, 1.54013231e-01,
          5.58422208e-01, 2.30840370e-01 ]
      - [ 8.47780347e-01, 1.21579163e-01, 8.87881994e-01, 1.54841721e-01,
          8.86929393e-01, 7.93791935e-02, 9.13797081e-01, 1.21288344e-01,
          4.34828877e-01, 7.41109475e-02 ]
      - [ 9.47867334e-01, 4.73593250e-02, 9.64741766e-01, 5.07727526e-02,
          9.64432180e-01, 2.25312207e-02, 9.71273839e-01, 4.60747294e-02,
          3.59658986e-01, 1.74364671e-02 ]
      - [ 8.89852464e-01, 5.53101003e-02, 9.30788696e-01, 1.12796299e-01,
          9.31043446e-01, 5.43127246e-02, 9.38387513e-01, 5.57362884e-02,
          4.93893355e-01, 4.81520854e-02 ]
      - [ 9.08214331e-01, 5.62540479e-02, 9.50820386e-01, 8.57406259e-02,
          9.50448036e-01, 4.25132625e-02, 9.48892713e-01, 5.53041659e-02,
          4.03485924e-01, 3.53833325e-02 ]
      - [ 6.38621628e-01, 1.19080000e-01, 7.98012495e-01, 3.32017332e-01,
          7.97940016e-01, 1.97147816e-01, 7.82007754e-01, 1.22323424e-01,
          4.31996167e-01, 1.79565489e-01 ]
      - [ 7.55306125e-01, 8.14075619e-02, 8.72352242e-01, 2.12451890e-01,
          8.72111976e-01, 1.22728169e-01, 8.57738912e-01, 8.27200413e-02,
          3.54750127e-01, 1.05925523e-01 ]
      - [ 6.96299434e-01, 1.25325441e-01, 7.91179299e-01, 2.94087112e-01,
          7.93963552e-01, 1.61233872e-01, 8.20288122e-01, 1.28967077e-01,
          3.25546354e-01, 1.45249411e-01 ]
      - [ 9.18194950e-01, 3.80366184e-02, 9.57735896e-01, 7.75706470e-02,
          9.57428098e-01, 3.97111513e-02, 9.54576254e-01, 3.78267951e-02,
          5.26352823e-01, 3.50794829e-02 ]
      - [ 7.98665106e-01, 1.44605398e-01, 8.58521223e-01, 1.99394792e-01,
          8.58138740e-01, 9.79831442e-02, 8.84495199e-01, 1.42312825e-01,
          4.27305907e-01, 8.31045657e-02 ]
      - [ 9.01782870e-01, 3.31004187e-02, 9.46276307e-01, 9.68706459e-02,
          9.46630836e-01, 4.86863367e-02, 9.45233583e-01, 3.38148586e-02,
          3.89979154e-01, 4.34585363e-02 ]
      - [ 5.62441587e-01, 1.97975576e-01, 7.42993653e-01, 3.70578796e-01,
          7.41632640e-01, 2.31049761e-01, 7.28691161e-01, 1.97585747e-01,
          8.84229422e-01, 1.96578354e-01 ]
      - [ 7.83717275e-01, 9.31392536e-02, 8.95199120e-01, 1.97703212e-01,
          8.95039380e-01, 1.08487979e-01, 8.75346303e-01, 9.22097266e-02,
          4.62769210e-01, 9.44703296e-02 ]
      - [ 4.26220059e-01, 2.08551437e-01, 7.24608481e-01, 4.95389014e-01,
          7.22186565e-01, 3.35619628e-01, 6.23782873e-01, 2.08889514e-01,
          6.55935764e-01, 3.01249862e-01 ]
      - [ 8.70453715e-01, 3.52881774e-02, 9.25017715e-01, 1.29935130e-01,
          9.26139951e-01, 6.68715015e-02, 9.27159607e-01, 3.71194594e-02,
          5.54479420e-01, 6.17810190e-02 ]
      - [ 8.04277897e-01, 7.64951929e-02, 9.00536358e-01, 1.79843515e-01,
          8.99240494e-01, 9.82110873e-02, 8.87872577e-01, 7.62980208e-02,
          4.58499074e-01, 8.61919373e-02 ]
      - [ 9.28731918e-01, 8.23808312e-02, 9.51727986e-01, 6.58196285e-02,
          9.50565815e-01, 2.96459142e-02, 9.60533679e-01, 7.88003057e-02,
          5.36174357e-01, 2.15965454e-02 ]
      - [ 6.81543112e-01, 2.03514621e-01, 8.08723092e-01, 2.81900883e-01,
          8.06865752e-01, 1.58971742e-01, 8.10526788e-01, 1.99701145e-01,
          3.32592398e-01, 1.33562937e-01 ]
      - [ 0., 1.17258653e-02, 4.64533925e-01, 1., 4.64674294e-01, 1., 0.,
          3.68359014e-02, 4.27594006e-01, 1. ]
      - [ 9.06304479e-01, 4.15944718e-02, 9.44238186e-01, 9.46816131e-02,
          9.44495320e-01, 4.79490049e-02, 9.47811425e-01, 4.22959030e-02,
          5.09833515e-01, 4.46535535e-02 ]
      - [ 8.57523263e-01, 6.98459595e-02, 9.29925263e-01, 1.27138570e-01,
          9.29056287e-01, 6.78936467e-02, 9.19577479e-01, 6.88468367e-02,
          3.94807309e-01, 5.73301762e-02 ]
   decision_functions:
      -
         sv_count: 5
         rho: -2.3097415836719434e-01
         alpha: [ 2.2218255078181812e+02, 1.1583389748127485e+02,
             -3.9752458274311273e+01, -1.9377623411866884e+02,
             -1.0448775587011322e+02 ]
         index: [ 2, 6, 17, 21, 26 ]
      -
         sv_count: 15
         rho: -5.8952961036395903e+00
         alpha: [ 1.4738249967669586e+02, 3.1250000000000000e+02,
             3.1250000000000000e+02, 3.8807386343438836e+01,
             2.2720329541682233e+02, 2.6017709310464301e+02,
             2.2763275957629602e+01, 3.1250000000000000e+02,
             -1.5701266133017504e+02, -3.1250000000000000e+02,
             -6.6148155487146838e+01, -3.1250000000000000e+02,
             -3.1250000000000000e+02, -1.6067273368190698e+02,
             -3.1250000000000000e+02 ]
         index: [ 0, 2, 3, 7, 8, 9, 10, 13, 28, 29, 31, 32, 33, 39, 41 ]
      -
         sv_count: 24
         rho: 3.0992758302134096e+00
         alpha: [ 9.8097348441550963e+01, 1.2968347892044807e+02,
             3.1250000000000000e+02, 3.1250000000000000e+02,
             3.1250000000000000e+02, 3.1250000000000000e+02,
             3.1250000000000000e+02, 3.1250000000000000e+02,
             6.3458936723185360e+01, 4.6556614335514304e+01,
             3.1250000000000000e+02, 3.1250000000000000e+02,
             -2.9007982440525501e+02, -3.1250000000000000e+02,
             -8.6096335675284010e+01, -3.1250000000000000e+02,
             -3.1250000000000000e+02, -3.1250000000000000e+02,
             -3.1250000000000000e+02, -3.1250000000000000e+02,
             -9.6637820152806412e+01, -1.7109204701620254e+02,
             -6.3903511711511278e+00, -3.1250000000000000e+02 ]
         index: [ 1, 2, 3, 4, 5, 6, 8, 10, 11, 12, 14, 15, 46, 47, 49,
             50, 51, 52, 54, 55, 60, 62, 63, 65 ]
      -
         sv_count: 15
         rho: 9.5853978466824885e-01
         alpha: [ 8.1816988171768941e+01, 2.1893728546633440e+02,
             1.2427438244961243e+02, 3.1250000000000000e+02,
             3.1250000000000000e+02, 3.1250000000000000e+02,
             3.1250000000000000e+02, -2.7706601071649322e+02,
             -1.2436225766299675e+02, -1.4854762662986531e+02,
             -3.1250000000000000e+02, -3.1250000000000000e+02,
             -3.1250000000000000e+02, -2.2094140136039318e+01,
             -1.6545862094232027e+02 ]
         index: [ 16, 17, 18, 21, 23, 24, 26, 33, 34, 35, 36, 38, 42, 43,
             45 ]
      -
         sv_count: 17
         rho: 1.4959165405129124e+01
         alpha: [ 3.1250000000000000e+02, 1.0045099434586543e+01,
             2.1340744116475460e+02, 3.1250000000000000e+02,
             2.3172232210975326e+02, 3.1250000000000000e+02,
             3.1250000000000000e+02, 3.1250000000000000e+02,
             -1.2491471328964428e+02, -3.1250000000000000e+02,
             -3.1250000000000000e+02, -2.3326332117339263e+02,
             -1.9187201375904726e+02, -3.1250000000000000e+02,
             -1.1315813755993393e+02, -1.0446667692707641e+02,
             -3.1250000000000000e+02 ]
         index: [ 17, 19, 20, 22, 23, 25, 26, 27, 48, 50, 53, 56, 57, 59,
             60, 61, 64 ]
      -
         sv_count: 18
         rho: 1.0413405680958785e+01
         alpha: [ 3.1250000000000000e+02, 3.1250000000000000e+02,
             3.1250000000000000e+02, 3.1250000000000000e+02,
             3.1250000000000000e+02, 3.1250000000000000e+02,
             1.9341851613806188e+02, 7.4389237957225134e+01,
             -3.1250000000000000e+02, -2.3733308902584969e+02,
             -3.1250000000000000e+02, -1.8401494121330927e+02,
             -2.3533464336379243e+01, -3.1250000000000000e+02,
             -1.7204210298193101e+02, -3.0142845934017748e+02,
             -1.9326362212504665e+02, -9.3692075072593823e+01 ]
         index: [ 30, 31, 32, 33, 37, 38, 40, 44, 50, 51, 52, 54, 56, 57,
             58, 59, 60, 62 ]
