%YAML:1.0
my_svm: !!opencv-ml-svm
   svm_type: C_SVC
   kernel: { type:RBF, gamma:5.0625000000000009e-01 }
   C: 3.1250000000000000e+02
   term_criteria: { epsilon:1.1920928955078125e-07, iterations:1000 }
   var_all: 10
   var_count: 10
   class_count: 4
   class_labels: !!opencv-matrix
      rows: 1
      cols: 4
      dt: i
      data: [ 0, 1, 2, 3 ]
   sv_total: 68
   support_vectors:
      - [ 8.27552676e-01, 8.65994468e-02, 8.97727132e-01, 1.59487322e-01,
          8.97499800e-01, 8.30851346e-02, 9.01858747e-01, 8.64445940e-02,
          3.74557942e-01, 7.02777877e-02 ]
      - [ 8.43796670e-01, 6.55069202e-02, 9.02293324e-01, 1.51699126e-01,
          9.03175473e-01, 7.71623701e-02, 9.11518753e-01, 6.68556616e-02,
          4.13355291e-01, 6.75173551e-02 ]
      - [ 8.21747303e-01, 8.29065070e-02, 8.92195165e-01, 1.66161239e-01,
          8.92299652e-01, 8.68267491e-02, 8.98392260e-01, 8.33710134e-02,
          3.75545561e-01, 7.42411390e-02 ]
      - [ 3.51283908e-01, 2.24285096e-01, 5.71613908e-01, 6.03725970e-01,
          5.74769676e-01, 3.96399558e-01, 5.59738398e-01, 2.31444180e-01,
          2.58460730e-01, 3.58579904e-01 ]
      - [ 8.74906600e-01, 6.97079375e-02, 9.21949506e-01, 1.20318338e-01,
          9.21912611e-01, 5.92253953e-02, 9.29737449e-01, 6.95252940e-02,
          4.12854105e-01, 4.99015599e-02 ]
      - [ 8.41609180e-01, 3.92763950e-02, 9.19955611e-01, 1.49597883e-01,
          9.19958234e-01, 8.08355436e-02, 9.10222590e-01, 4.07337174e-02,
          3.86435419e-01, 7.31074810e-02 ]
      - [ 8.04647744e-01, 1.32373884e-01, 8.49778414e-01, 1.97212264e-01,
          8.51224124e-01, 9.52024758e-02, 8.88123155e-01, 1.33019716e-01,
          3.77567798e-01, 8.11421275e-02 ]
      - [ 5.04477978e-01, 1.15543224e-01, 6.66230261e-01, 4.79536742e-01,
          6.72920346e-01, 2.92000294e-01, 6.86116993e-01, 1.27485603e-01,
          3.43289912e-01, 2.73094386e-01 ]
      - [ 5.13397098e-01, 8.63116831e-02, 6.97265744e-01, 4.68031883e-01,
          7.03536689e-01, 2.93900013e-01, 6.92762613e-01, 9.85172763e-02,
          4.95447755e-01, 2.82702774e-01 ]
      - [ 5.60625017e-01, 1.33066714e-01, 7.21271217e-01, 4.19720352e-01,
          7.25203276e-01, 2.48839274e-01, 7.27584302e-01, 1.40934333e-01,
          4.08623010e-01, 2.28721112e-01 ]
      - [ 8.72680187e-01, 6.34482056e-02, 9.22553897e-01, 1.22205473e-01,
          9.22595382e-01, 6.09019846e-02, 9.28444624e-01, 6.36105537e-02,
          4.07770813e-01, 5.18640019e-02 ]
      - [ 8.43223929e-01, 5.77355847e-02, 9.02986050e-01, 1.54382825e-01,
          9.04106915e-01, 7.88828135e-02, 9.11183536e-01, 5.94187379e-02,
          3.85159850e-01, 7.04314783e-02 ]
      - [ 6.67898536e-01, 1.10583015e-01, 7.86693454e-01, 3.15668553e-01,
          7.89668620e-01, 1.78161711e-01, 8.01652968e-01, 1.15707956e-01,
          3.55917394e-01, 1.60968468e-01 ]
      - [ 4.10621554e-01, 2.85383165e-01, 5.73479295e-01, 5.63075781e-01,
          5.78739583e-01, 3.48360568e-01, 6.11366868e-01, 2.89810181e-01,
          2.29254186e-01, 3.14855516e-01 ]
      - [ 6.90065742e-01, 1.26777276e-01, 8.36776674e-01, 2.70113170e-01,
          8.35058749e-01, 1.58399224e-01, 8.16130161e-01, 1.25856966e-01,
          6.20187283e-01, 1.36360392e-01 ]
      - [ 7.67559290e-01, 7.16416538e-02, 8.74898374e-01, 2.10667878e-01,
          8.75303209e-01, 1.18919574e-01, 8.65404546e-01, 7.30289072e-02,
          5.11841059e-01, 1.05413698e-01 ]
      - [ 7.38790572e-01, 7.06555545e-02, 8.73996735e-01, 2.36784860e-01,
          8.72993231e-01, 1.36400178e-01, 8.47418606e-01, 7.22913072e-02,
          5.60174704e-01, 1.22274965e-01 ]
      - [ 4.41768348e-01, 3.37886751e-01, 5.59312940e-01, 5.58291793e-01,
          5.63470662e-01, 3.29925776e-01, 6.36942804e-01, 3.42196703e-01,
          6.62963569e-01, 3.03446084e-01 ]
      - [ 9.62549865e-01, 2.98367497e-02, 9.75534678e-01, 3.88250798e-02,
          9.75353777e-01, 1.66072473e-02, 9.79441702e-01, 2.91598160e-02,
          4.86322403e-01, 1.33150108e-02 ]
      - [ 8.42187047e-01, 6.28204346e-02, 9.09769058e-01, 1.46855205e-01,
          9.09989774e-01, 7.76833221e-02, 9.10563350e-01, 6.33113384e-02,
          5.60264826e-01, 6.75832778e-02 ]
      - [ 3.90478939e-01, 4.91178125e-01, 5.29630899e-01, 5.85602462e-01,
          5.29196322e-01, 3.47424686e-01, 5.94143629e-01, 4.77463752e-01,
          5.11604011e-01, 2.98839450e-01 ]
      - [ 6.17130637e-01, 7.65866488e-02, 7.98464298e-01, 3.44669878e-01,
          7.98616230e-01, 2.11443424e-01, 7.67314553e-01, 8.19205120e-02,
          5.69567382e-01, 1.92770988e-01 ]
      - [ 6.36671841e-01, 9.41891447e-02, 8.13889682e-01, 3.27813923e-01,
          8.13708425e-01, 2.01250866e-01, 7.80583560e-01, 9.61138085e-02,
          5.47388673e-01, 1.85424730e-01 ]
      - [ 6.47922933e-01, 6.82155862e-02, 8.08018267e-01, 3.27233791e-01,
          8.09537828e-01, 1.94697276e-01, 7.88316011e-01, 7.37237185e-02,
          5.76679170e-01, 1.79852903e-01 ]
      - [ 4.58850473e-01, 8.57704207e-02, 7.06522524e-01, 4.84534413e-01,
          7.10582197e-01, 3.37115020e-01, 6.49290919e-01, 9.58987847e-02,
          5.31180978e-01, 3.26614350e-01 ]
      - [ 7.45565236e-01, 3.55722755e-02, 9.29907143e-01, 2.17363641e-01,
          9.29579794e-01, 1.36173189e-01, 8.51621091e-01, 3.68049368e-02,
          5.98482668e-01, 1.25305757e-01 ]
      - [ 5.01268923e-01, 9.58514065e-02, 6.94107175e-01, 4.80005860e-01,
          6.97909057e-01, 3.04927260e-01, 6.83542430e-01, 1.07172288e-01,
          5.78389704e-01, 2.95520186e-01 ]
      - [ 5.13013899e-01, 6.42334223e-02, 7.61772335e-01, 4.37159210e-01,
          7.63600230e-01, 2.94828683e-01, 6.91900730e-01, 7.22850412e-02,
          7.82067895e-01, 2.83796728e-01 ]
      - [ 5.20509899e-01, 9.00911316e-02, 7.26734936e-01, 4.56632942e-01,
          7.28695512e-01, 2.89307833e-01, 6.98089838e-01, 9.95721892e-02,
          5.85729241e-01, 2.78755426e-01 ]
      - [ 8.20410192e-01, 8.36777985e-02, 9.02480066e-01, 1.60084158e-01,
          9.01799142e-01, 8.69149417e-02, 8.97577167e-01, 8.32356736e-02,
          5.44891655e-01, 7.37430453e-02 ]
      - [ 5.02524078e-01, 1.11489572e-01, 7.02731490e-01, 4.76192564e-01,
          7.04642594e-01, 3.01341802e-01, 6.84620380e-01, 1.20317280e-01,
          6.04376376e-01, 2.89208204e-01 ]
      - [ 8.73137116e-01, 7.12356642e-02, 9.27945375e-01, 1.15198053e-01,
          9.27579582e-01, 5.94003312e-02, 9.28701878e-01, 7.00510144e-02,
          4.62394118e-01, 4.93903607e-02 ]
      - [ 7.02104807e-01, 1.34738877e-01, 8.31154346e-01, 2.51773685e-01,
          8.30334067e-01, 1.48944005e-01, 8.23939443e-01, 1.34264246e-01,
          4.24602240e-01, 1.25847742e-01 ]
      - [ 7.72954822e-01, 1.14389777e-01, 8.27835143e-01, 2.36616731e-01,
          8.30019951e-01, 1.18110433e-01, 8.68776381e-01, 1.17988266e-01,
          5.04378080e-01, 1.06807336e-01 ]
      - [ 6.60650551e-01, 1.52545556e-01, 7.64726102e-01, 3.35040569e-01,
          7.66924500e-01, 1.81745738e-01, 7.96859145e-01, 1.56675562e-01,
          3.87071550e-01, 1.63481206e-01 ]
      - [ 5.91243088e-01, 1.36148199e-01, 7.92914212e-01, 3.75092953e-01,
          7.93191373e-01, 2.30542794e-01, 7.49283969e-01, 1.39195055e-01,
          4.71129417e-01, 2.13975772e-01 ]
      - [ 1.65979922e-01, 3.87472332e-01, 3.55393767e-01, 8.24933052e-01,
          3.61836016e-01, 5.70139110e-01, 3.63901287e-01, 3.96149933e-01,
          5.67088664e-01, 5.13753295e-01 ]
      - [ 5.24606228e-01, 1.13467276e-01, 7.24586427e-01, 4.27784413e-01,
          7.26071417e-01, 2.67835021e-01, 7.01087475e-01, 1.20821774e-01,
          3.94363523e-01, 2.40444601e-01 ]
      - [ 5.86984873e-01, 1.38038099e-01, 6.86844289e-01, 4.10346001e-01,
          6.94582582e-01, 2.31260851e-01, 7.46444464e-01, 1.49749398e-01,
          4.11218703e-01, 2.12143525e-01 ]
      - [ 7.41261959e-01, 1.23998962e-01, 8.34158301e-01, 2.42816433e-01,
          8.35281193e-01, 1.31450877e-01, 8.48994255e-01, 1.24995500e-01,
          5.41089833e-01, 1.15102157e-01 ]
      - [ 6.84760392e-01, 1.19216003e-01, 8.08624685e-01, 2.91688114e-01,
          8.10017705e-01, 1.65829435e-01, 8.12726021e-01, 1.21811278e-01,
          5.48300564e-01, 1.47669807e-01 ]
      - [ 4.55511332e-01, 4.44963276e-02, 6.98564887e-01, 5.10762870e-01,
          7.02753663e-01, 3.43756825e-01, 6.47851050e-01, 5.78628145e-02,
          5.13704598e-01, 3.37214768e-01 ]
      - [ 6.94007397e-01, 1.16091080e-01, 8.15301239e-01, 2.87062496e-01,
          8.17045748e-01, 1.59874380e-01, 8.18770349e-01, 1.18995860e-01,
          3.93805325e-01, 1.41464904e-01 ]
      - [ 4.64945823e-01, 1.30891055e-01, 6.15633011e-01, 5.21050811e-01,
          6.25759065e-01, 3.20596814e-01, 6.55559063e-01, 1.45267755e-01,
          6.47905469e-01, 3.00145537e-01 ]
      - [ 6.44493639e-01, 1.31212726e-01, 7.89135158e-01, 3.35927218e-01,
          7.89378524e-01, 1.92597553e-01, 7.85993159e-01, 1.34519622e-01,
          5.33179462e-01, 1.74514428e-01 ]
      - [ 5.50950706e-01, 9.19234902e-02, 7.40877211e-01, 4.25021291e-01,
          7.43085384e-01, 2.61536837e-01, 7.20595717e-01, 1.00046761e-01,
          5.71424961e-01, 2.46101484e-01 ]
      - [ 7.91768551e-01, 4.31854315e-02, 8.98474157e-01, 1.97757542e-01,
          8.99689794e-01, 1.11860439e-01, 8.80282640e-01, 4.61470969e-02,
          4.86367375e-01, 1.04864441e-01 ]
      - [ 3.63492012e-01, 1.47880986e-01, 5.69435239e-01, 6.21877313e-01,
          5.75903893e-01, 3.99639517e-01, 5.70849359e-01, 1.63007468e-01,
          4.04388994e-01, 3.73903424e-01 ]
      - [ 7.97276795e-01, 1.32572010e-01, 8.56677890e-01, 1.96688339e-01,
          8.57408047e-01, 9.84804779e-02, 8.83638918e-01, 1.32067099e-01,
          4.48323429e-01, 8.35633576e-02 ]
      - [ 9.47867334e-01, 4.73593250e-02, 9.64741766e-01, 5.07727526e-02,
          9.64432180e-01, 2.25312207e-02, 9.71273839e-01, 4.60747294e-02,
          3.59658986e-01, 1.74364671e-02 ]
      - [ 9.01782870e-01, 3.31004187e-02, 9.46276307e-01, 9.68706459e-02,
          9.46630836e-01, 4.86863367e-02, 9.45233583e-01, 3.38148586e-02,
          3.89979154e-01, 4.34585363e-02 ]
      - [ 9.38403130e-01, 4.45034765e-02, 9.62227762e-01, 6.57676086e-02,
          9.62104738e-01, 3.10588498e-02, 9.65976715e-01, 4.32683565e-02,
          3.57954532e-01, 2.87510492e-02 ]
      - [ 7.55306125e-01, 8.14075619e-02, 8.72352242e-01, 2.12451890e-01,
          8.72111976e-01, 1.22728169e-01, 8.57738912e-01, 8.27200413e-02,
          3.54750127e-01, 1.05925523e-01 ]
      - [ 7.98665106e-01, 1.44605398e-01, 8.58521223e-01, 1.99394792e-01,
          8.58138740e-01, 9.79831442e-02, 8.84495199e-01, 1.42312825e-01,
          4.27305907e-01, 8.31045657e-02 ]
      - [ 4.26220059e-01, 2.08551437e-01, 7.24608481e-01, 4.95389014e-01,
          7.22186565e-01, 3.35619628e-01, 6.23782873e-01, 2.08889514e-01,
          6.55935764e-01, 3.01249862e-01 ]
      - [ 5.62441587e-01, 1.97975576e-01, 7.42993653e-01, 3.70578796e-01,
          7.41632640e-01, 2.31049761e-01, 7.28691161e-01, 1.97585747e-01,
          8.84229422e-01, 1.96578354e-01 ]
      - [ 7.78068602e-01, 2.88834542e-01, 8.13076437e-01, 2.11422175e-01,
          8.10482323e-01, 9.72337574e-02, 8.71877611e-01, 2.79799998e-01,
          5.79863131e-01, 7.18531907e-02 ]
      - [ 9.28731918e-01, 8.23808312e-02, 9.51727986e-01, 6.58196285e-02,
          9.50565815e-01, 2.96459142e-02, 9.60533679e-01, 7.88003057e-02,
          5.36174357e-01, 2.15965454e-02 ]
      - [ 8.04277897e-01, 7.64951929e-02, 9.00536358e-01, 1.79843515e-01,
          8.99240494e-01, 9.82110873e-02, 8.87872577e-01, 7.62980208e-02,
          4.58499074e-01, 8.61919373e-02 ]
      - [ 9.08821881e-01, 4.13019396e-02, 9.45342600e-01, 9.27633643e-02,
          9.45470393e-01, 4.44968827e-02, 9.49253500e-01, 4.13001403e-02,
          4.96212989e-01, 3.91355939e-02 ]
      - [ 9.55407470e-02, 4.41533893e-01, 3.59484017e-01, 8.87324929e-01,
          3.59166145e-01, 6.57549322e-01, 2.61890441e-01, 4.45739836e-01,
          7.67450809e-01, 5.89445293e-01 ]
      - [ 6.81543112e-01, 2.03514621e-01, 8.08723092e-01, 2.81900883e-01,
          8.06865752e-01, 1.58971742e-01, 8.10526788e-01, 1.99701145e-01,
          3.32592398e-01, 1.33562937e-01 ]
      - [ 6.38621628e-01, 1.19080000e-01, 7.98012495e-01, 3.32017332e-01,
          7.97940016e-01, 1.97147816e-01, 7.82007754e-01, 1.22323424e-01,
          4.31996167e-01, 1.79565489e-01 ]
      - [ 8.91945720e-01, 3.47355567e-02, 9.50858533e-01, 1.03891999e-01,
          9.50999916e-01, 5.36182821e-02, 9.39584553e-01, 3.52086499e-02,
          5.11288881e-01, 4.77600545e-02 ]
      - [ 8.95594299e-01, 3.39496061e-02, 9.57679629e-01, 9.64818895e-02,
          9.56998408e-01, 5.14525436e-02, 9.41679120e-01, 3.37584950e-02,
          5.08996308e-01, 4.55503352e-02 ]
      - [ 8.57523263e-01, 6.98459595e-02, 9.29925263e-01, 1.27138570e-01,
          9.29056287e-01, 6.78936467e-02, 9.19577479e-01, 6.88468367e-02,
          3.94807309e-01, 5.73301762e-02 ]
      - [ 0., 1.17258653e-02, 4.64533925e-01, 1., 4.64674294e-01, 1., 0.,
          3.68359014e-02, 4.27594006e-01, 1. ]
      - [ 7.83717275e-01, 9.31392536e-02, 8.95199120e-01, 1.97703212e-01,
          8.95039380e-01, 1.08487979e-01, 8.75346303e-01, 9.22097266e-02,
          4.62769210e-01, 9.44703296e-02 ]
   decision_functions:
      -
         sv_count: 6
         rho: 2.3260153948051614e+00
         alpha: [ 1.5506600360745927e+02, 3.1250000000000000e+02,
             -1.9374133445920560e+02, -2.8602680029922919e+01,
             -1.3353575654400082e+01, -2.3186841346393061e+02 ]
         index: [ 4, 8, 15, 18, 20, 24 ]
      -
         sv_count: 16
         rho: -1.9121282006972691e+00
         alpha: [ 3.1250000000000000e+02, 1.1909811460048684e+02,
             4.8864136755182599e+01, 3.1250000000000000e+02,
             2.1794154788636578e+02, 3.1250000000000000e+02,
             3.1250000000000000e+02, 1.6246242621124819e+02,
             1.2662813543562963e+01, -3.1250000000000000e+02,
             -3.1250000000000000e+02, -3.1250000000000000e+02,
             -2.2559521757338499e+02, -3.1250000000000000e+02,
             -8.4614224548671430e+01, -2.5081959687478980e+02 ]
         index: [ 1, 3, 4, 6, 7, 8, 9, 12, 13, 31, 34, 37, 38, 42, 46,
             47 ]
      -
         sv_count: 21
         rho: 6.2593890015904137e+00
         alpha: [ 3.1250000000000000e+02, 3.1250000000000000e+02,
             3.1250000000000000e+02, 3.1250000000000000e+02,
             3.1250000000000000e+02, 3.1250000000000000e+02,
             1.2430864542125164e+02, 3.1250000000000000e+02,
             3.1250000000000000e+02, 4.0746486406784634e+01,
             -3.1250000000000000e+02, -2.5124893513165028e+02,
             -3.1250000000000000e+02, -3.1250000000000000e+02,
             -3.1250000000000000e+02, -1.3568181952800904e+02,
             -3.1250000000000000e+02, -8.8482943015763297e+01,
             -3.1250000000000000e+02, -3.1250000000000000e+02,
             -2.1414341526138565e+00 ]
         index: [ 0, 1, 2, 4, 5, 6, 8, 10, 11, 13, 48, 49, 50, 51, 52,
             53, 58, 61, 62, 65, 66 ]
      -
         sv_count: 22
         rho: -1.6700146489889300e+00
         alpha: [ 3.1250000000000000e+02, 1.0645508480323106e+02,
             6.6959428779326984e+01, 3.0851107612188525e+01,
             2.1003585016574629e+01, 3.1250000000000000e+02,
             2.4374710578322225e+02, 3.1250000000000000e+02,
             3.1250000000000000e+02, 1.8430212476862911e+02,
             3.1250000000000000e+02, 3.9156747952068777e+01,
             -1.5287736664979954e+02, -2.2297116825445514e+01,
             -3.2003277181656721e+01, -2.1423738264989953e+02,
             -3.1250000000000000e+02, -3.1250000000000000e+02,
             -3.1250000000000000e+02, -2.7106004140844016e+02,
             -3.1250000000000000e+02, -3.1250000000000000e+02 ]
         index: [ 15, 17, 18, 20, 21, 22, 23, 24, 26, 28, 29, 30, 31, 35,
             36, 39, 40, 41, 43, 44, 45, 46 ]
      -
         sv_count: 22
         rho: 1.0308621664808955e+01
         alpha: [ 1.9889393075786359e+02, 3.1250000000000000e+02,
             8.0147716992220936e+01, 1.5249190565537657e+02,
             3.1250000000000000e+02, 3.1250000000000000e+02,
             9.8744496160928232e+00, 3.4539677573006472e+01,
             1.7039475959572677e+01, 3.6999056986035121e+01,
             9.3647768806226054e+01, 3.1250000000000000e+02,
             -7.3595543234028739e+01, -3.1250000000000000e+02,
             -3.1200716813625775e+01, -6.3908208375459985e+01,
             -2.3514476249312403e+02, -2.1249398014912057e+02,
             -7.2907712810351484e+00, -3.1250000000000000e+02,
             -3.1250000000000000e+02, -3.1250000000000000e+02 ]
         index: [ 14, 15, 16, 17, 18, 19, 20, 22, 24, 25, 27, 29, 54, 55,
             56, 57, 58, 59, 60, 62, 63, 64 ]
      -
         sv_count: 17
         rho: 6.0932298456055003e+00
         alpha: [ 3.1250000000000000e+02, 3.1250000000000000e+02,
             1.4074253381985255e+02, 1.5434139122547296e+02,
             2.4242502400107750e+01, 3.1250000000000000e+02,
             3.1250000000000000e+02, 3.1250000000000000e+02,
             -3.1250000000000000e+02, -2.8756969226709401e+02,
             -1.0080583961051506e+02, -8.4013129183546539e+01,
             -8.6977040385607239e+01, -3.1250000000000000e+02,
             -3.1250000000000000e+02, -7.2460725998670554e+01,
             -3.1250000000000000e+02 ]
         index: [ 31, 32, 33, 35, 36, 39, 42, 46, 48, 52, 53, 54, 55, 58,
             62, 63, 67 ]
