%YAML:1.0
my_svm: !!opencv-ml-svm
   svm_type: C_SVC
   kernel: { type:RBF, gamma:5.0625000000000009e-01 }
   C: 3.1250000000000000e+02
   term_criteria: { epsilon:1.1920928955078125e-07, iterations:1000 }
   var_all: 10
   var_count: 10
   class_count: 4
   class_labels: !!opencv-matrix
      rows: 1
      cols: 4
      dt: i
      data: [ 0, 1, 2, 3 ]
   sv_total: 72
   support_vectors:
      - [ 3.51283908e-01, 2.24285096e-01, 5.71613908e-01, 6.03725970e-01,
          5.74769676e-01, 3.96399558e-01, 5.59738398e-01, 2.31444180e-01,
          2.58460730e-01, 3.58579904e-01 ]
      - [ 8.72680187e-01, 6.34482056e-02, 9.22553897e-01, 1.22205473e-01,
          9.22595382e-01, 6.09019846e-02, 9.28444624e-01, 6.36105537e-02,
          4.07770813e-01, 5.18640019e-02 ]
      - [ 8.43796670e-01, 6.55069202e-02, 9.02293324e-01, 1.51699126e-01,
          9.03175473e-01, 7.71623701e-02, 9.11518753e-01, 6.68556616e-02,
          4.13355291e-01, 6.75173551e-02 ]
      - [ 6.67898536e-01, 1.10583015e-01, 7.86693454e-01, 3.15668553e-01,
          7.89668620e-01, 1.78161711e-01, 8.01652968e-01, 1.15707956e-01,
          3.55917394e-01, 1.60968468e-01 ]
      - [ 5.04477978e-01, 1.15543224e-01, 6.66230261e-01, 4.79536742e-01,
          6.72920346e-01, 2.92000294e-01, 6.86116993e-01, 1.27485603e-01,
          3.43289912e-01, 2.73094386e-01 ]
      - [ 7.93055475e-01, 8.35740566e-02, 8.77157331e-01, 1.95477948e-01,
          8.78110468e-01, 1.04124703e-01, 8.81073296e-01, 8.49290267e-02,
          3.59710366e-01, 9.14185271e-02 ]
      - [ 7.46491492e-01, 1.88116387e-01, 7.91743577e-01, 2.58893043e-01,
          7.93433487e-01, 1.26061589e-01, 8.52313697e-01, 1.89366341e-01,
          3.21210086e-01, 1.07833475e-01 ]
      - [ 5.13397098e-01, 8.63116831e-02, 6.97265744e-01, 4.68031883e-01,
          7.03536689e-01, 2.93900013e-01, 6.92762613e-01, 9.85172763e-02,
          4.95447755e-01, 2.82702774e-01 ]
      - [ 8.04647744e-01, 1.32373884e-01, 8.49778414e-01, 1.97212264e-01,
          8.51224124e-01, 9.52024758e-02, 8.88123155e-01, 1.33019716e-01,
          3.77567798e-01, 8.11421275e-02 ]
      - [ 8.41609180e-01, 3.92763950e-02, 9.19955611e-01, 1.49597883e-01,
          9.19958234e-01, 8.08355436e-02, 9.10222590e-01, 4.07337174e-02,
          3.86435419e-01, 7.31074810e-02 ]
      - [ 8.74906600e-01, 6.97079375e-02, 9.21949506e-01, 1.20318338e-01,
          9.21912611e-01, 5.92253953e-02, 9.29737449e-01, 6.95252940e-02,
          4.12854105e-01, 4.99015599e-02 ]
      - [ 8.21747303e-01, 8.29065070e-02, 8.92195165e-01, 1.66161239e-01,
          8.92299652e-01, 8.68267491e-02, 8.98392260e-01, 8.33710134e-02,
          3.75545561e-01, 7.42411390e-02 ]
      - [ 4.34525460e-01, 2.37986073e-01, 6.47198558e-01, 5.20080090e-01,
          6.46511734e-01, 3.32344532e-01, 6.31030977e-01, 2.40142331e-01,
          2.08077416e-01, 3.01647097e-01 ]
      - [ 8.72680187e-01, 6.34482056e-02, 9.22553897e-01, 1.22205473e-01,
          9.22595382e-01, 6.09019846e-02, 9.28444624e-01, 6.36105537e-02,
          4.07770813e-01, 5.18640019e-02 ]
      - [ 8.43223929e-01, 5.77355847e-02, 9.02986050e-01, 1.54382825e-01,
          9.04106915e-01, 7.88828135e-02, 9.11183536e-01, 5.94187379e-02,
          3.85159850e-01, 7.04314783e-02 ]
      - [ 8.36661398e-01, 8.03972632e-02, 9.11744893e-01, 1.44010350e-01,
          9.10997510e-01, 7.81907812e-02, 9.07262743e-01, 7.94853717e-02,
          5.54983497e-01, 6.59683645e-02 ]
      - [ 8.22488070e-01, 8.51593316e-02, 8.96863699e-01, 1.63125023e-01,
          8.96579325e-01, 8.60431492e-02, 8.98834348e-01, 8.48698765e-02,
          5.82701683e-01, 7.31278583e-02 ]
      - [ 8.20410192e-01, 8.36777985e-02, 9.02480066e-01, 1.60084158e-01,
          9.01799142e-01, 8.69149417e-02, 8.97577167e-01, 8.32356736e-02,
          5.44891655e-01, 7.37430453e-02 ]
      - [ 6.96850657e-01, 1.08160466e-01, 8.08333576e-01, 2.87868798e-01,
          8.10303450e-01, 1.59736559e-01, 8.20625544e-01, 1.11719683e-01,
          5.79307735e-01, 1.42820060e-01 ]
      - [ 6.17130637e-01, 7.65866488e-02, 7.98464298e-01, 3.44669878e-01,
          7.98616230e-01, 2.11443424e-01, 7.67314553e-01, 8.19205120e-02,
          5.69567382e-01, 1.92770988e-01 ]
      - [ 5.03298640e-01, 1.23621024e-01, 6.82442784e-01, 4.80572492e-01,
          6.86053813e-01, 3.00623745e-01, 6.85233951e-01, 1.32834613e-01,
          6.16889477e-01, 2.88507313e-01 ]
      - [ 5.20509899e-01, 9.00911316e-02, 7.26734936e-01, 4.56632942e-01,
          7.28695512e-01, 2.89307833e-01, 6.98089838e-01, 9.95721892e-02,
          5.85729241e-01, 2.78755426e-01 ]
      - [ 5.02524078e-01, 1.11489572e-01, 7.02731490e-01, 4.76192564e-01,
          7.04642594e-01, 3.01341802e-01, 6.84620380e-01, 1.20317280e-01,
          6.04376376e-01, 2.89208204e-01 ]
      - [ 4.73191798e-01, 9.84997675e-02, 7.24315345e-01, 4.90670025e-01,
          7.24363506e-01, 3.24656487e-01, 6.61754787e-01, 1.04118191e-01,
          7.02814043e-01, 3.13096046e-01 ]
      - [ 6.36671841e-01, 9.41891447e-02, 8.13889682e-01, 3.27813923e-01,
          8.13708425e-01, 2.01250866e-01, 7.80583560e-01, 9.61138085e-02,
          5.47388673e-01, 1.85424730e-01 ]
      - [ 5.01268923e-01, 9.58514065e-02, 6.94107175e-01, 4.80005860e-01,
          6.97909057e-01, 3.04927260e-01, 6.83542430e-01, 1.07172288e-01,
          5.78389704e-01, 2.95520186e-01 ]
      - [ 3.90478939e-01, 4.91178125e-01, 5.29630899e-01, 5.85602462e-01,
          5.29196322e-01, 3.47424686e-01, 5.94143629e-01, 4.77463752e-01,
          5.11604011e-01, 2.98839450e-01 ]
      - [ 9.62549865e-01, 2.98367497e-02, 9.75534678e-01, 3.88250798e-02,
          9.75353777e-01, 1.66072473e-02, 9.79441702e-01, 2.91598160e-02,
          4.86322403e-01, 1.33150108e-02 ]
      - [ 7.72954822e-01, 1.14389777e-01, 8.27835143e-01, 2.36616731e-01,
          8.30019951e-01, 1.18110433e-01, 8.68776381e-01, 1.17988266e-01,
          5.04378080e-01, 1.06807336e-01 ]
      - [ 5.67344308e-01, 1.46460861e-01, 7.14088619e-01, 4.18425858e-01,
          7.18530774e-01, 2.47498572e-01, 7.32399285e-01, 1.54013231e-01,
          5.58422208e-01, 2.30840370e-01 ]
      - [ 6.60650551e-01, 1.52545556e-01, 7.64726102e-01, 3.35040569e-01,
          7.66924500e-01, 1.81745738e-01, 7.96859145e-01, 1.56675562e-01,
          3.87071550e-01, 1.63481206e-01 ]
      - [ 4.72392619e-01, 9.65600014e-02, 6.20598733e-01, 5.29643476e-01,
          6.28452957e-01, 3.32913667e-01, 6.61441922e-01, 1.16371453e-01,
          5.87668002e-01, 3.28444511e-01 ]
      - [ 6.84760392e-01, 1.19216003e-01, 8.08624685e-01, 2.91688114e-01,
          8.10017705e-01, 1.65829435e-01, 8.12726021e-01, 1.21811278e-01,
          5.48300564e-01, 1.47669807e-01 ]
      - [ 6.44493639e-01, 1.31212726e-01, 7.89135158e-01, 3.35927218e-01,
          7.89378524e-01, 1.92597553e-01, 7.85993159e-01, 1.34519622e-01,
          5.33179462e-01, 1.74514428e-01 ]
      - [ 7.02104807e-01, 1.34738877e-01, 8.31154346e-01, 2.51773685e-01,
          8.30334067e-01, 1.48944005e-01, 8.23939443e-01, 1.34264246e-01,
          4.24602240e-01, 1.25847742e-01 ]
      - [ 6.94007397e-01, 1.16091080e-01, 8.15301239e-01, 2.87062496e-01,
          8.17045748e-01, 1.59874380e-01, 8.18770349e-01, 1.18995860e-01,
          3.93805325e-01, 1.41464904e-01 ]
      - [ 5.71157873e-01, 1.04807347e-01, 8.02411973e-01, 3.87334436e-01,
          8.03484797e-01, 2.43179634e-01, 7.35051751e-01, 1.08693771e-01,
          5.02454579e-01, 2.24515885e-01 ]
      - [ 8.73137116e-01, 7.12356642e-02, 9.27945375e-01, 1.15198053e-01,
          9.27579582e-01, 5.94003312e-02, 9.28701878e-01, 7.00510144e-02,
          4.62394118e-01, 4.93903607e-02 ]
      - [ 8.83456886e-01, 3.57343070e-02, 9.41965163e-01, 1.08745679e-01,
          9.41893101e-01, 5.70866428e-02, 9.34690535e-01, 3.63161005e-02,
          4.29160386e-01, 4.99791354e-02 ]
      - [ 5.50950706e-01, 9.19234902e-02, 7.40877211e-01, 4.25021291e-01,
          7.43085384e-01, 2.61536837e-01, 7.20595717e-01, 1.00046761e-01,
          5.71424961e-01, 2.46101484e-01 ]
      - [ 5.46114624e-01, 1.78236291e-01, 6.71732128e-01, 4.49719340e-01,
          6.77145481e-01, 2.59598076e-01, 7.17124760e-01, 1.86341822e-01,
          3.56985688e-01, 2.40024492e-01 ]
      - [ 7.91768551e-01, 4.31854315e-02, 8.98474157e-01, 1.97757542e-01,
          8.99689794e-01, 1.11860439e-01, 8.80282640e-01, 4.61470969e-02,
          4.86367375e-01, 1.04864441e-01 ]
      - [ 6.91187680e-01, 1.44507706e-01, 7.92596936e-01, 2.97159076e-01,
          7.94393241e-01, 1.60684973e-01, 8.16953063e-01, 1.46975026e-01,
          4.79717642e-01, 1.41606957e-01 ]
      - [ 4.14369553e-01, 2.05193564e-01, 6.34178758e-01, 5.45156658e-01,
          6.34931326e-01, 3.48125875e-01, 6.14338934e-01, 2.10988209e-01,
          4.49706793e-01, 3.16490173e-01 ]
      - [ 1.65979922e-01, 3.87472332e-01, 3.55393767e-01, 8.24933052e-01,
          3.61836016e-01, 5.70139110e-01, 3.63901287e-01, 3.96149933e-01,
          5.67088664e-01, 5.13753295e-01 ]
      - [ 7.00720549e-01, 1.09597825e-01, 8.23678613e-01, 2.68605500e-01,
          8.24457765e-01, 1.53660059e-01, 8.23090911e-01, 1.12070389e-01,
          4.15071726e-01, 1.33645296e-01 ]
      - [ 5.91243088e-01, 1.36148199e-01, 7.92914212e-01, 3.75092953e-01,
          7.93191373e-01, 2.30542794e-01, 7.49283969e-01, 1.39195055e-01,
          4.71129417e-01, 2.13975772e-01 ]
      - [ 3.63492012e-01, 1.47880986e-01, 5.69435239e-01, 6.21877313e-01,
          5.75903893e-01, 3.99639517e-01, 5.70849359e-01, 1.63007468e-01,
          4.04388994e-01, 3.73903424e-01 ]
      - [ 4.64945823e-01, 1.30891055e-01, 6.15633011e-01, 5.21050811e-01,
          6.25759065e-01, 3.20596814e-01, 6.55559063e-01, 1.45267755e-01,
          6.47905469e-01, 3.00145537e-01 ]
      - [ 7.97276795e-01, 1.32572010e-01, 8.56677890e-01, 1.96688339e-01,
          8.57408047e-01, 9.84804779e-02, 8.83638918e-01, 1.32067099e-01,
          4.48323429e-01, 8.35633576e-02 ]
      - [ 8.95594299e-01, 3.39496061e-02, 9.57679629e-01, 9.64818895e-02,
          9.56998408e-01, 5.14525436e-02, 9.41679120e-01, 3.37584950e-02,
          5.08996308e-01, 4.55503352e-02 ]
      - [ 9.01782870e-01, 3.31004187e-02, 9.46276307e-01, 9.68706459e-02,
          9.46630836e-01, 4.86863367e-02, 9.45233583e-01, 3.38148586e-02,
          3.89979154e-01, 4.34585363e-02 ]
      - [ 6.38621628e-01, 1.19080000e-01, 7.98012495e-01, 3.32017332e-01,
          7.97940016e-01, 1.97147816e-01, 7.82007754e-01, 1.22323424e-01,
          4.31996167e-01, 1.79565489e-01 ]
      - [ 8.04277897e-01, 7.64951929e-02, 9.00536358e-01, 1.79843515e-01,
          8.99240494e-01, 9.82110873e-02, 8.87872577e-01, 7.62980208e-02,
          4.58499074e-01, 8.61919373e-02 ]
      - [ 9.62042689e-01, 1.48065398e-02, 9.80924129e-01, 3.97445373e-02,
          9.80909526e-01, 1.90939419e-02, 9.79161084e-01, 1.47590516e-02,
          5.41317523e-01, 1.76875535e-02 ]
      - [ 8.57523263e-01, 6.98459595e-02, 9.29925263e-01, 1.27138570e-01,
          9.29056287e-01, 6.78936467e-02, 9.19577479e-01, 6.88468367e-02,
          3.94807309e-01, 5.73301762e-02 ]
      - [ 4.26220059e-01, 2.08551437e-01, 7.24608481e-01, 4.95389014e-01,
          7.22186565e-01, 3.35619628e-01, 6.23782873e-01, 2.08889514e-01,
          6.55935764e-01, 3.01249862e-01 ]
      - [ 8.89852464e-01, 5.53101003e-02, 9.30788696e-01, 1.12796299e-01,
          9.31043446e-01, 5.43127246e-02, 9.38387513e-01, 5.57362884e-02,
          4.93893355e-01, 4.81520854e-02 ]
      - [ 0., 1.17258653e-02, 4.64533925e-01, 1., 4.64674294e-01, 1., 0.,
          3.68359014e-02, 4.27594006e-01, 1. ]
      - [ 9.08214331e-01, 5.62540479e-02, 9.50820386e-01, 8.57406259e-02,
          9.50448036e-01, 4.25132625e-02, 9.48892713e-01, 5.53041659e-02,
          4.03485924e-01, 3.53833325e-02 ]
      - [ 6.96299434e-01, 1.25325441e-01, 7.91179299e-01, 2.94087112e-01,
          7.93963552e-01, 1.61233872e-01, 8.20288122e-01, 1.28967077e-01,
          3.25546354e-01, 1.45249411e-01 ]
      - [ 8.91385257e-01, 4.23089378e-02, 9.49760139e-01, 9.61228535e-02,
          9.49274480e-01, 5.97704425e-02, 9.39231575e-01, 4.19869460e-02,
          3.78741115e-01, 5.98628782e-02 ]
      - [ 8.57814252e-01, 7.58644864e-02, 9.12020028e-01, 1.41536132e-01,
          9.12308455e-01, 7.05499798e-02, 9.19770122e-01, 7.61741623e-02,
          4.72263664e-01, 6.25709072e-02 ]
      - [ 7.83717275e-01, 9.31392536e-02, 8.95199120e-01, 1.97703212e-01,
          8.95039380e-01, 1.08487979e-01, 8.75346303e-01, 9.22097266e-02,
          4.62769210e-01, 9.44703296e-02 ]
      - [ 9.18194950e-01, 3.80366184e-02, 9.57735896e-01, 7.75706470e-02,
          9.57428098e-01, 3.97111513e-02, 9.54576254e-01, 3.78267951e-02,
          5.26352823e-01, 3.50794829e-02 ]
      - [ 7.98665106e-01, 1.44605398e-01, 8.58521223e-01, 1.99394792e-01,
          8.58138740e-01, 9.79831442e-02, 8.84495199e-01, 1.42312825e-01,
          4.27305907e-01, 8.31045657e-02 ]
      - [ 7.55306125e-01, 8.14075619e-02, 8.72352242e-01, 2.12451890e-01,
          8.72111976e-01, 1.22728169e-01, 8.57738912e-01, 8.27200413e-02,
          3.54750127e-01, 1.05925523e-01 ]
      - [ 4.45947707e-01, 3.85611951e-01, 4.92965013e-01, 5.80456138e-01,
          4.98961717e-01, 3.15752089e-01, 6.40529513e-01, 3.98331434e-01,
          2.25446269e-01, 2.78534979e-01 ]
      - [ 8.70453715e-01, 3.52881774e-02, 9.25017715e-01, 1.29935130e-01,
          9.26139951e-01, 6.68715015e-02, 9.27159607e-01, 3.71194594e-02,
          5.54479420e-01, 6.17810190e-02 ]
      - [ 6.21935010e-01, 3.98411125e-01, 7.14841664e-01, 3.48075360e-01,
          7.10691273e-01, 1.81710064e-01, 7.70602822e-01, 3.83850753e-01,
          6.71068549e-01, 1.41593233e-01 ]
      - [ 9.55407470e-02, 4.41533893e-01, 3.59484017e-01, 8.87324929e-01,
          3.59166145e-01, 6.57549322e-01, 2.61890441e-01, 4.45739836e-01,
          7.67450809e-01, 5.89445293e-01 ]
      - [ 9.47867334e-01, 4.73593250e-02, 9.64741766e-01, 5.07727526e-02,
          9.64432180e-01, 2.25312207e-02, 9.71273839e-01, 4.60747294e-02,
          3.59658986e-01, 1.74364671e-02 ]
   decision_functions:
      -
         sv_count: 6
         rho: 1.4704636903526207e+00
         alpha: [ 2.3730961834418247e+02, 7.2302852161303193e+01,
             -7.2964933739343522e+01, -1.8793677255068525e+02,
             -3.6307789298135291e+00, -4.5079985285643161e+01 ]
         index: [ 7, 10, 24, 25, 26, 27 ]
      -
         sv_count: 16
         rho: -2.5648659097828106e+00
         alpha: [ 1.9188289750490577e+02, 4.1920238829325797e+01,
             3.1250000000000000e+02, 3.1250000000000000e+02,
             1.6537710707548717e+02, 2.2713344161512918e+01,
             3.1250000000000000e+02, 3.1250000000000000e+02,
             3.1250000000000000e+02, -1.6556976214724608e+02,
             -3.1250000000000000e+02, -3.1250000000000000e+02,
             -3.1250000000000000e+02, -3.1250000000000000e+02,
             -3.1250000000000000e+02, -2.5632382542398562e+02 ]
         index: [ 0, 1, 2, 3, 4, 6, 7, 8, 10, 30, 35, 37, 38, 40, 45, 47 ]
      -
         sv_count: 25
         rho: 6.0909110455756537e+00
         alpha: [ 3.1250000000000000e+02, 3.1250000000000000e+02,
             2.4161728616210252e+02, 1.9413843960564441e+02,
             1.6442454002824084e+02, 3.1250000000000000e+02,
             3.1250000000000000e+02, 3.1250000000000000e+02,
             3.1250000000000000e+02, 8.8537238581590898e+01,
             3.1250000000000000e+02, 3.1250000000000000e+02,
             -3.1250000000000000e+02, -3.1250000000000000e+02,
             -3.1250000000000000e+02, -1.9030392227981841e+02,
             -3.1250000000000000e+02, -5.1922118687466128e+00,
             -1.4239896147086253e+02, -3.1250000000000000e+02,
             -3.1250000000000000e+02, -3.1250000000000000e+02,
             -3.1250000000000000e+02, -3.8322408758151262e+01,
             -3.1250000000000000e+02 ]
         index: [ 1, 2, 5, 6, 7, 8, 9, 10, 11, 12, 13, 14, 49, 51, 52,
             53, 55, 58, 59, 60, 61, 65, 66, 67, 71 ]
      -
         sv_count: 18
         rho: -5.5324976160546395e+00
         alpha: [ 5.2777184577930420e+01, 3.1250000000000000e+02,
             3.1250000000000000e+02, 2.5580305461096665e+02,
             3.1250000000000000e+02, 3.1250000000000000e+02,
             3.1250000000000000e+02, 1.0144105860326339e+02,
             9.2190083669269939e+01, -3.1250000000000000e+02,
             -1.1112813111184370e+02, -3.1250000000000000e+02,
             -7.7410339252291209e+01, -2.8713136495604539e+02,
             -3.1250000000000000e+02, -3.1250000000000000e+02,
             -2.6541546141250034e+01, -3.1250000000000000e+02 ]
         index: [ 17, 18, 19, 20, 21, 24, 25, 26, 27, 29, 31, 32, 33, 36,
             39, 41, 44, 48 ]
      -
         sv_count: 21
         rho: 9.3559873706682044e+00
         alpha: [ 3.1250000000000000e+02, 3.0755269474805755e+02,
             3.1250000000000000e+02, 9.2642062495932525e+00,
             2.1395184788624917e+01, 2.4645717431541809e+02,
             8.6761683791983842e+01, 2.6283976607680773e+02,
             3.1250000000000000e+02, -2.6573073246370393e+02,
             -1.6334937909527289e+02, -1.3809646497967225e+02,
             -4.7524178441581064e+01, -2.4862861335273524e+02,
             -5.9540207010050736e+01, -3.8223200037922629e+00,
             -3.1250000000000000e+02, -9.2319995674927839e+01,
             -3.1250000000000000e+02, -2.0892727996197996e+02,
             -1.8831538986769242e+01 ]
         index: [ 15, 16, 17, 22, 23, 24, 25, 26, 27, 50, 52, 53, 54, 56,
             57, 63, 64, 67, 68, 69, 70 ]
      -
         sv_count: 24
         rho: 7.5917434451341874e+00
         alpha: [ 3.1250000000000000e+02, 4.2427691430908055e+01,
             3.1250000000000000e+02, 3.1250000000000000e+02,
             3.1250000000000000e+02, 3.1250000000000000e+02,
             3.1250000000000000e+02, 1.4426158000652262e+02,
             1.3839218099621647e-01, 8.7270491409218337e+01,
             3.1250000000000000e+02, 2.2950778412637322e+02,
             -3.1250000000000000e+02, -3.1250000000000000e+02,
             -3.1250000000000000e+02, -1.9442343140560914e+02,
             -3.1250000000000000e+02, -1.8438926738940006e+02,
             -3.1250000000000000e+02, -5.2414786225534449e+01,
             -3.1250000000000000e+02, -4.2998682896988278e+01,
             -3.1250000000000000e+02, -2.9379771236486722e+01 ]
         index: [ 28, 30, 34, 35, 37, 38, 41, 42, 43, 44, 45, 46, 49, 52,
             53, 56, 60, 62, 63, 65, 66, 67, 68, 70 ]
