%YAML:1.0
my_svm: !!opencv-ml-svm
   svm_type: C_SVC
   kernel: { type:RBF, gamma:5.0625000000000009e-01 }
   C: 3.1250000000000000e+02
   term_criteria: { epsilon:1.1920928955078125e-07, iterations:1000 }
   var_all: 10
   var_count: 10
   class_count: 4
   class_labels: !!opencv-matrix
      rows: 1
      cols: 4
      dt: i
      data: [ 0, 1, 2, 3 ]
   sv_total: 67
   support_vectors:
      - [ 8.72680187e-01, 6.34482056e-02, 9.22553897e-01, 1.22205473e-01,
          9.22595382e-01, 6.09019846e-02, 9.28444624e-01, 6.36105537e-02,
          4.07770813e-01, 5.18640019e-02 ]
      - [ 3.51283908e-01, 2.24285096e-01, 5.71613908e-01, 6.03725970e-01,
          5.74769676e-01, 3.96399558e-01, 5.59738398e-01, 2.31444180e-01,
          2.58460730e-01, 3.58579904e-01 ]
      - [ 8.43223929e-01, 5.77355847e-02, 9.02986050e-01, 1.54382825e-01,
          9.04106915e-01, 7.88828135e-02, 9.11183536e-01, 5.94187379e-02,
          3.85159850e-01, 7.04314783e-02 ]
      - [ 7.46491492e-01, 1.88116387e-01, 7.91743577e-01, 2.58893043e-01,
          7.93433487e-01, 1.26061589e-01, 8.52313697e-01, 1.89366341e-01,
          3.21210086e-01, 1.07833475e-01 ]
      - [ 8.43796670e-01, 6.55069202e-02, 9.02293324e-01, 1.51699126e-01,
          9.03175473e-01, 7.71623701e-02, 9.11518753e-01, 6.68556616e-02,
          4.13355291e-01, 6.75173551e-02 ]
      - [ 5.04477978e-01, 1.15543224e-01, 6.66230261e-01, 4.79536742e-01,
          6.72920346e-01, 2.92000294e-01, 6.86116993e-01, 1.27485603e-01,
          3.43289912e-01, 2.73094386e-01 ]
      - [ 6.67898536e-01, 1.10583015e-01, 7.86693454e-01, 3.15668553e-01,
          7.89668620e-01, 1.78161711e-01, 8.01652968e-01, 1.15707956e-01,
          3.55917394e-01, 1.60968468e-01 ]
      - [ 5.04477978e-01, 1.15543224e-01, 6.66230261e-01, 4.79536742e-01,
          6.72920346e-01, 2.92000294e-01, 6.86116993e-01, 1.27485603e-01,
          3.43289912e-01, 2.73094386e-01 ]
      - [ 8.04647744e-01, 1.32373884e-01, 8.49778414e-01, 1.97212264e-01,
          8.51224124e-01, 9.52024758e-02, 8.88123155e-01, 1.33019716e-01,
          3.77567798e-01, 8.11421275e-02 ]
      - [ 8.41609180e-01, 3.92763950e-02, 9.19955611e-01, 1.49597883e-01,
          9.19958234e-01, 8.08355436e-02, 9.10222590e-01, 4.07337174e-02,
          3.86435419e-01, 7.31074810e-02 ]
      - [ 8.27552676e-01, 8.65994468e-02, 8.97727132e-01, 1.59487322e-01,
          8.97499800e-01, 8.30851346e-02, 9.01858747e-01, 8.64445940e-02,
          3.74557942e-01, 7.02777877e-02 ]
      - [ 8.21747303e-01, 8.29065070e-02, 8.92195165e-01, 1.66161239e-01,
          8.92299652e-01, 8.68267491e-02, 8.98392260e-01, 8.33710134e-02,
          3.75545561e-01, 7.42411390e-02 ]
      - [ 8.74906600e-01, 6.97079375e-02, 9.21949506e-01, 1.20318338e-01,
          9.21912611e-01, 5.92253953e-02, 9.29737449e-01, 6.95252940e-02,
          4.12854105e-01, 4.99015599e-02 ]
      - [ 6.15448236e-01, 1.07279569e-01, 7.41142273e-01, 3.75202566e-01,
          7.46501267e-01, 2.16970533e-01, 7.66244411e-01, 1.15761884e-01,
          3.49657804e-01, 2.02735007e-01 ]
      - [ 5.13397098e-01, 8.63116831e-02, 6.97265744e-01, 4.68031883e-01,
          7.03536689e-01, 2.93900013e-01, 6.92762613e-01, 9.85172763e-02,
          4.95447755e-01, 2.82702774e-01 ]
      - [ 4.73191798e-01, 9.84997675e-02, 7.24315345e-01, 4.90670025e-01,
          7.24363506e-01, 3.24656487e-01, 6.61754787e-01, 1.04118191e-01,
          7.02814043e-01, 3.13096046e-01 ]
      - [ 8.22488070e-01, 8.51593316e-02, 8.96863699e-01, 1.63125023e-01,
          8.96579325e-01, 8.60431492e-02, 8.98834348e-01, 8.48698765e-02,
          5.82701683e-01, 7.31278583e-02 ]
      - [ 7.44465828e-01, 6.59607500e-02, 8.24680567e-01, 2.57286429e-01,
          8.28521430e-01, 1.46105990e-01, 8.51014197e-01, 7.35720247e-02,
          5.80462813e-01, 1.44360110e-01 ]
      - [ 5.01268923e-01, 9.58514065e-02, 6.94107175e-01, 4.80005860e-01,
          6.97909057e-01, 3.04927260e-01, 6.83542430e-01, 1.07172288e-01,
          5.78389704e-01, 2.95520186e-01 ]
      - [ 9.62549865e-01, 2.98367497e-02, 9.75534678e-01, 3.88250798e-02,
          9.75353777e-01, 1.66072473e-02, 9.79441702e-01, 2.91598160e-02,
          4.86322403e-01, 1.33150108e-02 ]
      - [ 8.36661398e-01, 8.03972632e-02, 9.11744893e-01, 1.44010350e-01,
          9.10997510e-01, 7.81907812e-02, 9.07262743e-01, 7.94853717e-02,
          5.54983497e-01, 6.59683645e-02 ]
      - [ 7.67559290e-01, 7.16416538e-02, 8.74898374e-01, 2.10667878e-01,
          8.75303209e-01, 1.18919574e-01, 8.65404546e-01, 7.30289072e-02,
          5.11841059e-01, 1.05413698e-01 ]
      - [ 5.13013899e-01, 6.42334223e-02, 7.61772335e-01, 4.37159210e-01,
          7.63600230e-01, 2.94828683e-01, 6.91900730e-01, 7.22850412e-02,
          7.82067895e-01, 2.83796728e-01 ]
      - [ 8.42187047e-01, 6.28204346e-02, 9.09769058e-01, 1.46855205e-01,
          9.09989774e-01, 7.76833221e-02, 9.10563350e-01, 6.33113384e-02,
          5.60264826e-01, 6.75832778e-02 ]
      - [ 6.96850657e-01, 1.08160466e-01, 8.08333576e-01, 2.87868798e-01,
          8.10303450e-01, 1.59736559e-01, 8.20625544e-01, 1.11719683e-01,
          5.79307735e-01, 1.42820060e-01 ]
      - [ 4.58850473e-01, 8.57704207e-02, 7.06522524e-01, 4.84534413e-01,
          7.10582197e-01, 3.37115020e-01, 6.49290919e-01, 9.58987847e-02,
          5.31180978e-01, 3.26614350e-01 ]
      - [ 3.90478939e-01, 4.91178125e-01, 5.29630899e-01, 5.85602462e-01,
          5.29196322e-01, 3.47424686e-01, 5.94143629e-01, 4.77463752e-01,
          5.11604011e-01, 2.98839450e-01 ]
      - [ 6.36671841e-01, 9.41891447e-02, 8.13889682e-01, 3.27813923e-01,
          8.13708425e-01, 2.01250866e-01, 7.80583560e-01, 9.61138085e-02,
          5.47388673e-01, 1.85424730e-01 ]
      - [ 4.41768348e-01, 3.37886751e-01, 5.59312940e-01, 5.58291793e-01,
          5.63470662e-01, 3.29925776e-01, 6.36942804e-01, 3.42196703e-01,
          6.62963569e-01, 3.03446084e-01 ]
      - [ 6.76594317e-01, 1.60392225e-01, 8.19712818e-01, 2.81584114e-01,
          8.17353308e-01, 1.64135501e-01, 8.07312012e-01, 1.57404810e-01,
          6.77319229e-01, 1.39637649e-01 ]
      - [ 4.64945823e-01, 1.30891055e-01, 6.15633011e-01, 5.21050811e-01,
          6.25759065e-01, 3.20596814e-01, 6.55559063e-01, 1.45267755e-01,
          6.47905469e-01, 3.00145537e-01 ]
      - [ 7.41261959e-01, 1.23998962e-01, 8.34158301e-01, 2.42816433e-01,
          8.35281193e-01, 1.31450877e-01, 8.48994255e-01, 1.24995500e-01,
          5.41089833e-01, 1.15102157e-01 ]
      - [ 6.41940296e-01, 1.09679028e-01, 7.87524760e-01, 3.37995499e-01,
          7.89258540e-01, 1.96841314e-01, 7.84259379e-01, 1.13242902e-01,
          5.28042316e-01, 1.80556685e-01 ]
      - [ 6.60650551e-01, 1.52545556e-01, 7.64726102e-01, 3.35040569e-01,
          7.66924500e-01, 1.81745738e-01, 7.96859145e-01, 1.56675562e-01,
          3.87071550e-01, 1.63481206e-01 ]
      - [ 3.63492012e-01, 1.47880986e-01, 5.69435239e-01, 6.21877313e-01,
          5.75903893e-01, 3.99639517e-01, 5.70849359e-01, 1.63007468e-01,
          4.04388994e-01, 3.73903424e-01 ]
      - [ 5.46114624e-01, 1.78236291e-01, 6.71732128e-01, 4.49719340e-01,
          6.77145481e-01, 2.59598076e-01, 7.17124760e-01, 1.86341822e-01,
          3.56985688e-01, 2.40024492e-01 ]
      - [ 6.94007397e-01, 1.16091080e-01, 8.15301239e-01, 2.87062496e-01,
          8.17045748e-01, 1.59874380e-01, 8.18770349e-01, 1.18995860e-01,
          3.93805325e-01, 1.41464904e-01 ]
      - [ 6.44493639e-01, 1.31212726e-01, 7.89135158e-01, 3.35927218e-01,
          7.89378524e-01, 1.92597553e-01, 7.85993159e-01, 1.34519622e-01,
          5.33179462e-01, 1.74514428e-01 ]
      - [ 5.24606228e-01, 1.13467276e-01, 7.24586427e-01, 4.27784413e-01,
          7.26071417e-01, 2.67835021e-01, 7.01087475e-01, 1.20821774e-01,
          3.94363523e-01, 2.40444601e-01 ]
      - [ 5.67344308e-01, 1.46460861e-01, 7.14088619e-01, 4.18425858e-01,
          7.18530774e-01, 2.47498572e-01, 7.32399285e-01, 1.54013231e-01,
          5.58422208e-01, 2.30840370e-01 ]
      - [ 5.91243088e-01, 1.36148199e-01, 7.92914212e-01, 3.75092953e-01,
          7.93191373e-01, 2.30542794e-01, 7.49283969e-01, 1.39195055e-01,
          4.71129417e-01, 2.13975772e-01 ]
      - [ 7.72954822e-01, 1.14389777e-01, 8.27835143e-01, 2.36616731e-01,
          8.30019951e-01, 1.18110433e-01, 8.68776381e-01, 1.17988266e-01,
          5.04378080e-01, 1.06807336e-01 ]
      - [ 4.39031661e-01, 9.57383141e-02, 6.56610012e-01, 5.39940715e-01,
          6.61141515e-01, 3.52400482e-01, 6.34736836e-01, 1.08147524e-01,
          5.14838815e-01, 3.41598868e-01 ]
      - [ 1.65979922e-01, 3.87472332e-01, 3.55393767e-01, 8.24933052e-01,
          3.61836016e-01, 5.70139110e-01, 3.63901287e-01, 3.96149933e-01,
          5.67088664e-01, 5.13753295e-01 ]
      - [ 8.83456886e-01, 3.57343070e-02, 9.41965163e-01, 1.08745679e-01,
          9.41893101e-01, 5.70866428e-02, 9.34690535e-01, 3.63161005e-02,
          4.29160386e-01, 4.99791354e-02 ]
      - [ 2.88084537e-01, 2.59616196e-01, 5.43732941e-01, 6.57952487e-01,
          5.43145597e-01, 4.50415790e-01, 4.99897540e-01, 2.65318602e-01,
          4.38057750e-01, 4.07634676e-01 ]
      - [ 7.00720549e-01, 1.09597825e-01, 8.23678613e-01, 2.68605500e-01,
          8.24457765e-01, 1.53660059e-01, 8.23090911e-01, 1.12070389e-01,
          4.15071726e-01, 1.33645296e-01 ]
      - [ 7.91768551e-01, 4.31854315e-02, 8.98474157e-01, 1.97757542e-01,
          8.99689794e-01, 1.11860439e-01, 8.80282640e-01, 4.61470969e-02,
          4.86367375e-01, 1.04864441e-01 ]
      - [ 7.78068602e-01, 2.88834542e-01, 8.13076437e-01, 2.11422175e-01,
          8.10482323e-01, 9.72337574e-02, 8.71877611e-01, 2.79799998e-01,
          5.79863131e-01, 7.18531907e-02 ]
      - [ 6.38621628e-01, 1.19080000e-01, 7.98012495e-01, 3.32017332e-01,
          7.97940016e-01, 1.97147816e-01, 7.82007754e-01, 1.22323424e-01,
          4.31996167e-01, 1.79565489e-01 ]
      - [ 5.62441587e-01, 1.97975576e-01, 7.42993653e-01, 3.70578796e-01,
          7.41632640e-01, 2.31049761e-01, 7.28691161e-01, 1.97585747e-01,
          8.84229422e-01, 1.96578354e-01 ]
      - [ 8.57523263e-01, 6.98459595e-02, 9.29925263e-01, 1.27138570e-01,
          9.29056287e-01, 6.78936467e-02, 9.19577479e-01, 6.88468367e-02,
          3.94807309e-01, 5.73301762e-02 ]
      - [ 9.01782870e-01, 3.31004187e-02, 9.46276307e-01, 9.68706459e-02,
          9.46630836e-01, 4.86863367e-02, 9.45233583e-01, 3.38148586e-02,
          3.89979154e-01, 4.34585363e-02 ]
      - [ 8.91945720e-01, 3.47355567e-02, 9.50858533e-01, 1.03891999e-01,
          9.50999916e-01, 5.36182821e-02, 9.39584553e-01, 3.52086499e-02,
          5.11288881e-01, 4.77600545e-02 ]
      - [ 9.06304479e-01, 4.15944718e-02, 9.44238186e-01, 9.46816131e-02,
          9.44495320e-01, 4.79490049e-02, 9.47811425e-01, 4.22959030e-02,
          5.09833515e-01, 4.46535535e-02 ]
      - [ 9.18194950e-01, 3.80366184e-02, 9.57735896e-01, 7.75706470e-02,
          9.57428098e-01, 3.97111513e-02, 9.54576254e-01, 3.78267951e-02,
          5.26352823e-01, 3.50794829e-02 ]
      - [ 6.81543112e-01, 2.03514621e-01, 8.08723092e-01, 2.81900883e-01,
          8.06865752e-01, 1.58971742e-01, 8.10526788e-01, 1.99701145e-01,
          3.32592398e-01, 1.33562937e-01 ]
      - [ 8.04277897e-01, 7.64951929e-02, 9.00536358e-01, 1.79843515e-01,
          8.99240494e-01, 9.82110873e-02, 8.87872577e-01, 7.62980208e-02,
          4.58499074e-01, 8.61919373e-02 ]
      - [ 8.47780347e-01, 1.21579163e-01, 8.87881994e-01, 1.54841721e-01,
          8.86929393e-01, 7.93791935e-02, 9.13797081e-01, 1.21288344e-01,
          4.34828877e-01, 7.41109475e-02 ]
      - [ 9.62042689e-01, 1.48065398e-02, 9.80924129e-01, 3.97445373e-02,
          9.80909526e-01, 1.90939419e-02, 9.79161084e-01, 1.47590516e-02,
          5.41317523e-01, 1.76875535e-02 ]
      - [ 8.57814252e-01, 7.58644864e-02, 9.12020028e-01, 1.41536132e-01,
          9.12308455e-01, 7.05499798e-02, 9.19770122e-01, 7.61741623e-02,
          4.72263664e-01, 6.25709072e-02 ]
      - [ 9.55407470e-02, 4.41533893e-01, 3.59484017e-01, 8.87324929e-01,
          3.59166145e-01, 6.57549322e-01, 2.61890441e-01, 4.45739836e-01,
          7.67450809e-01, 5.89445293e-01 ]
      - [ 0., 1.17258653e-02, 4.64533925e-01, 1., 4.64674294e-01, 1., 0.,
          3.68359014e-02, 4.27594006e-01, 1. ]
      - [ 9.38403130e-01, 4.45034765e-02, 9.62227762e-01, 6.57676086e-02,
          9.62104738e-01, 3.10588498e-02, 9.65976715e-01, 4.32683565e-02,
          3.57954532e-01, 2.87510492e-02 ]
      - [ 9.28731918e-01, 8.23808312e-02, 9.51727986e-01, 6.58196285e-02,
          9.50565815e-01, 2.96459142e-02, 9.60533679e-01, 7.88003057e-02,
          5.36174357e-01, 2.15965454e-02 ]
      - [ 8.91385257e-01, 4.23089378e-02, 9.49760139e-01, 9.61228535e-02,
          9.49274480e-01, 5.97704425e-02, 9.39231575e-01, 4.19869460e-02,
          3.78741115e-01, 5.98628782e-02 ]
      - [ 8.89852464e-01, 5.53101003e-02, 9.30788696e-01, 1.12796299e-01,
          9.31043446e-01, 5.43127246e-02, 9.38387513e-01, 5.57362884e-02,
          4.93893355e-01, 4.81520854e-02 ]
   decision_functions:
      -
         sv_count: 6
         rho: 2.3260154788049419e+00
         alpha: [ 1.5506600530192841e+02, 3.1250000000000000e+02,
             -2.8602681843832414e+01, -1.9374133409297397e+02,
             -2.3186841384217635e+02, -1.3353575522945546e+01 ]
         index: [ 12, 14, 19, 21, 25, 26 ]
      -
         sv_count: 17
         rho: -3.1612276602907743e+00
         alpha: [ 1.7909251176847479e+02, 4.4040748641833581e+01,
             3.1250000000000000e+02, 3.0770838533758672e+02,
             3.1250000000000000e+02, 1.2992898482652748e+02,
             3.1250000000000000e+02, 1.1731801607435942e+01,
             6.5839408449680836e-01, 3.1250000000000000e+02,
             -2.3684371902320049e+02, -2.7436998506746448e+02,
             -3.1250000000000000e+02, -3.1250000000000000e+02,
             -2.7935198877194290e+02, -3.1250000000000000e+02,
             -1.9509513340374741e+02 ]
         index: [ 1, 3, 4, 5, 6, 7, 8, 12, 13, 14, 33, 34, 35, 36, 38,
             44, 46 ]
      -
         sv_count: 19
         rho: 7.4138226312711879e+00
         alpha: [ 3.1250000000000000e+02, 6.2250166732037812e+01,
             1.1635364978023449e+02, 3.1250000000000000e+02,
             3.1250000000000000e+02, 3.1250000000000000e+02,
             3.1250000000000000e+02, 3.1250000000000000e+02,
             3.1250000000000000e+02, 7.3211388253214125e+01,
             -3.1250000000000000e+02, -3.1250000000000000e+02,
             -3.1250000000000000e+02, -2.7411397624583248e+02,
             -3.1250000000000000e+02, -2.8754199057764873e+02,
             -2.6592379420051424e+00, -3.1250000000000000e+02,
             -3.1250000000000000e+02 ]
         index: [ 0, 1, 2, 4, 8, 9, 10, 11, 12, 14, 49, 51, 52, 56, 57,
             58, 62, 63, 65 ]
      -
         sv_count: 17
         rho: -5.2411041875653677e+00
         alpha: [ 2.3047817667074003e+02, 3.1250000000000000e+02,
             3.5567029251528673e+01, 3.1250000000000000e+02,
             3.1250000000000000e+02, 3.1250000000000000e+02,
             6.1105876458040413e+01, 3.1250000000000000e+02,
             1.4957422862055878e+02, -3.1250000000000000e+02,
             -3.1250000000000000e+02, -3.1250000000000000e+02,
             -3.1174667024986508e+02, -2.2618234867327351e+02,
             -2.0974023355025068e+02, -4.1556058527478406e+01,
             -3.1250000000000000e+02 ]
         index: [ 17, 18, 19, 21, 24, 25, 26, 27, 28, 30, 31, 32, 37, 39,
             42, 43, 47 ]
      -
         sv_count: 22
         rho: 1.3016772056415375e+01
         alpha: [ 3.8149663064689499e+01, 3.1250000000000000e+02,
             3.1250000000000000e+02, 3.1250000000000000e+02,
             3.1250000000000000e+02, 4.4663287623991451e+01,
             3.1250000000000000e+02, 2.8403601478771376e+00,
             2.0697991567370227e+01, 5.5182492805172828e+01,
             1.2918384453329404e+02, 9.2414602866668915e+01,
             -8.8287818562597124e+01, -3.1250000000000000e+02,
             -3.1250000000000000e+02, -3.1250000000000000e+02,
             -2.0443624770241058e+02, -2.0634704978080822e+02,
             -2.8556932280988866e+02, -1.7935114110792568e+02,
             -1.2895140315143527e+01, -3.1245522330290171e+01 ]
         index: [ 15, 16, 19, 20, 21, 22, 23, 25, 26, 27, 28, 29, 48, 49,
             50, 53, 54, 55, 57, 59, 61, 64 ]
      -
         sv_count: 17
         rho: 6.6606009017009740e+00
         alpha: [ 3.1250000000000000e+02, 2.5290960895825744e+01,
             3.3290603763081826e+01, 2.4187817923905166e+02,
             3.2301862601627981e+01, 3.1250000000000000e+02,
             1.5459647362655726e+01, 9.8724139155195346e+01,
             3.1250000000000000e+02, -3.1250000000000000e+02,
             -8.3230188749846306e+01, -1.3324786577424416e+02,
             -7.5939908676309258e+01, -3.1250000000000000e+02,
             -3.1250000000000000e+02, -1.6583767215668505e+01,
             -1.3794366260137011e+02 ]
         index: [ 31, 36, 40, 41, 43, 44, 45, 46, 47, 49, 50, 53, 56, 57,
             60, 61, 66 ]
